tree
version=v4
num_class=1
num_tree_per_iteration=1
label_index=0
max_feature_idx=50
objective=binary sigmoid:1
feature_names=Column_0 Column_1 Column_2 Column_3 Column_4 Column_5 Column_6 Column_7 Column_8 Column_9 Column_10 Column_11 Column_12 Column_13 Column_14 Column_15 Column_16 Column_17 Column_18 Column_19 Column_20 Column_21 Column_22 Column_23 Column_24 Column_25 Column_26 Column_27 Column_28 Column_29 Column_30 Column_31 Column_32 Column_33 Column_34 Column_35 Column_36 Column_37 Column_38 Column_39 Column_40 Column_41 Column_42 Column_43 Column_44 Column_45 Column_46 Column_47 Column_48 Column_49 Column_50
feature_infos=[0:1] [0:1] [0:1] [0:1] [0:1] [0:1] [0:1] [0:1] [0:1] [0:1] [0:1] [0:1] [0:1] [0:1] [0:1] [0:1] [0:1] [0:1] [0:1] [0:1] [0:1] [0:1] [0:1] [0:1] [0:1] [0:1] [0:1] [0:1] [0:1] [0:1] [0:1] [0:1] [0:1] [0:1] [0:1] [0:1] [0:1] [0:1] [0:1] [0:1] [0:1] [0:1] [0:1] [0:1] [-1.9464702206183355:4.3724085162895943] [-2.7968932447205845:26.754659480968062] [-1.748462847677118:1.8089907062593904] [-1.0684507491367921:8.4346209717057601] [-0.53354235695825003:21.575193225994539] [-0.48185906295224562:7.4031122504851625] [-0.35547749314175714:24.430804692911455]
tree_sizes=3473 3467 3463 3484 3473 3483 3478 3492 3479 3501 3497 3488 3474 3501 3494 3485 3497 3502 3497 3467 3497 3488 3486 3472 3481 3467 3474 3507 3476 3468 3474 3482 3464 3481 3477 3465 3492 3476 3484 3482 3476 3463 3467 3477 3480 3470 3464 3454 3439 3469 3448 3466 3452 3450 3480 3449 3427 3461 3436 3472 3448 3477 3449 3422 3450 3441 3454 3429 3463 3434 3437 3458 3447 3417 3442 3442 3452

Tree=0
num_leaves=31
num_cat=0
split_feature=47 47 27 42 42 21 35 47 21 45 28 49 47 49 44 28 21 45 29 23 37 46 27 44 44 36 47 47 45 31
split_gain=1536.81 373.185 397.893 329.308 211.557 117.5 116.624 91.2389 87.4245 60.826 43.4276 47.5724 39.0615 32.6892 29.0658 26.4144 29.6685 25.9411 25.0888 25.3987 28.6238 31.0711 24.8136 22.8958 25.0957 22.1309 21.6262 21.2917 19.7808 19.5587
threshold=-0.4763184618387109 0.29388783850989325 1.0000000180025095e-35 1.0000000180025095e-35 1.0000000180025095e-35 1.0000000180025095e-35 1.0000000180025095e-35 -0.70795945442475727 1.0000000180025095e-35 -0.47625848393678683 1.0000000180025095e-35 -0.085304950112703393 0.85561724553105578 3.0410170092501994 1.5499760138040526 1.0000000180025095e-35 1.0000000180025095e-35 -0.12922885885175592 1.0000000180025095e-35 1.0000000180025095e-35 1.0000000180025095e-35 0.089554821856744654 1.0000000180025095e-35 -1.1460789139433307 1.718479446788264 1.0000000180025095e-35 -0.0043499394446414996 -0.74560111571998977 0.62238898000503995 1.0000000180025095e-35
decision_type=2 2 2 2 2 2 2 2 2 2 2 2 2 2 2 2 2 2 2 2 2 2 2 2 2 2 2 2 2 2
left_child=3 2 4 6 5 13 7 15 25 -7 11 23 22 17 18 29 -17 26 19 -11 -21 -22 -3 -10 28 -9 -2 -5 -25 -1
right_child=1 12 -4 27 -6 9 -8 8 10 14 -12 -13 -14 -15 -16 16 -18 -19 -20 20 21 -23 -24 24 -26 -27 -28 -29 -30 -31
leaf_value=-0.2792350317752616 -0.20925932065573222 0.014986910729864342 -0.2634623310114988 -0.085938362784145572 0.084027824454902131 -0.145546153642577 0.02957426106190765 -0.20996994827263954 -0.048715145892941569 -0.16114445405412914 0.0074334510148195559 -0.02744473624082501 0.054458480724709976 0.088815887944656849 0.073106291205544224 -0.25335115599433888 -0.023831230353978952 -0.097146010930225263 -0.10640832796948785 0.0095109956195425227 0.086200023900483383 -0.20833258975294236 -0.073725407791584124 -0.23188093266465631 -0.035309425523960547 -0.28697948258429773 -0.10231657821627532 0.066145066228487884 -0.098226939789044843 -0.19539810076662856
leaf_weight=358.76414716243744 78.284879922866821 166.54235601425171 101.96979582309723 11.967115402221678 98.978016972541809 44.876682758331299 16.953413486480713 73.049266934394836 10.969855785369871 11.219170689582823 17.202728390693665 22.438341379165649 308.90116631984711 5.7342427968978873 30.167103409767151 14.460264444351196 9.2246514558792114 52.6054447889328 37.147920727729797 141.61086559295654 4.9862980842590359 12.715060114860533 38.893125057220459 85.764327049255371 8.4767067432403547 76.290360689163208 24.931490421295166 39.890384674072266 12.715060114860533 30.167103409767151
leaf_count=1439 314 668 409 48 397 180 68 293 44 45 69 90 1239 23 121 58 37 211 149 568 20 51 156 344 34 306 100 160 51 121
internal_value=-0.104793 -0.0315555 -0.0822058 -0.212519 -0.0481838 -0.0776384 -0.229669 -0.235777 -0.194488 -0.0387632 -0.142528 -0.160907 0.0319846 -0.14567 -0.0186155 -0.266489 -0.163959 -0.154299 -0.0319388 -0.0157167 -0.0054753 -0.125366 -0.00180814 -0.186301 -0.200413 -0.24931 -0.183428 0.0310489 -0.214624 -0.272732
internal_weight=1947.9 1159.56 645.227 788.334 543.257 444.279 736.476 719.523 306.907 282.723 157.567 140.364 514.337 161.556 237.846 412.616 23.6849 155.822 207.679 170.531 159.312 17.7014 205.435 117.926 106.956 149.34 103.216 51.8575 98.4794 388.931
internal_count=7813 4651 2588 3162 2179 1782 2954 2886 1231 1134 632 563 2063 648 954 1655 95 625 833 684 639 71 824 473 429 599 414 208 395 1560
is_linear=0
shrinkage=1


Tree=1
num_leaves=31
num_cat=0
split_feature=47 47 27 42 42 35 21 47 21 47 27 45 28 49 49 44 28 21 48 34 46 44 36 46 33 28 49 47 42 31
split_gain=1254.41 307.787 279.58 269.783 174.795 95.6681 87.8151 76.6841 72.5362 52.0695 53.6087 45.4703 35.2555 38.7844 27.6214 23.5869 22.1589 24.3333 20.7348 20.0589 19.7739 18.8732 18.8664 18.3529 24.6936 18.0293 24.4207 17.3451 17.2452 16.6465
threshold=-0.4763184618387109 0.091201969997102644 1.0000000180025095e-35 1.0000000180025095e-35 1.0000000180025095e-35 1.0000000180025095e-35 1.0000000180025095e-35 -0.70795945442475727 1.0000000180025095e-35 0.78033392294059067 1.0000000180025095e-35 -0.46820363770657331 1.0000000180025095e-35 -0.085304950112703393 2.9441840282079856 1.2972208643277354 1.0000000180025095e-35 1.0000000180025095e-35 -0.3552461022570178 1.0000000180025095e-35 -1.3334265997178585 -1.3145823469275422 1.0000000180025095e-35 0.68246374751282957 1.0000000180025095e-35 1.0000000180025095e-35 -0.15447136514285609 -0.82088443831045488 1.0000000180025095e-35 1.0000000180025095e-35
decision_type=2 2 2 2 2 2 2 2 2 2 2 2 2 2 2 2 2 2 2 2 2 2 2 2 2 2 2 2 2 2
left_child=3 2 4 5 6 7 14 16 22 10 28 -8 13 18 20 19 29 -18 -10 21 -2 -13 -9 -22 -25 26 -23 -5 -3 -1
right_child=1 9 -4 27 -6 -7 11 8 12 -11 -12 15 -14 -15 -16 -17 17 -19 -20 -21 23 25 -24 24 -26 -27 -28 -29 -30 -31
leaf_value=-0.15976443542231633 0.060522660076869933 0.092228812774019703 -0.15468207232746717 -0.046041808142028989 0.16999986894102825 0.12059856756392302 -0.042981037029212875 -0.09548288623791891 -0.021705288834184652 0.14117509357741617 -0.012354003630984363 0.15664721890229677 0.10070732652526232 0.069424035779378432 0.17330602686257449 0.15016644167363571 -0.13557265899945392 0.072663600595859107 -0.10784979856075028 0.17029144309923086 -0.094515114333883377 -0.0077873397945116178 -0.16704698887220343 0.078887328585922636 -0.11787483890380553 0.1263149858974382 0.10029049898564918 0.14191929888349461 0.17285361432595633 -0.082127524852910097
leaf_weight=352.82750159502029 12.16968412697315 204.83612364530563 85.753289386630058 5.4898574054241172 86.597050607204437 16.996283292770386 43.537815123796463 72.448543459177017 46.078181609511375 332.01300996541977 48.946187540888786 13.489494264125822 17.249761462211609 22.495763450860977 5.2395638078451148 30.957392737269402 14.269789427518845 9.2486867010593414 70.986192539334297 13.748079061508177 91.805614843964577 87.542920380830765 74.946286171674728 15.887570098042488 10.656385660171509 17.746378377079964 27.465916216373444 46.444294482469559 30.476950526237488 29.963087573647499
leaf_count=1439 49 820 349 22 347 68 175 293 186 1329 197 54 69 90 21 124 58 37 287 55 370 351 306 64 43 71 110 186 122 121
internal_value=-5.33579e-05 0.0659221 0.0109989 -0.098145 0.0420986 -0.113864 0.0121837 -0.119472 -0.081505 0.114279 0.0828651 0.0492401 -0.0341628 -0.0508329 -0.0518215 0.0702671 -0.147899 -0.0536833 -0.0739421 0.0548072 -0.060859 0.0439508 -0.131871 -0.0733404 -0.000105176 0.0324995 0.0180233 0.12205 0.102671 -0.153687
internal_weight=1938.31 1158.87 542.597 779.444 456.844 727.51 370.247 710.514 304.205 616.272 284.259 234.488 156.81 139.56 135.759 190.95 406.309 23.5185 117.064 159.993 130.519 146.245 147.395 118.35 26.544 132.755 115.009 51.9342 235.313 382.791
internal_count=7813 4651 2183 3162 1834 2954 1487 2886 1231 2468 1139 940 632 563 547 765 1655 95 473 641 526 586 599 477 107 532 461 208 942 1560
is_linear=0
shrinkage=0.1


Tree=2
num_leaves=31
num_cat=0
split_feature=47 47 27 42 42 35 38 21 28 21 31 46 47 27 45 47 49 28 49 45 44 21 47 34 8 27 34 47 42 21
split_gain=1033.17 250.29 231.759 223.155 144.313 79.2223 73.181 71.5521 58.637 48.4443 46.9135 103.656 43.4897 42.4794 37.4645 33.0314 31.211 28.2838 22.6504 19.1718 17.2456 16.905 15.3918 15.102 15.4417 14.9618 35.7728 14.7919 14.421 12.9053
threshold=-0.4763184618387109 0.091201969997102644 1.0000000180025095e-35 1.0000000180025095e-35 1.0000000180025095e-35 1.0000000180025095e-35 1.0000000180025095e-35 1.0000000180025095e-35 1.0000000180025095e-35 1.0000000180025095e-35 1.0000000180025095e-35 -0.74051767406177393 0.83245314627245115 1.0000000180025095e-35 -0.41953894173236689 -0.63267613183429217 -0.085304950112703393 1.0000000180025095e-35 2.9441840282079856 -0.12100620332507965 1.5499760138040526 1.0000000180025095e-35 -0.74560111571998977 1.0000000180025095e-35 1.0000000180025095e-35 1.0000000180025095e-35 1.0000000180025095e-35 0.31126091295384672 1.0000000180025095e-35 1.0000000180025095e-35
decision_type=2 2 2 2 2 2 2 2 2 2 2 2 2 2 2 2 2 2 2 2 2 2 2 2 2 2 2 2 2 2
left_child=3 2 4 5 7 6 8 18 10 -10 15 -12 13 28 17 -1 25 -9 19 -2 23 -18 -5 24 -16 26 -17 -15 29 -3
right_child=1 12 -4 22 -6 -7 -8 14 9 -11 11 -13 -14 27 20 16 21 -19 -20 -21 -22 -23 -24 -25 -26 -27 -28 -29 -30 -31
leaf_value=-0.14603096229812026 -0.08171266826219753 0.054807016228487992 -0.14308438073746471 0.011369598500015916 0.15530977449880121 0.10915338582263601 0.088887561049624253 -0.036833753265255405 -0.11939429377276195 0.082002161258802733 -0.11824941070598793 0.19682421660820204 0.12946253752114301 -0.089306688949788493 0.036988723404667516 -0.10496770075864226 -0.066967815600304764 0.20026782040688504 0.15833969214753915 0.00061775210225501777 0.15268590682956526 0.10019464228171848 0.14078100888820308 0.1556781572900853 0.16816666099585104 -0.1584052235103619 0.1454628506842405 0.028089848724371924 0.15784932687782346 0.10470428261284725
leaf_weight=423.67289029061794 87.868708908557892 87.052013605833054 83.544645205140114 11.971028506755827 85.365420192480087 16.904513657093048 18.031440481543541 62.822728425264359 21.781470328569412 26.444153115153313 38.770197466015816 14.290377467870711 314.01475749909878 14.967835783958433 119.63518884778023 78.017971381545067 12.771174117922783 5.4691774249076834 5.1647268384695044 41.710247725248337 21.974993169307709 11.494935184717178 39.57019567489624 14.139565020799635 9.7014416456222516 44.39600282907486 6.153909057378768 37.932549715042114 30.635149359703064 128.1222602725029
leaf_count=1771 358 349 349 48 347 68 74 253 90 106 158 58 1268 61 480 320 53 22 21 168 89 46 160 57 39 185 25 152 124 514
internal_value=-9.55983e-05 0.05979 0.00997795 -0.0902152 0.0381535 -0.104746 -0.109943 0.0110125 -0.115232 -0.00896008 -0.123373 -0.0333932 0.103478 0.0761627 0.0444694 -0.131654 -0.0918008 -0.0178454 -0.0470259 -0.0552113 0.0701905 0.0122176 0.110724 0.0575554 0.0468283 -0.111433 -0.0866584 -0.00512677 0.0936569 0.0845176
internal_weight=1914.39 1150.12 537.397 764.27 453.852 712.729 695.825 368.487 677.793 48.2256 629.567 53.0606 612.725 298.71 233.743 576.507 152.834 68.2919 134.744 129.579 165.451 24.2661 51.5412 143.476 129.337 128.568 84.1719 52.9004 245.809 215.174
internal_count=7813 4651 2183 3162 1834 2954 2886 1487 2812 196 2616 216 2468 1200 940 2400 629 275 547 526 665 99 208 576 519 530 345 213 987 863
is_linear=0
shrinkage=0.1


Tree=3
num_leaves=31
num_cat=0
split_feature=47 47 27 42 42 47 21 21 47 27 45 45 48 35 44 49 36 44 29 23 37 23 44 17 28 21 46 1 38 31
split_gain=856.988 205.213 193.694 186.006 121.005 70.0359 66.2219 58.4177 37.43 35.8987 31.4071 30.2608 23.9989 22.4865 19.0405 18.7151 18.0169 17.1814 16.9166 17.4994 17.3003 16.7972 16.6903 16.4804 16.4402 16.5299 14.8891 14.7596 13.5262 13.693
threshold=-0.4763184618387109 0.091201969997102644 1.0000000180025095e-35 1.0000000180025095e-35 1.0000000180025095e-35 -0.70795945442475727 1.0000000180025095e-35 1.0000000180025095e-35 0.78033392294059067 1.0000000180025095e-35 -0.46820363770657331 -0.44705966635226296 1.0000000180025095e-35 1.0000000180025095e-35 -1.061827197451225 2.9441840282079856 1.0000000180025095e-35 1.5499760138040526 1.0000000180025095e-35 1.0000000180025095e-35 1.0000000180025095e-35 1.0000000180025095e-35 -0.89332376446701367 1.0000000180025095e-35 1.0000000180025095e-35 1.0000000180025095e-35 0.20813660698796163 1.0000000180025095e-35 1.0000000180025095e-35 1.0000000180025095e-35
decision_type=2 2 2 2 2 2 2 2 2 2 2 2 2 2 2 2 2 2 2 2 2 2 2 2 2 2 2 2 2 2
left_child=3 2 4 5 7 13 16 15 9 -3 -9 14 21 24 -8 23 -7 18 19 -12 -21 -13 -20 -2 28 -26 -22 -23 29 -1
right_child=1 8 -4 -5 -6 6 11 10 -10 -11 17 12 -14 -15 -16 -17 -18 -19 22 20 26 27 -24 -25 25 -27 -28 -29 -30 -31
leaf_value=-0.14213738919796073 -0.073981287061426468 0.083985114806517269 -0.13351398849266866 0.10124245321234981 0.14357664975794029 -0.075632810895687089 0.082445078829267382 -0.03661701445349335 0.11749918282954562 -0.010400823988185157 -0.071544818896571799 -0.090580891882123662 -0.072913683758323342 0.050920406081202366 -0.11376515775437251 0.14645915661006259 -0.14679754096338529 0.13891565505528777 0.14080974954317316 0.084496574016481293 0.090890009925757714 0.065120463418687421 -0.055816960418055062 0.003639579524145098 -0.11604030201225234 0.057450602717238668 -0.11466232686811986 -0.064785924332857805 0.0062748850857599313 -0.070800163464330629
leaf_weight=324.20873565971851 89.031584203243256 232.81734924018383 80.724764838814735 50.7800133228302 83.215229913592339 72.173000156879425 5.6864469200372687 43.258028477430344 323.89233270287514 48.730490520596504 9.2086787074804288 9.6474577337503415 27.276933714747429 7.1294623613357535 37.971765965223312 5.0319613218307486 70.157595083117485 22.960242211818695 5.2313614785671261 112.57668316364288 5.9344429820775977 70.655753374099731 24.697960630059242 39.484332859516144 13.602254390716553 9.2105282545089722 8.6754146814346296 9.9816638976335508 6.7897953391075125 29.342276379466057
leaf_count=1411 365 942 349 208 347 301 23 175 1329 197 37 40 113 29 158 21 306 95 21 454 24 288 99 161 58 37 35 41 28 121
internal_value=-0.00013296 0.0545405 0.00910449 -0.0835051 0.0347281 -0.0970264 -0.0610011 0.009986 0.0943172 0.0676487 0.0402583 -0.0171152 0.00928641 -0.125046 -0.0882089 -0.0427262 -0.110711 0.0578269 0.046633 0.0615722 0.0712102 0.0341208 -0.0214485 -0.0501336 -0.12832 -0.0459944 -0.0311681 0.0490401 -0.133532 -0.136217
internal_weight=1880.08 1135.47 530.031 744.614 449.306 693.834 303.551 366.091 605.44 281.548 232.543 161.22 117.562 390.283 43.6582 133.548 142.331 189.285 166.325 136.395 127.187 90.2849 29.9293 128.516 383.154 22.8128 14.6099 80.6374 360.341 353.551
internal_count=7813 4651 2183 3162 1834 2954 1270 1487 2468 1139 940 663 482 1684 181 547 607 765 670 550 513 369 120 526 1655 95 59 329 1560 1532
is_linear=0
shrinkage=0.1


Tree=4
num_leaves=31
num_cat=0
split_feature=47 47 27 42 42 47 27 21 33 21 29 45 1 47 35 23 29 37 46 43 46 46 28 27 46 21 47 31 46 47
split_gain=713.726 171.738 190.878 155.565 103.113 62.5722 58.3952 54.6607 36.756 31.339 43.3702 30.3124 21.1134 19.9996 19.1493 16.7793 15.6527 16.2769 24.2499 15.5402 15.2568 15.0325 14.4912 14.3117 14.1179 13.891 13.446 13.2545 49.3175 12.1815
threshold=-0.4763184618387109 0.29388783850989325 1.0000000180025095e-35 1.0000000180025095e-35 1.0000000180025095e-35 -0.70216842961010606 1.0000000180025095e-35 1.0000000180025095e-35 1.0000000180025095e-35 1.0000000180025095e-35 1.0000000180025095e-35 -0.47625848393678683 1.0000000180025095e-35 1.2624367387602999 1.0000000180025095e-35 1.0000000180025095e-35 1.0000000180025095e-35 1.0000000180025095e-35 0.089554821856744654 1.0000000180025095e-35 1.3939544583001313 0.80104553264404643 1.0000000180025095e-35 1.0000000180025095e-35 -1.3334265997178585 1.0000000180025095e-35 -0.74560111571998977 1.0000000180025095e-35 -0.74051767406177393 -0.16360312184754836
decision_type=2 2 2 2 2 2 2 2 2 2 2 2 2 2 2 2 2 2 2 2 2 2 2 2 2 2 2 2 2 2
left_child=3 2 4 5 7 14 8 12 9 21 20 -9 24 23 22 -13 17 -17 -19 -18 -11 -7 27 -3 -2 -24 -5 -1 -29 -26
right_child=1 13 -4 26 -6 6 -8 11 -10 10 -12 15 -14 -15 -16 16 19 18 -20 -21 -22 -23 25 -25 29 -27 -28 28 -30 -31
leaf_value=-0.13075428457745697 0.089378347103490491 0.08810035441906347 -0.11809219442450188 0.00011088789735804307 0.1340737202354155 -0.084871899539108064 -0.13754119951840904 -0.031497842625410735 -0.12815045318798099 0.072768577721868885 -0.075166977480686098 -0.05238829480856632 -0.097589020867184961 0.11774307721359004 0.046177477931471818 0.088204732904657315 0.1460134922115208 0.15579851726406316 -0.086317446185913374 -0.018333621254216791 -0.048120273768718622 0.057096503486202432 -0.10893771664626029 0.033030425258945714 -0.051165431076584125 0.048333298160629166 0.12169699407549434 -0.13220315083226702 0.17200689545122405 0.016030735949634816
leaf_weight=322.75965151190758 12.856180891394613 233.6150623857975 91.9976417273283 11.953513801097868 92.197455272078514 61.004838392138481 66.458830043673515 44.337327003479004 33.065175920724869 73.220515578985214 36.131033182144165 12.853235319256781 35.258230671286583 204.3290439248085 7.078302487730979 160.91541507840157 6.9213682115077964 6.0609323233366039 13.030657380819319 34.098619177937508 12.175837874412535 8.4973040968179685 13.40885204076767 59.137237757444382 60.910754054784775 9.6636154353618622 38.040695190429688 22.755057439208034 6.9588083028793326 48.427274689078331
leaf_count=1465 52 964 409 48 397 265 297 180 140 298 152 52 146 858 29 658 28 25 53 138 50 36 59 241 252 39 160 96 28 198
internal_value=-0.000166751 0.0499459 0.0148318 -0.0775663 0.037998 -0.0902058 -0.0552194 0.0176662 -0.0308055 -0.0139562 0.0166743 0.0443128 -0.0294181 0.0937336 -0.116773 0.0586844 0.0651435 0.077847 -0.00945384 0.00939693 0.0555322 -0.0675149 -0.119845 0.076976 -0.00974789 -0.0430667 0.092626 -0.12487 -0.060959 -0.0214034
internal_weight=1840.12 1116.95 619.865 723.172 527.867 673.178 290.554 435.67 224.095 191.03 121.527 278.218 157.452 497.081 382.624 233.88 221.027 180.007 19.0916 41.02 85.3964 69.5021 375.546 292.752 122.194 23.0725 49.9942 352.474 29.7139 109.338
internal_count=7813 4651 2588 3162 2179 2954 1238 1782 941 801 500 1134 648 2063 1716 954 902 736 78 166 348 301 1687 1205 502 98 208 1589 124 450
is_linear=0
shrinkage=0.1


Tree=5
num_leaves=31
num_cat=0
split_feature=47 47 49 27 42 33 38 42 35 47 35 34 44 44 27 28 36 29 44 21 46 46 46 32 31 46 1 21 36 45
split_gain=602.294 186.974 184.598 93.621 63.3994 52.4864 50.6299 39.2275 39.2154 37.076 36.7345 34.5457 34.4479 40.5454 34.373 31.1443 28.7632 25.0521 24.8006 23.1317 21.2012 20.1518 18.6274 34.9547 16.896 62.0158 16.6745 16.5181 16.2839 13.8165
threshold=-0.5863479333170829 -0.015931989073943817 -0.20058230849629125 1.0000000180025095e-35 1.0000000180025095e-35 1.0000000180025095e-35 1.0000000180025095e-35 1.0000000180025095e-35 1.0000000180025095e-35 0.68767752590617215 1.0000000180025095e-35 1.0000000180025095e-35 1.2972208643277354 -0.97757548095911939 1.0000000180025095e-35 1.0000000180025095e-35 1.0000000180025095e-35 1.0000000180025095e-35 1.6342277302961583 1.0000000180025095e-35 0.44530017725039556 -0.97768124432420778 0.56388196238161259 1.0000000180025095e-35 1.0000000180025095e-35 -0.74051767406177393 1.0000000180025095e-35 1.0000000180025095e-35 1.0000000180025095e-35 0.0093816200265011244
decision_type=2 2 2 2 2 2 2 2 2 2 2 2 2 2 2 2 2 2 2 2 2 2 2 2 2 2 2 2 2 2
left_child=4 2 3 5 6 8 10 16 11 14 15 12 13 -2 27 18 26 22 24 -17 -18 -7 -15 -24 -1 -26 29 -3 -16 -4
right_child=1 9 7 -5 -6 21 -8 -9 -10 -11 -12 -13 -14 17 28 19 20 -19 -20 -21 -22 -23 23 -25 25 -27 -28 -29 -30 -31
leaf_value=-0.11997981585974721 0.06572811420673845 0.033563827172133125 0.047409484823834863 -0.13037855293927511 0.054740896876584427 0.043487739038090924 0.082461938946913241 0.12784603465636871 0.17770887409640757 0.098497922027552823 0.072282786579418945 0.13089234938890379 0.090484597538810385 -0.049314699677276613 0.043039845384991893 -0.095956234759122169 -0.11843223382477103 -0.11471520640404675 0.038475206178343518 0.068842623673615766 0.11434636188353227 -0.12831683261241755 0.1072025670851478 -0.16492606879672805 -0.12182821391196622 0.17550982625068057 -0.054547106817727037 0.085498846391548533 -0.069483205567629866 0.14080948821674005
leaf_weight=418.13850195705891 36.176811650395393 98.883007884025574 41.527158886194229 90.459886506199837 30.173256367444992 7.9935255497694007 15.725622415542601 88.378979340195656 12.463082477450369 339.15859369933605 12.127123624086378 17.525262087583542 27.169612765312195 85.599397495388985 22.020120769739151 16.633893042802811 16.91986504197121 45.014457985758781 10.90260189771652 17.454853817820549 5.0896422117948523 46.792487472295761 20.950251802802089 6.092916712164878 29.374519810080528 9.2151337265968305 10.140171244740484 160.87213097512722 30.920286417007446 25.602937072515488
leaf_count=1959 150 407 172 425 127 33 65 394 51 1453 50 73 114 357 92 75 72 186 46 71 21 197 86 25 127 37 42 670 130 106
internal_value=-0.000196271 0.0387837 -0.00231542 -0.0410102 -0.0862525 -0.0145719 -0.0942858 0.0793879 0.00478453 0.0755982 -0.0996949 -0.00425074 -0.0149674 -0.0297486 0.0507605 -0.103852 0.0362503 -0.0516571 -0.110579 -0.0115724 -0.0646028 -0.10325 -0.0264577 0.0458911 -0.114137 -0.0508245 0.0649771 0.0657283 -0.0226802 0.0830316
internal_weight=1795.5 1235.75 583.896 396.238 559.746 305.778 529.572 187.659 250.992 651.854 513.847 238.529 221.003 193.834 312.696 501.72 99.2798 157.657 467.631 34.0887 22.0095 54.786 112.643 27.0432 456.728 38.5897 77.2703 259.755 52.9404 67.1301
internal_count=7813 5256 2504 1697 2557 1272 2430 807 1042 2752 2365 991 918 804 1299 2315 413 654 2169 146 93 230 468 111 2123 164 320 1077 222 278
is_linear=0
shrinkage=0.1


Tree=6
num_leaves=31
num_cat=0
split_feature=47 47 49 27 42 33 38 42 35 35 46 34 44 44 28 47 21 46 44 27 21 39 31 46 45 38 42 45 46 25
split_gain=506.769 155.586 160.193 90.6345 54.0573 47.1637 43.066 35.4278 34.1688 31.3328 28.8133 28.6029 32.2114 29.1679 27.2217 25.9351 24.6577 23.1643 21.6325 19.4785 19.2741 18.3978 15.0484 51.6121 14.0465 14.8037 13.7815 13.2683 12.5052 15.954
threshold=-0.5863479333170829 0.091201969997102644 -0.20058230849629125 1.0000000180025095e-35 1.0000000180025095e-35 1.0000000180025095e-35 1.0000000180025095e-35 1.0000000180025095e-35 1.0000000180025095e-35 1.0000000180025095e-35 -1.0962630294554245 1.0000000180025095e-35 1.5499760138040526 -0.97757548095911939 1.0000000180025095e-35 0.88457236960431151 1.0000000180025095e-35 1.6311180285625653 1.6342277302961583 1.0000000180025095e-35 1.0000000180025095e-35 1.0000000180025095e-35 1.0000000180025095e-35 -0.74051767406177393 0.49904914710489595 1.0000000180025095e-35 1.0000000180025095e-35 -0.15909891362213088 -1.3334265997178585 1.0000000180025095e-35
decision_type=2 2 2 2 2 2 2 2 2 2 2 2 2 2 2 2 2 2 2 2 2 2 2 2 2 2 2 2 2 2
left_child=4 2 3 5 6 8 9 16 11 14 -7 12 13 -2 18 19 27 21 22 26 -16 24 28 -24 25 -15 -3 -4 29 -1
right_child=1 15 7 -5 -6 10 -8 -9 -10 -11 -12 -13 -14 17 20 -17 -18 -19 -20 -21 -22 -23 23 -25 -26 -27 -28 -29 -30 -31
leaf_value=-0.12545970165294171 0.05806039416462247 0.056468130899912608 -0.054263141323393486 -0.11870808779249541 0.049829822543139626 0.13873200026597629 0.073469639859693708 0.12141885638675863 0.16489860346966109 0.065984908385037455 -0.10992741037583054 0.1192084233227515 0.10881808962727586 -0.067245499598746664 -0.089513862996344298 0.095836560190536962 0.08081744327310969 0.11518093939628238 0.034458800220725193 -0.0010490149218212277 0.062603964700642709 0.14239543449306843 -0.11378580048177578 0.15972653261945596 0.021596847640966733 0.10556379961634255 0.1293962613152157 0.05081210835450535 -0.11791389369459548 0.040796816514710343
leaf_weight=11.510133996605873 40.235231831669807 217.34597013890743 31.329088523983955 95.233265846967697 29.849758163094521 5.0923939347267142 15.876397535204886 91.267417252063751 13.371051236987112 11.964764714241026 54.878752306103706 19.035001441836357 21.550377145409584 142.13559816777706 16.07735376060009 272.2538458108902 59.692523568868637 9.629077419638632 10.953149259090422 54.187439665198326 17.283897176384926 5.1353471875190726 28.358632698655128 9.1172614842653257 23.789040192961693 5.1363399326801291 29.419834569096565 19.495869740843773 375.65125608444214 11.57734440267086
leaf_count=56 167 909 134 470 127 21 65 425 56 50 235 81 93 596 75 1207 249 40 46 222 71 21 127 37 98 21 130 81 1848 55
internal_value=-0.000228456 0.0356744 0.00166202 -0.0324839 -0.0809578 -0.00833182 -0.0886372 0.0753099 0.00890475 -0.093863 -0.0888127 0.00108238 -0.00799851 -0.0191346 -0.0978431 0.0734725 0.0372322 -0.035849 -0.104344 0.0532411 -0.0107042 -0.0441028 -0.107829 -0.0472448 -0.0497016 -0.0612185 0.0651627 -0.0139575 -0.113524 -0.0420894
internal_weight=1748.43 1210.21 637.006 435.221 538.22 339.988 508.37 201.785 280.017 492.494 59.9711 266.646 247.611 226.061 480.529 573.207 110.517 185.825 447.168 300.953 33.3613 176.196 436.215 37.4759 171.061 147.272 246.766 50.825 398.739 23.0875
internal_count=7813 5256 2788 1899 2557 1429 2430 889 1173 2365 256 1117 1036 943 2315 2468 464 776 2169 1261 146 736 2123 164 715 617 1039 215 1959 111
is_linear=0
shrinkage=0.1


Tree=7
num_leaves=31
num_cat=0
split_feature=47 47 49 27 47 36 33 48 42 35 47 34 44 44 27 33 1 38 42 44 35 29 42 46 32 21 47 46 21 21
split_gain=428.463 134.89 135.283 73.5437 47.4045 41.268 39.3064 35.0295 32.4256 28.2653 28.2615 26.5542 26.4818 26.1277 24.6303 24.2069 22.9491 19.5228 20.9585 19.5533 20.7152 16.5765 16.2716 15.49 37.1138 15.4546 15.4307 15.0342 13.8897 12.271
threshold=-0.59792998294638522 -0.015931989073943817 -0.20058230849629125 1.0000000180025095e-35 -0.84694404997638506 1.0000000180025095e-35 1.0000000180025095e-35 1.0000000180025095e-35 1.0000000180025095e-35 1.0000000180025095e-35 0.85561724553105578 1.0000000180025095e-35 1.6342277302961583 -0.97757548095911939 1.0000000180025095e-35 1.0000000180025095e-35 1.0000000180025095e-35 1.0000000180025095e-35 1.0000000180025095e-35 -1.1460789139433307 1.0000000180025095e-35 1.0000000180025095e-35 1.0000000180025095e-35 0.68246374751282957 1.0000000180025095e-35 1.0000000180025095e-35 -0.67031779312952466 -0.97768124432420778 1.0000000180025095e-35 1.0000000180025095e-35
decision_type=2 2 2 2 2 2 2 2 2 2 2 2 2 2 2 2 2 2 2 2 2 2 2 2 2 2 2 2 2 2
left_child=4 2 3 6 -1 7 9 15 16 11 14 12 13 -2 22 17 25 18 19 -6 26 23 29 28 -25 -4 -21 -8 -15 -3
right_child=1 10 8 -5 5 -7 27 -9 -10 -11 -12 -13 -14 21 -16 -17 -18 -19 -20 20 -22 -23 -24 24 -26 -27 -28 -29 -30 -31
leaf_value=-0.12315163937458506 0.052640166498338761 0.022809098625098671 0.0016842835013282987 -0.11932827632065489 0.11127878857430225 -0.12141006148786493 0.036785299133283482 -0.094956541911562081 0.11413019717185441 0.15309490633009395 0.088641786258274624 0.11528410618795944 0.10698630571969679 -0.077883682512005017 -0.011607602344179548 -0.11703739410054406 -0.078581354504860812 0.10593428993231578 0.096296343415057217 -0.07070514548481148 0.11477684445117951 -0.08990176854006901 0.12248759585250242 0.12218288661507498 -0.14310004938969739 0.088535721108691776 0.0077121143489040436 -0.1121431405133556 -0.00084099549389143793 0.067185950520355475
leaf_weight=158.26889550685883 36.94273316860199 104.5334121286869 36.192106917500496 83.621396169066429 9.6796627789735776 77.090277910232544 7.9335316419601432 77.393707677721977 83.196770235896111 11.986741051077841 270.85209089517593 17.236340329051018 16.83466175198555 46.790601536631584 61.823871895670891 20.715993747115135 16.3907760232687 15.118802353739737 15.685845315456389 82.790831863880157 8.487164840102194 48.010258957743645 34.376854807138443 18.792081356048588 7.331060215830802 47.218079701066017 36.00712163746357 46.553848877549171 46.812179610133171 154.27107320725918
leaf_count=821 154 435 154 438 43 405 33 382 406 52 1239 75 74 204 261 105 70 62 68 407 36 205 160 78 31 200 159 207 192 657
internal_value=-0.00025264 0.0322348 -0.00287391 -0.0362409 -0.0778809 -0.0569899 -0.0134777 -0.0383117 0.0680265 0.00325094 0.0643135 -0.00427216 -0.013575 -0.0234911 0.0457522 -0.0150528 0.0295933 -0.00245984 -0.0131954 -0.0257349 -0.0361544 -0.0402585 0.0578478 -0.0203515 0.0477353 0.0508504 -0.0469372 -0.0904587 -0.0393535 0.0492617
internal_weight=1698.94 1197.7 571.843 388.845 501.238 342.969 305.224 265.879 182.998 250.737 625.857 238.75 221.514 204.679 355.005 188.485 99.801 167.769 152.651 136.965 127.285 167.736 293.181 119.726 26.1231 83.4102 118.798 54.4874 93.6028 258.804
internal_count=7813 5325 2573 1743 2488 1667 1305 1262 830 1065 2752 1013 938 864 1513 880 424 775 713 645 602 710 1252 505 109 354 566 240 396 1092
is_linear=0
shrinkage=0.1


Tree=8
num_leaves=31
num_cat=0
split_feature=47 47 27 42 45 47 36 48 35 44 44 44 47 1 33 42 38 34 47 15 28 38 42 37 46 36 34 45 21 47
split_gain=361.664 112.671 134.507 83.4666 47.5334 43.1534 37.1962 30.2035 29.7273 27.2793 29.3329 22.2337 19.703 18.327 17.6084 15.364 15.2836 15.3893 14.0466 13.9379 13.6408 12.1391 11.0487 9.5762 26.284 9.23689 33.1618 9.21829 8.78102 8.71276
threshold=-0.59792998294638522 0.29388783850989325 1.0000000180025095e-35 1.0000000180025095e-35 -0.1705099457816 -0.84694404997638506 1.0000000180025095e-35 -0.3552461022570178 1.0000000180025095e-35 1.6342277302961583 -0.97757548095911939 -1.3145823469275422 -0.24467746925266456 1.0000000180025095e-35 1.0000000180025095e-35 1.0000000180025095e-35 1.0000000180025095e-35 1.0000000180025095e-35 1.2624367387602999 1.0000000180025095e-35 1.0000000180025095e-35 1.0000000180025095e-35 1.0000000180025095e-35 1.0000000180025095e-35 0.089554821856744654 1.0000000180025095e-35 1.0000000180025095e-35 -0.50948472463641736 1.0000000180025095e-35 -0.20703580795743207
decision_type=2 2 2 2 2 2 2 2 2 2 2 2 2 2 2 2 2 2 2 2 2 2 2 2 2 2 2 2 2 2
left_child=5 2 3 4 8 -1 7 14 9 10 -2 -9 16 23 21 -13 17 20 22 27 -12 -7 -3 -6 -25 26 -4 -14 -22 -26
right_child=1 18 25 -5 13 6 -8 11 -10 -11 12 15 19 -15 -16 -17 -18 -19 -20 -21 28 -23 -24 24 29 -27 -28 -29 -30 -31
leaf_value=-0.11789506217389922 0.034969883449947406 0.048691970341746285 0.19479570279640804 0.10844296791085213 0.064821397654743929 0.0039853783858878828 -0.1164322973979821 0.14062948641032302 0.15062849619602425 0.11033345704450959 -0.098890141685206837 -0.080541090891560418 -0.11367180365133278 -0.034007343115985855 -0.12346778698561643 0.055509314816787919 0.10912827375882771 0.083767967502094864 0.090386901099535621 -0.11225658323111397 -0.078036274125689406 0.11213192627696411 0.12468280859970844 0.15461710614553859 -0.14659658057053207 -0.12243623127177711 -0.097161450130443375 0.0095921577604445914 0.068974334110277744 0.0096538556888399601
leaf_weight=149.26087445020676 56.224155142903328 252.79933598637581 4.4827726483345023 95.85401026904583 155.03734025359154 89.038530588150024 72.581462845206261 5.0841700732707968 10.174312457442282 14.577768608927725 103.52317187190056 134.75096790492535 6.5378989130258551 25.860462412238121 9.8538046479225141 8.8454000800847989 4.5262749642133704 5.623138189315795 180.46670240163803 12.414321288466452 7.7011640518903741 11.748714700341223 20.699854880571365 6.9113224148750332 8.6090065389871597 68.196913912892342 29.443267464637756 84.24438264966011 8.6004837155342102 6.0955291837453816
leaf_count=821 239 1107 23 490 669 417 405 23 45 64 460 682 28 110 53 39 19 24 858 53 34 48 98 30 36 369 153 355 36 25
internal_value=-0.000270314 0.0297735 0.00502538 0.0227401 0.00683994 -0.0732377 -0.0531547 -0.0354439 -0.0175133 -0.0231412 -0.0298648 -0.0648841 -0.0454983 0.0446177 0.0041181 -0.0721605 -0.0714003 -0.0779139 0.0687321 -0.0128752 -0.0855013 0.016592 0.0544434 0.0561277 -0.00622677 -0.101224 -0.0585841 0.000715014 -0.000475873 -0.0818255
internal_weight=1649.77 1168.6 714.638 612.515 516.661 481.164 331.903 259.322 314.147 303.973 289.395 148.681 233.171 202.514 110.641 143.596 129.974 125.448 453.966 103.197 119.825 100.787 273.499 176.653 21.6159 102.123 33.926 90.7823 16.3016 14.7045
internal_count=7813 5325 3262 2717 2227 2488 1667 1262 1357 1312 1248 744 1009 870 518 721 573 554 2063 436 530 465 1205 760 91 545 176 383 70 61
is_linear=0
shrinkage=0.1


Tree=9
num_leaves=31
num_cat=0
split_feature=47 47 42 27 45 47 33 47 36 35 1 45 29 33 21 37 46 38 49 8 39 28 34 44 34 21 36 49 28 45
split_gain=305.432 110.738 107.737 77.2678 40.2012 27.8781 23.9029 22.2203 22.1438 20.1484 18.173 17.1406 17.0379 16.7944 16.6572 16.0233 34.4755 14.7381 14.1037 14.0602 13.2282 12.9336 13.9985 14.1949 11.6698 11.0182 10.1203 9.82996 9.73335 9.88456
threshold=-0.65004920627824558 -0.015931989073943817 1.0000000180025095e-35 1.0000000180025095e-35 -0.15305777894947079 -0.84694404997638506 1.0000000180025095e-35 0.68767752590617215 1.0000000180025095e-35 1.0000000180025095e-35 1.0000000180025095e-35 -0.46518307037024326 1.0000000180025095e-35 1.0000000180025095e-35 1.0000000180025095e-35 1.0000000180025095e-35 0.089554821856744654 1.0000000180025095e-35 0.071472257288976077 1.0000000180025095e-35 1.0000000180025095e-35 1.0000000180025095e-35 1.0000000180025095e-35 1.718479446788264 1.0000000180025095e-35 1.0000000180025095e-35 1.0000000180025095e-35 2.9349618395372987 1.0000000180025095e-35 -0.26616124476538511
decision_type=2 2 2 2 2 2 2 2 2 2 2 2 2 2 2 2 2 2 2 2 2 2 2 2 2 2 2 2 2 2
left_child=5 2 3 4 6 -1 9 14 11 10 17 -7 13 -13 24 25 -17 19 28 20 21 22 23 -2 27 26 -6 -3 29 -16
right_child=1 7 -4 -5 15 8 -8 -9 -10 -11 -12 12 -14 -15 18 16 -18 -19 -20 -21 -22 -23 -24 -25 -26 -27 -28 -29 -30 -31
leaf_value=-0.11315343666926136 -0.058046874948734131 -0.0066096912925634457 0.10109620341296721 -0.10672357281267585 0.031929104228083684 -0.096217285625374682 -0.092153788770420131 0.074080717010961694 -0.11530037203582733 0.13252791984224033 -0.09137422758254983 0.0038965805510649053 -0.10403099561948446 -0.098282122625795387 0.00019750375080746183 0.17527673105230726 -0.11931393362512072 0.10523060226621073 0.10720153781728657 0.088948627072183664 0.12087815055482171 0.036934857770156912 0.067489333926414444 0.10150599202189153 0.09746138406299501 0.063892467494185201 -0.077375256535825887 0.12574129850646498 0.11423793554630995 0.061839422638625734
leaf_weight=140.42319528758526 118.78633584082127 115.64794556796551 82.370121940970421 89.190225541591644 33.71689461171627 44.803877547383308 48.180048182606697 302.02404522895813 52.089378714561462 8.9357890486717206 31.190291553735733 108.16531483829021 23.473601460456848 18.896022871136665 55.942182198166847 5.2668374776840237 16.165919438004494 10.659331053495405 41.835323691368103 11.955880656838415 6.1289507150650016 25.229018002748489 10.926191285252569 5.8506266176700583 13.608751922845839 101.61548951268196 11.312743812799452 5.8979298770427695 15.308190435171126 48.625274181365967
leaf_count=821 528 495 440 521 144 237 227 1453 311 41 144 520 127 107 241 23 70 45 198 51 26 109 48 25 58 446 50 26 68 213
internal_value=-0.000292796 0.0243463 -0.00536885 -0.0217571 -0.00476266 -0.0775654 -0.0281159 0.0549839 -0.0573681 -0.0146816 -0.0206412 -0.0419198 -0.0257591 -0.011299 0.0355553 0.0338416 -0.0469219 -0.00900127 0.0572107 -0.0158084 -0.0233117 -0.0288078 -0.0410429 -0.0505572 0.00964483 0.0456455 0.0044687 -0.000187451 0.0397644 0.0288618
internal_weight=1604.22 1216.37 617.481 535.111 445.92 387.851 277.842 598.89 247.428 229.662 220.727 195.339 150.535 127.061 296.866 168.078 21.4328 189.536 161.711 178.877 166.921 160.792 135.563 124.637 135.155 146.645 45.0296 121.546 119.876 104.567
internal_count=7813 5690 2938 2498 1977 2123 1244 2752 1302 1017 976 991 754 627 1299 733 93 832 720 787 736 710 601 553 579 640 194 521 522 454
is_linear=0
shrinkage=0.1


Tree=10
num_leaves=31
num_cat=0
split_feature=47 47 27 42 23 21 47 29 49 36 47 27 44 35 38 42 17 29 42 48 45 34 32 36 47 33 47 37 46 46
split_gain=258.176 91.7923 92.5817 67.0253 34.0169 29.0566 26.2179 23.1505 22.2248 20.5875 20.3244 20.8905 16.2084 17.9806 17.7706 13.8229 13.8093 14.2137 13.5414 12.421 10.8562 10.1285 10.1126 9.78842 11.3615 9.40843 11.1149 10.6085 27.6161 10.6592
threshold=-0.65004920627824558 -0.015931989073943817 1.0000000180025095e-35 1.0000000180025095e-35 1.0000000180025095e-35 1.0000000180025095e-35 -0.84694404997638506 1.0000000180025095e-35 -0.085304950112703393 1.0000000180025095e-35 1.2624367387602999 1.0000000180025095e-35 -1.3145823469275422 1.0000000180025095e-35 1.0000000180025095e-35 1.0000000180025095e-35 1.0000000180025095e-35 1.0000000180025095e-35 1.0000000180025095e-35 -0.3552461022570178 -0.26616124476538511 1.0000000180025095e-35 1.0000000180025095e-35 1.0000000180025095e-35 0.37206667350768391 1.0000000180025095e-35 -0.16360312184754836 1.0000000180025095e-35 0.089554821856744654 1.0000000180025095e-35
decision_type=2 2 2 2 2 2 2 2 2 2 2 2 2 2 2 2 2 2 2 2 2 2 2 2 2 2 2 2 2 2
left_child=6 2 3 4 -2 16 -1 22 19 12 11 18 -8 14 15 20 17 -6 21 -9 -14 -3 25 -13 -25 27 -27 29 -29 -7
right_child=1 10 -4 -5 5 7 9 8 -10 -11 -12 23 13 -15 -16 -17 -18 -19 -20 -21 -22 -23 -24 24 -26 26 -28 28 -30 -31
leaf_value=-0.10881159460088852 -0.081265948403472454 0.039282809933331102 -0.10241900401751124 0.096113580509827712 -0.063255541709764732 0.041407394700141813 0.1040401455130805 0.02973629930687452 0.13311699595457024 -0.11137191887912848 0.079983894090859847 0.034980518877657199 -0.092911759323764276 0.092987380127354829 0.073395861461225051 0.046869173903415745 0.017101977395208062 0.092986111701521365 0.10995244665959987 -0.080712293501777985 -0.039545318225613059 0.13286018927530549 -0.054356638691130027 -0.10572446822377456 -0.0014753597712789479 -0.041661943782252346 0.10853882533096844 0.13210887842369051 -0.11050487207931335 0.097400790070787308
leaf_weight=131.86845757067204 50.870631918311119 294.39016255736351 83.919503822922707 78.195105284452438 87.815435796976089 74.26559291779995 7.652081459760665 13.819462180137633 7.4323994964361182 48.709164634346962 168.08545437455177 31.936748921871185 80.462045893073082 9.0450193732976896 10.678630515933035 11.324829041957853 40.243559718132019 6.2360512912273398 33.467374265193939 38.684102922677994 72.435804173350334 12.039613381028174 10.237685248255728 15.832388788461683 30.775431483983994 20.936465069651607 6.4429298788309088 7.9049094766378429 11.542280003428457 62.701674550771713
leaf_count=821 235 1315 521 440 413 327 34 60 32 311 858 138 446 39 44 49 178 27 178 175 379 55 44 75 133 94 27 35 50 280
internal_value=-0.000305583 0.0224669 -0.00499016 0.0108145 -0.00437448 0.00569993 -0.0729823 0.0255929 -0.0287301 -0.053321 0.050613 0.0388149 -0.038563 -0.0444953 -0.0516052 -0.0597334 -0.03192 -0.052896 0.0495558 -0.0516411 -0.0676293 0.0429595 0.0423732 -0.00766586 -0.0368881 0.0477612 -0.00631664 0.0572272 -0.011887 0.0670404
internal_weight=1559.95 1187.77 601.248 517.328 439.133 388.263 372.176 253.968 59.936 240.308 586.527 418.442 191.598 183.946 174.901 164.223 134.295 94.0515 339.897 52.5036 152.898 306.43 194.032 78.5446 46.6078 183.794 27.3794 156.414 19.4472 136.967
internal_count=7813 5690 2938 2417 1977 1742 2123 1124 267 1302 2752 1894 991 957 918 874 618 440 1548 235 825 1370 857 346 208 813 121 692 85 607
is_linear=0
shrinkage=0.1


Tree=11
num_leaves=31
num_cat=0
split_feature=47 47 27 42 1 23 47 44 44 36 34 35 45 45 48 50 49 35 36 34 47 38 44 42 46 28 46 47 42 14
split_gain=219.051 76.764 95.4002 61.2692 34.8613 26.295 24.3108 19.731 23.5174 18.9491 17.8562 16.8174 16.9046 14.1962 15.5092 12.7865 11.7216 11.1451 10.6819 40.401 10.3395 10.2915 12.4473 10.1221 9.13434 8.81777 14.7145 9.64785 8.48966 8.89685
threshold=-0.65004920627824558 0.31126091295384672 1.0000000180025095e-35 1.0000000180025095e-35 1.0000000180025095e-35 1.0000000180025095e-35 -0.84694404997638506 1.6342277302961583 -0.97757548095911939 1.0000000180025095e-35 1.0000000180025095e-35 1.0000000180025095e-35 -0.10707803171866882 -0.46518307037024326 1.0000000180025095e-35 0.28554704615272253 0.81385844527928197 1.0000000180025095e-35 1.0000000180025095e-35 1.0000000180025095e-35 1.2624367387602999 1.0000000180025095e-35 -1.1460789139433307 1.0000000180025095e-35 0.089554821856744654 1.0000000180025095e-35 0.56388196238161259 -0.24467746925266456 1.0000000180025095e-35 1.0000000180025095e-35
decision_type=2 2 2 2 2 2 2 2 2 2 2 2 2 2 2 2 2 2 2 2 2 2 2 2 2 2 2 2 2 2
left_child=6 2 3 4 5 -2 -1 8 -7 13 11 12 15 -8 17 25 -17 21 19 -4 28 22 -15 -24 -16 27 -27 -10 29 -3
right_child=1 20 18 -5 -6 7 9 -9 10 -11 -12 -13 -14 14 24 16 -18 -19 -20 -21 -22 -23 23 -25 -26 26 -28 -29 -30 -31
leaf_value=-0.10478063383613623 -0.055877313845377891 0.02389435203957023 0.19334156982700137 0.092942189904573147 -0.057898648632588784 0.066105459968498231 -0.087544174560590216 0.092943165234329175 -0.070826131484788959 -0.10775737649516569 0.09898362720532107 0.11083251308613039 0.024117778518984296 0.097495643879435434 -0.024324410981978808 0.13883987785435434 -0.0027115762554752033 0.13287783775201323 -0.1130171436529798 -0.092358709393348337 0.074962858071659422 0.09015637061689602 -0.042571976032745054 0.083765528218754756 -0.1162848259325225 -0.053275525604276647 0.13775134563841027 -0.016076745010591083 0.10985838169503624 0.065131931886760391
leaf_weight=123.67350262403488 48.826445549726486 157.30231203138828 5.9329094737768164 88.575600877404213 79.531849831342697 73.435702130198479 41.234541639685631 35.531060174107552 74.915342599153519 45.476220861077309 18.37703812122345 12.528311699628828 106.18049521744251 8.2997786402702314 21.164328068494797 7.6498005688190451 24.865403935313225 5.9628842622041693 65.081451341509819 29.864180207252502 161.74623441696167 9.6091536581516248 71.139651164412498 6.9623718410730353 22.059356838464737 9.1928593665361422 7.1831075698137274 56.431343793869019 17.469645708799362 78.389912217855453
leaf_count=821 223 719 30 524 367 327 237 169 357 311 85 59 465 38 112 33 110 27 422 175 858 40 375 31 131 40 32 241 95 359
internal_value=-0.000315911 0.0207486 0.00153118 0.0157112 0.00337764 0.0136349 -0.0689751 0.0215967 0.0151093 -0.0498806 0.0033077 -0.00257375 -0.00753428 -0.0357627 -0.0210573 -0.0261809 0.030591 0.000220695 -0.0888837 -0.0450075 0.0552134 -0.00801815 -0.0189366 -0.0313097 -0.0712567 -0.038677 0.030516 -0.0473038 0.0425953 0.0376097
internal_weight=1514.59 1159.01 744.103 643.224 554.649 475.117 355.582 426.29 390.759 231.908 317.324 298.947 286.418 186.432 145.198 180.238 32.5152 101.974 100.879 35.7971 414.908 96.011 86.4018 78.102 43.2237 147.723 16.376 131.347 253.162 235.692
internal_count=7813 5690 3659 3032 2508 2141 2123 1918 1749 1302 1422 1337 1278 991 754 813 143 511 627 205 2031 484 444 406 243 670 72 598 1173 1078
is_linear=0
shrinkage=0.1


Tree=12
num_leaves=31
num_cat=0
split_feature=47 42 36 47 47 21 33 48 49 43 46 35 28 46 37 37 25 32 48 49 46 25 34 13 44 27 48 44 34 46
split_gain=186.641 81.2512 53.3554 49.1188 25.4857 26.5918 25.2346 23.1423 17.2675 16.2957 15.451 15.3352 14.8999 11.8905 36.8057 20.6383 17.3956 13.4983 12.728 11.6077 11.3637 30.8586 10.2167 10.1605 9.56469 9.36921 10.2916 9.16702 9.06119 10.8548
threshold=-0.24467746925266456 1.0000000180025095e-35 1.0000000180025095e-35 -0.70795945442475727 0.68767752590617215 1.0000000180025095e-35 1.0000000180025095e-35 0.35793891654791088 -0.20058230849629125 1.0000000180025095e-35 -1.0962630294554245 1.0000000180025095e-35 1.0000000180025095e-35 0.089554821856744654 1.0000000180025095e-35 1.0000000180025095e-35 1.0000000180025095e-35 1.0000000180025095e-35 -0.3552461022570178 3.0825168582682911 0.68246374751282957 1.0000000180025095e-35 1.0000000180025095e-35 1.0000000180025095e-35 1.6342277302961583 1.0000000180025095e-35 -0.3552461022570178 -0.97757548095911939 1.0000000180025095e-35 -0.97768124432420778
decision_type=2 2 2 2 2 2 2 2 2 2 2 2 2 2 2 2 2 2 2 2 2 2 2 2 2 2 2 2 2 2
left_child=1 2 3 23 5 19 7 11 12 -8 -11 13 24 15 17 16 -5 18 -15 22 -4 -22 25 -1 -7 26 -2 -9 29 -18
right_child=4 -3 20 6 -6 8 9 27 -10 10 -12 -13 -14 14 -16 -17 28 -19 -20 -21 21 -23 -24 -25 -26 -27 -28 -29 -30 -31
leaf_value=-0.042051991234837327 0.022484641005866255 0.069359124862247074 -0.11285618681439953 -0.077932072471194519 0.06036529885946839 0.0071697533946821854 0.11591442134266634 0.0543266890310284 0.085220136800377003 0.074644814150196873 -0.108323742194883 0.11316560488939381 0.10728073829502521 0.070668043789066132 -0.12136671152509662 0.16152416198075836 -0.017961566695505825 -0.080113062595629447 -0.013651339280462405 0.14460859799218154 -0.1071556330281883 0.081059121050247804 0.062405994430742011 -0.08879612123542624 0.088462827326008076 -0.062409526888392436 -0.033933475628333695 -0.080743142192932896 0.10341504575434877 0.055150985690335656
leaf_weight=77.188520431518555 65.015550076961517 68.40202708542347 113.67815183103085 16.204794839024544 276.20844687521458 136.95064023137093 4.2520383596420279 5.7881275415420523 70.07696595788002 5.1789607852697364 42.408204957842827 15.197123944759367 20.127247676253319 40.395401567220688 24.908354252576828 10.988130688667296 38.54548551142215 12.269123047590254 32.150153189897537 4.93981048464775 29.73306705057621 12.320639908313749 17.305870875716209 116.96390442550182 16.183471620082855 37.386896163225174 64.319832295179367 38.096813797950745 15.749435827136038 42.915079429745681
leaf_count=470 290 389 768 89 1453 616 18 27 377 24 223 75 95 184 119 49 174 57 154 24 220 61 82 756 81 198 285 191 73 191
internal_value=-0.000324042 -0.0346315 -0.0448673 -0.029976 0.0366379 0.021478 -0.00733578 0.00403526 0.0433338 -0.0716516 -0.0884111 0.0158219 0.0263925 0.00950337 -0.0144928 0.0306679 0.01799 0.0168939 0.0333001 -0.00666628 -0.0964263 -0.0520136 -0.0107269 -0.0702122 0.0157609 -0.0183181 -0.00557268 -0.0629283 0.03398 0.0205556
internal_weight=1471.85 763.334 694.932 539.2 708.515 432.306 345.047 293.208 243.338 51.8392 47.5872 249.323 173.261 234.126 109.723 124.403 113.415 84.8147 72.5456 188.968 155.732 42.0537 184.028 194.152 153.134 166.722 129.335 43.8849 97.21 81.4606
internal_count=7813 4312 3923 2874 3501 2048 1648 1383 1169 265 247 1165 792 1090 514 576 527 395 338 879 1049 281 855 1226 697 773 575 218 438 365
is_linear=0
shrinkage=0.1


Tree=13
num_leaves=31
num_cat=0
split_feature=47 47 27 42 45 35 38 8 47 39 42 47 34 28 45 44 21 27 46 36 36 44 35 50 28 31 46 46 17 18
split_gain=159.551 63.0306 72.3109 44.5109 27.2411 19.2123 18.4211 16.9461 16.1781 15.8761 14.2133 15.6237 13.4021 13.0973 12.4194 11.9478 11.5931 11.0562 10.9976 13.3295 12.0955 10.8996 10.5272 10.2829 10.3407 12.121 16.8766 8.97421 11.0769 9.33668
threshold=-0.6934818923881293 -0.015931989073943817 1.0000000180025095e-35 1.0000000180025095e-35 -0.15305777894947079 1.0000000180025095e-35 1.0000000180025095e-35 1.0000000180025095e-35 -0.84694404997638506 1.0000000180025095e-35 1.0000000180025095e-35 1.2624367387602999 1.0000000180025095e-35 1.0000000180025095e-35 -0.46820363770657331 -1.3145823469275422 1.0000000180025095e-35 1.0000000180025095e-35 0.20813660698796163 1.0000000180025095e-35 1.0000000180025095e-35 1.3814725808198411 1.0000000180025095e-35 0.28554704615272253 1.0000000180025095e-35 1.0000000180025095e-35 -0.74051767406177393 0.68246374751282957 1.0000000180025095e-35 1.0000000180025095e-35
decision_type=2 2 2 2 2 2 2 2 2 2 2 2 2 2 2 2 2 2 2 2 2 2 2 2 2 2 2 2 2 2
left_child=8 2 3 4 5 6 7 9 -1 13 11 17 21 14 -2 -10 -15 -3 20 -20 -16 27 23 24 25 -17 -27 28 29 -6
right_child=1 10 -4 -5 12 -7 -8 -9 15 -11 -12 -13 -14 16 18 22 -18 -19 19 -21 -22 -23 -24 -25 -26 26 -28 -29 -30 -31
leaf_value=-0.098536228292851372 -0.085325652369766428 0.034033851109173251 -0.094733269916076501 0.080411680049265022 -0.045025203786941276 0.11980003242875026 0.087987273546616937 0.075955413868137311 0.088261464557889108 0.11281527354569153 0.10016679051343269 0.064240148970068869 0.12569267792807448 -0.04650480599353804 0.010745909882274689 -0.090058766979743007 0.073710328177679071 -0.0088627441104752597 -0.090380888053854302 0.05988664380986352 -0.081290642142507488 0.085001110220770573 0.074363857174658432 -0.0020764465789523518 0.024674701243664172 -0.082865569998978303 0.17064080352261093 0.052642602516672736 0.032013719660030637 0.10048818091666256
leaf_weight=109.98008739203215 77.126812890172005 294.70748411118984 80.207375593483448 71.713282570242882 56.035703867673874 9.0430513024330121 12.961159795522688 13.25863742828369 6.1052938103675833 6.607022911310195 37.164939716458321 142.65628325939178 12.676689133048056 15.650887995958326 59.959111332893372 105.51148794591427 16.457195281982422 75.471250280737877 44.793680429458618 6.7991830110549918 18.742692247033119 21.633324429392815 6.1147170662879935 25.932617262005806 10.334253609180449 6.4168262630701065 4.4453191310167295 34.979390949010849 44.653808817267418 4.7860908806323996
leaf_count=821 395 1370 586 461 260 47 57 59 31 29 225 812 62 72 279 722 74 345 221 31 100 107 27 141 47 34 18 160 199 21
internal_value=-0.000335192 0.0159206 -0.00626671 0.00717518 -0.00433828 -0.0235966 -0.0283578 -0.0341712 -0.0688316 -0.0401033 0.0404511 0.0361235 0.0266706 -0.0443214 -0.0535214 -0.0490153 0.0151122 0.0252882 -0.0346952 -0.0705778 -0.0111724 0.0189262 -0.0542946 -0.0594486 -0.0711907 -0.0797038 0.0208816 0.00874919 -0.0058074 -0.0335747
internal_weight=1432.93 1158.09 608.085 527.878 456.164 281.399 272.356 259.395 274.841 246.137 550 512.835 174.765 239.53 207.421 164.861 32.1081 370.179 130.295 51.5929 78.7018 162.088 158.755 152.641 126.708 116.374 10.8621 140.455 105.476 60.8218
internal_count=7813 5972 3220 2634 2173 1364 1317 1260 1841 1201 2752 2527 809 1172 1026 1020 146 1715 631 252 379 747 989 962 821 774 52 640 480 281
is_linear=0
shrinkage=0.1


Tree=14
num_leaves=31
num_cat=0
split_feature=47 42 47 27 47 1 36 48 44 45 33 34 35 30 39 44 41 23 49 23 47 44 36 34 46 46 31 47 44 31
split_gain=136.35 46.831 49.5483 44.6984 27.6985 25.7505 23.5531 20.7413 17.1634 16.3788 15.1842 11.8705 10.9568 10.9353 10.2265 11.5834 9.37811 9.30346 10.2054 9.22666 8.56741 9.38354 7.78233 23.4186 7.58461 6.86693 14.3588 12.0832 10.6412 10.2371
threshold=-0.5863479333170829 1.0000000180025095e-35 0.31126091295384672 1.0000000180025095e-35 -0.84694404997638506 1.0000000180025095e-35 1.0000000180025095e-35 1.0000000180025095e-35 1.6342277302961583 -0.47625848393678683 1.0000000180025095e-35 1.0000000180025095e-35 1.0000000180025095e-35 1.0000000180025095e-35 1.0000000180025095e-35 -1.3145823469275422 1.0000000180025095e-35 1.0000000180025095e-35 3.3361270467121842 1.0000000180025095e-35 1.4144511401448927 -0.72482033148280223 1.0000000180025095e-35 1.0000000180025095e-35 -0.26619053353690614 -1.0962630294554245 1.0000000180025095e-35 -0.6934818923881293 -1.061827197451225 1.0000000180025095e-35
decision_type=2 2 2 2 2 2 2 2 2 2 2 2 2 2 2 2 2 2 2 2 2 2 2 2 2 2 2 2 2 2
left_child=4 2 3 5 -1 8 7 10 9 16 19 12 13 14 15 -11 -2 -17 -19 -6 21 -4 23 -5 -23 29 27 28 -27 -21
right_child=1 -3 20 22 6 -7 -8 -9 -10 11 -12 -13 -14 -15 -16 17 -18 18 -20 25 -22 24 -24 -25 -26 26 -28 -29 -30 -31
leaf_value=-0.095029796756471441 -0.045460693739354512 0.087323541616752431 0.061158640611185214 0.16468351739893697 -0.058852654631620885 -0.052325202526882969 -0.094748458583357315 -0.069910634946746056 0.090077785018930281 0.084699472623236655 -0.094726084631289786 0.094859782569705078 0.10573008755776812 0.14790233344190157 0.10247502460452158 -0.063028187663307186 0.08551613046049196 -0.00032449871903326635 0.12464770156690708 0.013457463880564248 0.062895083412617722 0.042144020665647229 -0.10340182967553833 -0.07823134595002311 5.7453050662960684e-05 0.13741828328987271 0.14426740669935786 0.055731295102651915 -0.029968806175846893 -0.10848708244519972
leaf_weight=102.99805353581905 65.384486153721809 91.56120477616787 69.98678794503212 4.7844620794057873 18.75443808734417 67.900196805596352 53.008639790117741 63.076007477939129 27.780594810843468 16.113933980464935 16.254813641309738 19.180950433015823 12.352928221225737 5.5886556953191748 10.677339270710943 23.233287021517754 5.9654790908098212 211.93696643412113 6.7422566264867774 22.198859706521034 119.00076350569725 74.184008568525314 46.869046851992607 23.278139591217041 101.28023970127106 4.1335565149784079 9.7138392180204374 42.754362925887108 46.774790838360786 9.9786755591630918
leaf_count=821 308 622 340 23 104 323 426 394 147 76 111 99 66 25 49 107 26 953 32 117 702 357 359 151 491 19 44 207 264 50
internal_value=-0.000343229 0.0191459 0.012303 -0.00670664 -0.050551 0.00466458 -0.0345689 -0.0209152 0.0142202 0.00863298 -0.00279622 0.0186983 0.0136019 0.0094529 0.00657335 0.00260486 -0.0345099 -0.00286351 0.00352861 0.00688765 0.0408753 0.0301996 -0.0784649 -0.0368162 0.0178511 0.0159831 0.0285402 0.016538 -0.0163776 -0.0243591
internal_weight=1393.45 1003.8 912.241 547.789 389.646 472.857 286.648 233.639 404.957 377.176 170.563 305.826 286.645 274.292 268.704 258.026 71.35 241.913 218.679 154.309 364.452 245.451 74.9316 28.0626 175.464 135.554 103.377 93.6627 50.9083 32.1775
internal_count=7813 5256 4634 2744 2557 2211 1736 1310 1888 1741 916 1407 1308 1242 1217 1168 334 1092 985 805 1890 1188 533 174 848 701 534 490 283 167
is_linear=0
shrinkage=0.1


Tree=15
num_leaves=31
num_cat=0
split_feature=47 47 27 42 23 45 21 29 49 47 31 46 42 47 28 43 44 44 35 49 23 46 46 33 36 46 33 49 21 44
split_gain=115.778 47.4685 58.8267 33.5196 20.91 18.5568 15.1616 17.5879 18.9033 13.1371 11.8132 29.0806 11.729 12.1486 10.7706 13.6265 9.66072 10.9518 9.45164 9.352 9.30733 9.11786 12.55 16.0919 9.50425 16.4055 11.4416 7.93065 8.1679 9.00245
threshold=-0.70795945442475727 -0.015931989073943817 1.0000000180025095e-35 1.0000000180025095e-35 1.0000000180025095e-35 -0.49908054825572506 1.0000000180025095e-35 1.0000000180025095e-35 -0.085304950112703393 -0.89616776090091987 1.0000000180025095e-35 -0.97768124432420778 1.0000000180025095e-35 0.88457236960431151 1.0000000180025095e-35 1.0000000180025095e-35 1.128717431343524 -0.97757548095911939 1.0000000180025095e-35 0.28819369105012127 1.0000000180025095e-35 -1.3334265997178585 0.68246374751282957 1.0000000180025095e-35 1.0000000180025095e-35 1.0000000180025095e-35 1.0000000180025095e-35 2.9349618395372987 1.0000000180025095e-35 -0.89332376446701367
decision_type=2 2 2 2 2 2 2 2 2 2 2 2 2 2 2 2 2 2 2 2 2 2 2 2 2 2 2 2 2 2
left_child=9 2 3 4 -2 -6 21 -8 16 -1 14 -12 13 20 15 -11 17 -9 -17 -16 -3 -7 24 -24 25 26 -23 28 29 -22
right_child=1 12 -4 -5 5 6 7 8 -10 10 11 -13 -14 -15 19 18 -18 -19 -20 -21 27 22 23 -25 -26 -27 -28 -29 -30 -31
leaf_value=-0.10416930664937905 -0.064286219089770877 -0.031019112018565893 -0.089962876159024138 0.072070360145171666 -0.099729760555590852 0.055597840655117449 0.036407852631729895 0.077369066605791958 0.12498478171249471 -0.0039538491000452583 -0.09892251838352896 0.15570334071028444 0.092346937814091604 0.05036613966057088 0.0688958706963093 -0.089986771147933534 0.041014343313875677 -0.083477638106482899 0.04798991554315464 -0.094532686472946853 0.054051243297179669 0.062821905072718995 0.08493730587524391 -0.08194453895240067 -0.095689293738810799 -0.07463344852063776 -0.094771117081736134 0.12876354571628909 0.038141970703352804 -0.01204465813128389
leaf_weight=61.215022496879101 51.404080852866173 33.920166701078415 73.78916522860527 65.941669300198555 16.714859426021576 14.12211239337921 197.06316624581814 4.7494640946388236 7.4087520390748969 26.637264490127563 9.1022132635116595 8.843030244112013 33.172903642058372 195.0243331938982 11.189807750284674 106.45666185766459 10.456406250596045 38.939232558012009 5.2075928300619116 5.0961007103323928 26.452590450644493 22.348708182573322 17.844455599784851 8.5451096445322055 28.110983341932297 31.603520825505257 5.803229719400405 7.1135531365871421 139.95947755873203 93.248449832201004
leaf_count=531 270 151 607 466 95 63 941 20 34 165 55 41 225 1144 55 846 49 194 23 26 119 101 79 49 161 157 33 35 666 412
internal_value=-0.000336168 0.0129833 -0.0063966 0.00543761 -0.00421684 0.00343175 0.00788744 0.021833 -0.0248278 -0.0643693 -0.0502481 0.0265516 0.0347799 0.0309276 -0.0591634 -0.0682212 -0.0453269 -0.0659918 -0.0835521 0.0177567 0.0183202 -0.0202059 -0.0295753 0.0308999 -0.0477382 -0.0251805 0.0303357 0.0245936 0.0217398 0.0025618
internal_weight=1357.48 1123.74 594.845 521.056 455.114 403.71 386.995 258.617 61.5539 233.748 172.533 17.9452 528.891 495.719 154.587 138.302 54.1451 43.6887 111.664 16.2859 300.694 128.378 114.256 26.3896 87.8664 59.7555 28.1519 266.774 259.661 119.701
internal_count=7813 6071 3319 2712 2246 1976 1881 1238 297 1742 1211 96 2752 2527 1115 1034 263 214 869 81 1383 643 580 128 452 291 134 1232 1197 531
is_linear=0
shrinkage=0.1


Tree=16
num_leaves=31
num_cat=0
split_feature=47 42 47 47 27 44 17 8 33 38 34 42 49 47 49 39 29 49 21 46 46 46 25 34 28 37 46 46 31 15
split_gain=98.9095 29.1734 28.7291 28.5383 24.0137 22.6756 20.3592 20.9163 19.1348 15.6085 14.4237 15.9957 14.2591 13.1127 12.2067 11.0891 11.0421 22.7421 17.8024 15.9424 11.0664 10.6184 9.72745 10.4179 9.56784 8.81196 22.2338 14.8394 9.22329 8.47878
threshold=-0.49369153628266443 1.0000000180025095e-35 -0.84694404997638506 0.68767752590617215 1.0000000180025095e-35 1.6342277302961583 1.0000000180025095e-35 1.0000000180025095e-35 1.0000000180025095e-35 1.0000000180025095e-35 1.0000000180025095e-35 1.0000000180025095e-35 3.3361270467121842 -0.015931989073943817 0.3343046344035564 1.0000000180025095e-35 1.0000000180025095e-35 -0.085304950112703393 1.0000000180025095e-35 0.80104553264404643 1.5125362434313483 1.3939544583001313 1.0000000180025095e-35 1.0000000180025095e-35 1.0000000180025095e-35 1.0000000180025095e-35 0.089554821856744654 -0.74051767406177393 1.0000000180025095e-35 1.0000000180025095e-35
decision_type=2 2 2 2 2 2 2 2 2 2 2 2 2 2 2 2 2 2 2 2 2 2 2 2 2 2 2 2 2 2
left_child=2 3 -1 5 8 6 7 9 10 12 11 16 13 15 -10 22 18 -18 19 -4 25 -21 -2 29 -8 27 -27 28 -20 -24
right_child=1 -3 4 -5 -6 -7 24 -9 14 -11 -12 -13 -14 -15 -16 -17 17 -19 20 21 -22 -23 23 -25 -26 26 -28 -29 -30 -31
leaf_value=-0.088834515739492248 -0.095940694430925205 0.080083587113092949 -0.065878925280240155 0.043046500811233124 -0.082381347225456966 0.087312087819959819 0.015312962870343375 0.099583762701766554 -0.099020200009154569 0.095460886177856127 0.086210128272556349 0.062539036999493161 0.15208273884341519 -0.0066853013677805641 0.098797082585537627 0.097367880598541443 -0.086515360688748183 0.12416844650505124 0.043538910529570179 0.16933154481146753 -0.082319524648310854 -0.03370716898685415 -0.033415621770972126 0.10691713636440148 0.085446832740717904 0.1285618445429984 -0.12301423234090564 0.078919177570525856 -0.076846493934930801 -0.1066165914065712
leaf_weight=90.458154298365116 38.489312693476677 72.360223948955536 59.343031957745552 235.20779836177826 61.999422878026962 29.260188706219196 163.94618753343821 14.66364650428295 33.949414871633053 10.865219622850416 16.480825155973434 26.717241853475571 4.4156457036733618 145.41189067065716 3.4350116848945609 5.137814685702323 42.924845635890961 5.8179597109556189 12.924076177179813 5.2059363350272161 9.5088198930025083 5.0981744527816772 107.26104381680489 4.7326669394969931 22.070305690169334 5.3390634655952445 10.271145217120646 47.369144134223461 12.538248017430305 18.561666831374168
leaf_count=821 300 551 384 1366 528 163 795 76 250 50 83 156 21 653 18 23 275 28 64 26 47 26 514 25 103 25 63 221 62 96
internal_value=-0.000355031 0.0192784 -0.0384694 0.0137787 -0.025776 0.00159059 -0.00309283 -0.0173163 -0.0139565 -0.0224352 -0.00432184 -0.0104605 -0.0263886 -0.0288545 -0.0808441 -0.0473619 -0.0194756 -0.0613681 -0.00729196 -0.0459426 0.0201904 0.0688739 -0.0517607 -0.0387358 0.0236341 0.0312117 -0.0369692 0.0458252 -0.0157417 -0.0442144
internal_weight=1321.76 872.384 449.381 800.023 358.922 564.816 535.555 349.539 296.923 334.875 259.539 243.058 324.01 319.594 37.3844 174.183 216.34 48.7428 167.598 69.6471 97.9505 10.3041 169.045 130.555 186.016 88.4417 15.6102 72.8315 25.4623 125.823
internal_count=7813 4736 3077 4185 2256 2819 2656 1758 1728 1682 1460 1377 1632 1611 268 958 1221 303 918 436 482 52 935 635 898 435 88 347 126 610
is_linear=0
shrinkage=0.1


Tree=17
num_leaves=31
num_cat=0
split_feature=47 27 47 42 47 33 46 49 35 34 44 44 47 38 36 29 33 36 34 45 31 47 34 44 23 49 21 25 37 46
split_gain=85.3461 35.6575 32.1598 26.6188 27.0502 17.7212 15.9977 16.3767 14.5191 12.0361 12.8482 14.5141 11.8778 11.3199 10.3299 9.91426 10.3829 9.12611 34.0756 9.08972 9.40245 8.59585 8.9096 7.56222 7.79844 7.57774 7.93464 7.196 13.0942 15.5439
threshold=-0.70795945442475727 1.0000000180025095e-35 0.27651476406593978 1.0000000180025095e-35 -0.08831979925708329 1.0000000180025095e-35 -1.0962630294554245 0.3711933890863045 1.0000000180025095e-35 1.0000000180025095e-35 -0.97757548095911939 1.3814725808198411 -0.89616776090091987 1.0000000180025095e-35 1.0000000180025095e-35 1.0000000180025095e-35 1.0000000180025095e-35 1.0000000180025095e-35 1.0000000180025095e-35 0.16292712628994568 1.0000000180025095e-35 0.88457236960431151 1.0000000180025095e-35 -1.3145823469275422 1.0000000180025095e-35 2.9349618395372987 1.0000000180025095e-35 1.0000000180025095e-35 1.0000000180025095e-35 0.089554821856744654
decision_type=2 2 2 2 2 2 2 2 2 2 2 2 2 2 2 2 2 2 2 2 2 2 2 2 2 2 2 2 2 2
left_child=12 3 17 4 5 8 -7 -8 9 10 -2 13 -1 19 15 16 27 18 -3 -12 -21 22 23 -6 -25 26 -26 -14 -29 -30
right_child=1 2 -4 -5 21 6 7 -9 -10 -11 11 -13 14 -15 -16 -17 -18 -19 -20 20 -22 -23 -24 24 25 -27 -28 28 29 -31
leaf_value=-0.099320309145104924 0.041522851337270447 0.16391262102336224 0.012554566001199597 0.070801048709072265 0.10024600631216543 0.13375768666729548 -0.090771291987340241 0.10396725972948349 0.097847277742448113 0.067545902071559541 -0.040336370890768247 0.046226010924989396 -0.056731694527857528 0.065726109591793411 -0.099219660452290498 -0.096109032297395272 -0.08926705563603185 -0.10181483298006962 -0.085058306982514542 -0.0074239733425268493 0.12882910672277245 0.051534695736210834 0.11459787896725225 -0.037217073829699694 -0.0063185684854338044 0.12355912375987491 0.032957583294698042 0.032290358670071934 0.1423549863898371 -0.11934343252338171
leaf_weight=53.107190258800983 48.033361040055752 6.8863673359155646 84.296979978680611 89.151587404310703 10.562356516718863 4.0518877506256095 46.427667811512947 4.7612576037645331 15.550990276038645 23.852420702576637 167.84825792908669 34.207807183265686 21.973108135163784 13.406567856669424 28.495942793786526 20.758052229881287 18.389393024146557 50.341265268623829 27.252311944961548 47.705935478210449 5.666177123785018 140.73396465182304 9.7900733351707441 26.675251364707947 87.736467316746712 6.851519063115119 124.31981457024813 53.674634300172329 2.7668010219931594 12.631259299814699
leaf_count=531 229 33 435 690 52 18 275 22 88 121 873 170 170 61 288 178 171 476 198 227 25 876 52 119 389 36 606 289 15 100
internal_value=-0.000358772 0.0110616 -0.0311444 0.0189125 0.0132586 -0.0048169 -0.0575175 -0.072658 0.00335447 -0.000958326 -0.00611502 -0.0146266 -0.0583842 -0.0234987 -0.0446845 -0.0327482 -0.0207297 -0.0747486 -0.0348365 -0.028906 0.00704115 0.0315493 0.020973 0.0173946 0.0138312 0.0200517 0.0167074 -0.00688652 0.00897002 -0.0723201
internal_weight=1287.91 1076.11 168.777 907.333 818.182 411.512 55.2408 51.1889 356.272 340.721 316.868 268.835 211.796 234.627 158.689 130.193 109.435 84.4799 34.1387 221.22 53.3721 406.669 265.935 256.145 245.583 218.908 212.056 91.0458 69.0727 15.3981
internal_count=7813 6071 1142 4929 4239 2109 315 297 1794 1706 1585 1356 1742 1186 1211 923 745 707 231 1125 252 2130 1254 1202 1150 1031 995 574 404 115
is_linear=0
shrinkage=0.1


Tree=18
num_leaves=31
num_cat=0
split_feature=47 42 47 27 33 46 49 35 47 45 47 36 34 39 44 38 44 29 33 44 30 36 34 21 46 46 48 45 17 29
split_gain=72.7991 30.2665 32.6852 29.4049 15.0398 13.3416 13.8895 12.4323 11.1934 10.4493 9.73574 9.59888 8.90107 9.10891 9.97887 10.5422 10.7065 8.87152 9.19006 8.71563 7.64508 6.7612 24.3372 6.14116 13.6334 8.59639 6.10954 8.07017 7.93797 7.61743
threshold=-0.70795945442475727 1.0000000180025095e-35 -0.08831979925708329 1.0000000180025095e-35 1.0000000180025095e-35 -1.0962630294554245 0.3711933890863045 1.0000000180025095e-35 -0.89616776090091987 -0.49908054825572506 1.4144511401448927 1.0000000180025095e-35 1.0000000180025095e-35 1.0000000180025095e-35 1.3814725808198411 1.0000000180025095e-35 -0.89332376446701367 1.0000000180025095e-35 1.0000000180025095e-35 -1.3988340634196479 1.0000000180025095e-35 1.0000000180025095e-35 1.0000000180025095e-35 1.0000000180025095e-35 1.3939544583001313 -1.3334265997178585 -0.3552461022570178 1.1763274676286801 1.0000000180025095e-35 1.0000000180025095e-35
decision_type=2 2 2 2 2 2 2 2 2 2 2 2 2 2 2 2 2 2 2 2 2 2 2 2 2 2 2 2 2 2
left_child=8 2 3 4 7 -6 -7 9 -1 -2 19 17 13 14 15 16 23 18 -10 -4 -21 22 -5 -11 25 -25 27 -18 -28 -30
right_child=1 -3 10 21 5 6 -8 -9 11 12 -12 -13 -14 -15 -16 -17 26 -19 -20 20 -22 -23 -24 24 -26 -27 28 -29 29 -31
leaf_value=-0.096847946374682345 -0.087793722051429698 0.067347305820521661 0.11060816857303975 0.13079711774775024 0.12031214613176427 -0.08564050906844517 0.096376505563632142 0.09276692754640857 -0.0063953242882132172 -0.029670895972396458 0.049759801803878262 -0.096875067908423498 0.062167629140577246 0.078482491805295707 0.04857964084786548 0.06513406714023183 -0.017021961787123254 -0.092682819695255617 -0.086190341580743179 0.011586044531155949 0.12680305865353719 -0.10810064471032543 -0.099088880665093956 -0.03160472150192245 -0.087424554731607804 0.10154464296607633 -0.066522905154039053 0.1000137340948139 0.02705339968726226 -0.057676191321400054
leaf_weight=49.217770643532276 13.284851491451262 85.113490544259548 9.430700518190859 6.2329173088073757 4.0538802295923224 44.395781859755516 4.6295965909957877 14.801785260438917 89.645658195018768 15.471132345497606 105.65176331996918 26.376542590558529 23.351361498236656 13.457761555910109 30.300923146307468 16.535887986421585 75.58520844578743 19.441587075591087 17.203123487532139 383.43122217804193 5.8468432128429404 34.948197759687901 17.634024001657963 6.1062841266393653 6.3409083932638159 23.546437576413158 63.928276807069778 6.3898567706346503 23.676355235278606 19.227260321378708
leaf_count=531 83 691 51 29 18 275 22 88 574 75 702 288 121 65 150 78 379 178 171 1911 30 395 153 28 31 113 340 30 112 101
internal_value=-0.000368007 0.0101748 0.00514916 -0.0140083 -0.004415 -0.0540355 -0.0684522 0.00306735 -0.0553773 -0.000870091 0.0227698 -0.0420077 0.00269491 -0.0019256 -0.0056946 -0.0120985 -0.0174137 -0.0305483 -0.0192427 0.0156178 0.0133166 -0.0800816 -0.0390535 0.0230183 0.0456657 0.0741256 -0.0284346 -0.00789917 -0.0441921 -0.0109182
internal_weight=1255.26 1053.37 968.259 463.899 405.084 53.0793 49.0254 352.004 201.885 337.203 504.361 152.667 323.918 300.566 287.109 256.808 240.272 126.29 106.849 398.709 389.278 58.8151 23.8669 51.4648 35.9936 29.6527 188.807 81.9751 106.832 42.9036
internal_count=7813 6071 5380 2686 2109 315 297 1794 1742 1706 2694 1211 1623 1502 1437 1287 1209 923 745 1992 1941 577 182 247 172 141 962 409 553 213
is_linear=0
shrinkage=0.1


Tree=19
num_leaves=31
num_cat=0
split_feature=47 36 48 42 46 37 37 25 47 23 38 31 21 17 34 44 48 44 49 47 14 31 28 46 44 46 44 49 49 28
split_gain=62.537 29.8234 26.7688 19.1421 16.0318 23.0103 22.6485 17.7862 15.1124 16.7089 14.9635 18.1891 12.7439 9.46939 9.3609 9.33275 10.2446 12.6464 9.30946 8.59868 7.57447 9.79919 7.30928 6.94038 11.1094 8.62553 6.92889 8.25853 13.6366 10.6363
threshold=-0.42999026332150164 1.0000000180025095e-35 0.35793891654791088 1.0000000180025095e-35 0.089554821856744654 1.0000000180025095e-35 1.0000000180025095e-35 1.0000000180025095e-35 0.68767752590617215 1.0000000180025095e-35 1.0000000180025095e-35 1.0000000180025095e-35 1.0000000180025095e-35 1.0000000180025095e-35 1.0000000180025095e-35 -1.3145823469275422 -0.3552461022570178 1.5499760138040526 3.0410170092501994 -0.87010814923498969 1.0000000180025095e-35 1.0000000180025095e-35 1.0000000180025095e-35 -0.26619053353690614 -1.1460789139433307 -1.4520083848490757 1.5499760138040526 0.26974931370874722 1.4133007088739389 1.0000000180025095e-35
decision_type=2 2 2 2 2 2 2 2 2 2 2 2 2 2 2 2 2 2 2 2 2 2 2 2 2 2 2 2 2 2
left_child=1 2 4 8 5 7 10 -1 9 -2 11 26 14 15 18 -14 -17 -18 -11 -9 21 -4 -22 25 -25 -10 27 29 -29 -6
right_child=3 -3 20 -5 6 -7 -8 19 23 12 -12 -13 13 -15 -16 16 17 -19 -20 -21 22 -23 -24 24 -26 -27 -28 28 -30 -31
leaf_value=-0.068528220575994045 -0.050088234203970142 -0.083296422670245632 -0.10898210482424722 0.073772565018180497 -0.082350713823848662 0.14600314436540299 -0.10924681951500381 -0.10338584538297035 -0.021721144675216849 -0.020727906482963868 0.085968659318854251 0.12775782779039566 0.096144809652306221 0.048885949580151813 0.063724682298007373 0.031240167222881973 -0.038847929525747005 0.081614209269555316 0.13222640246958126 0.02693699418715095 -0.045222878145578536 0.024749311732837835 0.1283635688208426 0.11026812324000207 0.011221885590211332 0.069611536322094783 0.056197968599484005 0.08096463991517415 -0.084206602459751534 0.013740260909651218
leaf_weight=26.611594401299953 52.945434033870697 83.950480714440346 45.423053331673145 55.494800455868244 50.575941450893879 12.669140383601187 28.352286890149117 5.2848925963044158 12.031573891639708 166.96795639395714 14.374106526374815 7.4095064625143996 11.304148249328135 95.911782443523407 15.647026933729647 63.891308657824993 66.347940474748611 10.032792858779429 4.0763988047838202 120.47487805038691 15.628623738884928 6.2308953553438178 2.8714044243097296 12.477366447448729 122.55111427605152 73.560183092951775 7.6511853709816924 12.001549117267134 8.5661835074424726 14.91669339686632
leaf_count=207 269 880 399 492 408 69 215 47 74 869 72 38 67 484 82 332 324 60 23 697 122 38 14 78 754 460 42 68 53 76
internal_value=-0.000372083 -0.0293673 -0.017423 0.0172168 -0.00475825 0.0165107 -0.0291608 0.00574388 0.0127822 0.00294823 -0.0095009 -0.0230717 0.0094157 0.0242957 -0.01031 0.00873586 0.00169181 -0.0230249 -0.0170826 0.0214603 -0.0731858 -0.0928504 -0.0182804 0.0344955 0.0203743 0.056773 -0.0349973 -0.043105 0.012173 -0.0604649
internal_weight=1226.23 462.992 379.042 763.24 308.888 165.041 143.847 152.371 707.745 487.125 115.495 101.121 434.179 247.488 186.691 151.576 140.272 76.3807 171.044 125.76 70.154 51.6539 18.5 220.62 135.028 85.5918 93.7116 86.0604 20.5677 65.4926
internal_count=7813 3445 2565 4368 1992 1020 972 951 3876 2510 757 685 2241 1267 974 783 716 384 892 744 573 437 136 1366 832 534 647 605 121 484
is_linear=0
shrinkage=0.1


Tree=20
num_leaves=31
num_cat=0
split_feature=47 27 47 42 47 35 45 47 39 34 44 15 44 14 36 30 29 48 29 46 36 34 33 32 33 45 45 49 25 45
split_gain=53.9069 25.78 22.2337 17.1222 16.7736 14.5338 13.2432 10.2659 9.50048 10 9.78232 10.7061 9.45138 8.53771 8.39214 8.01438 7.93058 7.9297 9.47714 11.8039 7.90534 22.2808 7.72162 7.36848 8.78695 7.17067 8.08038 6.32478 7.24636 5.59201
threshold=-0.70795945442475727 1.0000000180025095e-35 0.050664796294544519 1.0000000180025095e-35 0.10567953203373054 1.0000000180025095e-35 -0.49908054825572506 -0.89616776090091987 1.0000000180025095e-35 1.0000000180025095e-35 1.718479446788264 1.0000000180025095e-35 -1.5673374964038593 1.0000000180025095e-35 1.0000000180025095e-35 1.0000000180025095e-35 1.0000000180025095e-35 -0.3552461022570178 1.0000000180025095e-35 0.68246374751282957 1.0000000180025095e-35 1.0000000180025095e-35 1.0000000180025095e-35 1.0000000180025095e-35 1.0000000180025095e-35 0.70478334456826552 1.3511847545428977 2.1141870478461535 1.0000000180025095e-35 3.6256719587994302
decision_type=2 2 2 2 2 2 2 2 2 2 2 2 2 2 2 2 2 2 2 2 2 2 2 2 2 2 2 2 2 2
left_child=7 3 20 4 5 6 -2 -1 9 10 11 12 -8 29 16 17 22 18 19 27 21 -3 -9 24 -21 -19 -27 28 -14 -6
right_child=1 2 -4 -5 13 -7 8 14 -10 -11 -12 -13 15 -15 -16 -17 -18 25 -20 23 -22 -23 -24 -25 -26 26 -28 -29 -30 -31
leaf_value=-0.092738394757970924 -0.081989712049210517 0.11926402723762786 0.0014771702400049238 0.060346213455452019 0.0194373061507607 0.093635192046520918 0.1197732312086387 -0.0043121778201354382 0.076705522316055444 0.058230981936579287 0.055484853731890695 -0.066467989175099648 0.11891907162603926 0.052205127721912596 -0.092578841421476737 0.12013744275204369 -0.088441838550664176 -0.03246947140997062 0.078531444727541644 0.082698357135395806 -0.10723868577751297 -0.090065173892557637 -0.081206202752345857 -0.048644901342423157 -0.068124633404310617 0.079116677467737873 -0.040629173516864944 -0.11221120276747701 -0.020283805076617683 -0.10489468814205133
leaf_weight=42.917891964316368 20.869932144880295 6.9300066530704525 95.06030198931694 77.45490974932909 203.84887243807316 15.715076632797716 5.8788847327232352 87.368062771856785 15.39857756346464 24.854863196611404 23.424017675220966 31.964338086545467 3.9150679409503928 105.17010618746281 22.819591172039509 4.7995783239603034 17.608129009604454 151.43843080848455 16.381175145506859 29.10257214307785 34.693184703588486 19.096287727355957 15.35453938692808 7.2259228676557532 4.4539895355701438 13.069149173796179 9.9069415107369405 7.0964296683669081 83.430923476815224 3.6828034967184058
leaf_count=531 137 31 505 690 1142 97 30 574 77 135 131 182 18 598 288 22 178 800 76 143 432 174 171 35 25 63 49 39 420 20
internal_value=-0.000360043 0.00871181 -0.0287164 0.0154988 0.0110546 -0.000907965 -0.00418625 -0.0498402 -0.000430523 -0.00327932 -0.00717853 -0.01116 -0.00590939 0.0289937 -0.0369789 -0.00814285 -0.0264349 -0.0100313 0.00669645 -0.00200566 -0.0759865 -0.0343272 -0.015806 0.0429548 0.0626795 -0.0245716 0.0274841 -0.0214207 -0.0140444 0.0172309
internal_weight=1200.93 1014.86 155.78 859.083 781.628 468.926 453.211 186.068 432.341 416.942 392.087 368.663 336.699 312.702 143.15 330.82 120.331 326.021 151.606 135.225 60.7195 26.0263 102.723 40.7825 33.5566 174.415 22.9761 94.4424 87.346 207.532
internal_count=7813 6071 1142 4929 4239 2479 2382 1742 2245 2168 2033 1902 1720 1760 1211 1690 923 1668 756 680 637 205 745 203 168 912 112 477 438 1162
is_linear=0
shrinkage=0.1


Tree=21
num_leaves=31
num_cat=0
split_feature=47 42 48 36 47 27 45 34 30 35 36 45 47 2 48 44 44 32 46 37 46 33 45 37 50 49 46 32 25 47
split_gain=46.4416 18.8233 17.7476 17.1695 15.1299 15.4488 13.8711 11.4785 11.2526 9.3933 9.25645 8.30886 8.21908 8.13381 8.10308 10.5815 7.71243 7.74269 7.47987 21.6335 13.7597 7.59654 7.42286 6.27437 6.32949 6.3777 6.24945 6.07455 7.00335 6.03213
threshold=-0.5863479333170829 1.0000000180025095e-35 0.35793891654791088 1.0000000180025095e-35 0.76296084849663715 1.0000000180025095e-35 -0.49874492966279943 1.0000000180025095e-35 1.0000000180025095e-35 1.0000000180025095e-35 1.0000000180025095e-35 -0.46518307037024326 0.37206667350768391 1.0000000180025095e-35 -0.3552461022570178 1.5499760138040526 -1.3145823469275422 1.0000000180025095e-35 0.089554821856744654 1.0000000180025095e-35 0.56388196238161259 1.0000000180025095e-35 0.36715104008515015 1.0000000180025095e-35 0.71289673901570894 1.2565235014722596 1.6311180285625653 1.0000000180025095e-35 1.0000000180025095e-35 -0.65004920627824558
decision_type=2 2 2 2 2 2 2 2 2 2 2 2 2 2 2 2 2 2 2 2 2 2 2 2 2 2 2 2 2 2
left_child=2 4 3 11 5 6 -2 8 9 13 -7 29 -12 14 26 16 -16 22 19 -13 -20 27 23 24 -18 -26 -8 28 -22 -1
right_child=1 -3 -4 -5 -6 10 7 -9 -10 -11 12 18 -14 -15 15 -17 17 -19 20 -21 21 -23 -24 -25 25 -27 -28 -29 -30 -31
leaf_value=-0.070581691637018759 -0.038453728664245727 0.063483529287459414 -0.084461623996211668 -0.079975917741793912 0.031336691765345391 -0.001874734735669569 0.015601189890229706 0.080820851207815125 0.12650171641940897 0.085982595581748894 -0.095509055631473855 0.0059079102348641825 -0.0087553733887442003 -0.080987250348728682 0.073187174354958154 0.076897485894493356 -0.025118648941331607 -0.12245933132148082 -0.072774521051581428 0.19552495136103551 0.15245674513125462 -0.090094488277050078 0.026058275168600389 -0.098159835009775195 0.13008449645970471 -0.0088185332440341695 0.084319313743333707 -0.048934051816337337 0.028257474058692823 0.019516840321337926
leaf_weight=32.238094784319401 62.192468285560608 64.019382022321224 57.123973898589611 42.832786902785301 196.25082080066204 37.464986532926559 176.32730274647474 22.927335999906063 7.9039374440908423 14.23924048990011 33.949502006173134 78.553532399237156 16.099338099360466 11.120343029499052 9.83993101865053 13.925358608365057 126.20145267248154 6.7901836931705466 31.697740338742733 6.5159808695316306 5.6868066042661694 5.9229718446731559 37.477094173431396 10.519867688417433 5.4709974527359 8.3513141274452192 14.308135561645029 7.3203936591744414 22.516047954559326 9.6566130146384221
leaf_count=284 327 622 601 542 1282 232 869 137 41 92 367 504 65 54 53 84 630 32 246 34 33 66 174 52 25 41 77 56 133 58
internal_value=-0.000357623 0.0112799 -0.0343079 -0.022515 0.00716089 -0.000552417 0.00590203 0.0118294 0.00825449 0.00610382 -0.0394644 -0.0102156 -0.0676028 0.00339783 0.005691 -0.00745069 -0.0131901 -0.0175531 0.000270086 0.0204318 -0.0231788 0.0147515 -0.0137645 -0.0236781 -0.0180824 0.0461606 0.0207588 0.032233 0.0533009 -0.0498142
internal_weight=1175.44 875.379 300.065 242.941 811.36 615.109 527.595 465.402 442.475 434.571 87.5138 200.108 50.0488 420.332 409.212 218.576 204.651 194.811 158.213 85.0695 73.144 41.4462 188.021 150.544 140.024 13.8223 190.635 35.5232 28.2029 41.8947
internal_count=7813 5256 2557 1956 4634 3352 2688 2361 2224 2183 664 1414 432 2091 2037 1091 1007 954 1072 538 534 288 922 748 696 66 946 222 166 342
is_linear=0
shrinkage=0.1


Tree=22
num_leaves=31
num_cat=0
split_feature=47 36 48 15 46 37 37 31 46 27 38 25 45 27 49 31 34 31 46 28 30 45 44 47 49 1 44 32 47 43
split_gain=39.8419 27.9749 19.4382 12.3351 12.106 28.0669 22.6602 14.4751 11.0616 13.715 9.96325 9.4538 8.10097 8.04486 7.81929 8.69178 7.76781 7.67648 16.9085 7.4297 7.38693 7.92182 7.0946 7.58035 6.8286 6.42945 6.77438 6.31666 7.02076 8.39698
threshold=-0.24467746925266456 1.0000000180025095e-35 0.35793891654791088 1.0000000180025095e-35 0.089554821856744654 1.0000000180025095e-35 1.0000000180025095e-35 1.0000000180025095e-35 0.68246374751282957 1.0000000180025095e-35 1.0000000180025095e-35 1.0000000180025095e-35 -0.10036565986015759 1.0000000180025095e-35 1.0813019167292059 1.0000000180025095e-35 1.0000000180025095e-35 1.0000000180025095e-35 -0.74051767406177393 1.0000000180025095e-35 1.0000000180025095e-35 4.5872192275311656 -1.3988340634196479 0.78033392294059067 3.3361270467121842 1.0000000180025095e-35 1.2129691478356297 1.0000000180025095e-35 -0.45894538739475743 1.0000000180025095e-35
decision_type=2 2 2 2 2 2 2 2 2 2 2 2 2 2 2 2 2 2 2 2 2 2 2 2 2 2 2 2 2 2
left_child=1 2 3 4 6 7 11 10 -3 -10 27 -1 17 16 15 19 20 -13 -19 -4 21 22 -2 24 -24 26 -25 28 29 -6
right_child=13 8 14 -5 5 -7 -8 -9 9 -11 -12 12 -14 -15 -16 -17 -18 18 -20 -21 -22 -23 23 25 -26 -27 -28 -29 -30 -31
leaf_value=-0.048330276744880662 0.10081320030488615 -0.090765293606572872 -0.089843316732665879 -0.051457747140495717 0.042120115697734946 -0.10118419758396563 0.14157477547371308 0.13387475918624189 0.053570662010634831 -0.086107001165509262 0.07043071961665652 0.019931526498825847 0.052417146713656271 -0.0068151641056219256 0.03562275484941807 0.030464167857735897 0.087558580299106181 -0.084845930762507266 0.14425968773035788 0.04959077306265653 0.11793724586205399 -0.1196425768667768 0.0073995854544340019 0.058050069099655689 0.11422115897745964 -0.0067847927880014813 -0.011304915987342935 -0.07535000014828297 0.03860426229491868 -0.044480128580171252
leaf_weight=22.081668742001057 10.695991590619085 67.403529595583677 55.267981417477131 42.015707269310951 14.861655607819555 30.254950575530529 14.830834493041037 8.2819161564111692 14.093504674732685 14.025838151574135 15.997446581721304 74.86169508099556 54.895001403987408 109.39963930100203 8.3481163755059224 8.0605414882302266 18.058408319950104 19.081602700054649 3.8755904659628859 4.1053583472967139 7.6866853907704344 4.0793995484709731 298.40128643065691 97.10438597202301 6.1067709624767295 26.411784701049328 16.472763694822788 14.596374109387396 26.54076977074147 45.40127678215503
leaf_count=180 73 790 532 305 89 235 84 46 79 217 89 470 320 658 54 47 125 108 20 23 51 23 1561 675 39 182 114 99 163 362
internal_value=-0.000342202 -0.0195106 -0.00935229 -0.000295513 0.00592515 -0.0147152 0.0228982 0.00610061 -0.0687859 -0.0161001 -0.00291333 0.0128289 0.0216722 0.0176802 -0.0556719 -0.0669739 0.0232054 0.0044184 -0.0461687 -0.0802022 0.0207167 0.0190895 0.0203328 0.0183962 0.00954184 0.0376565 0.0479911 -0.0144845 -0.00424974 -0.0231233
internal_weight=1153.3 558.881 463.358 387.576 345.561 155.934 189.626 125.679 95.5229 28.1193 117.398 174.796 152.714 594.417 75.782 67.4339 485.017 97.8189 22.9572 59.3733 466.959 459.272 455.193 444.497 304.508 139.989 113.577 101.4 86.8037 60.2629
internal_count=7813 4312 3226 2570 2265 1083 1182 848 1086 296 802 1098 918 3501 656 602 2843 598 128 555 2718 2667 2644 2571 1600 971 789 713 614 451
is_linear=0
shrinkage=0.1


Tree=23
num_leaves=31
num_cat=0
split_feature=47 27 47 42 35 47 23 44 34 49 45 36 34 47 47 50 49 37 34 44 48 45 28 45 17 16 45 47 45 31
split_gain=35.5867 17.4728 17.6851 13.5272 12.5003 13.2923 10.5167 9.6832 9.10158 8.55739 7.93438 7.24013 24.1497 7.18098 6.9938 6.72607 10.2764 8.20986 6.56656 6.47696 7.84427 8.41951 6.77148 6.04879 6.02361 7.77295 5.8905 8.56126 6.08817 5.67937
threshold=-0.74560111571998977 1.0000000180025095e-35 0.030396209443265456 1.0000000180025095e-35 1.0000000180025095e-35 -0.08831979925708329 1.0000000180025095e-35 -1.061827197451225 1.0000000180025095e-35 2.9441840282079856 -0.49908054825572506 1.0000000180025095e-35 1.0000000180025095e-35 -0.89616776090091987 -0.68769086757347819 0.71289673901570894 2.0588539158220311 1.0000000180025095e-35 1.0000000180025095e-35 1.718479446788264 -0.3552461022570178 1.3511847545428977 1.0000000180025095e-35 4.5872192275311656 1.0000000180025095e-35 1.0000000180025095e-35 0.089762273032173198 1.6171370086576831 -0.40477172364364217 1.0000000180025095e-35
decision_type=2 2 2 2 2 2 2 2 2 2 2 2 2 2 2 2 2 2 2 2 2 2 2 2 2 2 2 2 2 2
left_child=9 3 11 4 5 6 -2 14 10 13 -9 12 -3 -1 -8 19 17 -17 23 20 21 -12 -22 26 25 -21 27 -7 -29 -15
right_child=1 2 -4 -5 -6 18 7 8 -10 -11 15 -13 -14 29 -16 16 -18 -19 -20 24 22 -23 -24 -25 -26 -27 -28 28 -30 -31
leaf_value=-0.08966380486309268 -0.052939194302866359 0.12202309885889516 0.00095397806160163164 0.053484214431375 0.085179870784057532 0.0034167677715490792 0.16334598139779954 -0.094560362453453839 0.064491365154155766 0.16355633787947721 -0.0066349151251312403 -0.10411221653908781 -0.092104369099115513 -0.046164263538234739 0.029159042607669095 0.089880761820281901 -0.077039782749421373 -0.05492371167964466 0.09596137128983645 -0.054983909309200329 -0.045734514156080978 0.1078752425336522 0.028807997689558537 -0.11359028222842604 0.13934860666495716 0.094482592650244807 0.040671971460378223 0.096524167580459591 0.018142754854944501 0.025848157208545382
leaf_weight=35.271413587033749 44.328994430601597 7.3402365967631367 95.802818059921265 71.531156957149506 20.444348983466625 225.92839417606592 4.2895560562610617 11.197130270302294 16.43618880212307 1.887854442000388 89.709810130298138 29.331387858837843 18.648209646344185 88.49869541823864 41.094628565013409 20.883935064077381 6.6137055382132521 4.8188015669584265 10.888359293341635 8.1296837627887744 103.2358168810606 6.9159442186355582 13.817483216524122 3.5050759315490714 4.7220357432961455 6.0825768113136283 89.127300575375557 18.099290750920773 21.900802329182625 12.498484738171099
leaf_count=525 289 33 518 700 133 1179 25 90 95 14 478 466 191 874 217 102 41 25 73 44 628 35 66 18 26 34 518 137 166 73
internal_value=-0.000331681 0.0062729 -0.025041 0.0118818 0.0080279 0.00592963 -0.00714287 -0.00113571 -0.00780267 -0.0478893 -0.0121059 -0.0700591 -0.0316257 -0.0508186 0.0418419 -0.008621 0.0341275 0.0627325 0.019456 -0.01456 -0.0195272 0.0015611 -0.0369352 0.0171328 0.0414964 0.00898491 0.0184233 0.0109665 0.0536089 -0.0372527
internal_weight=1132.98 994.824 151.123 843.701 772.17 751.726 382.276 337.947 292.563 138.156 276.127 55.3198 25.9884 136.269 45.3842 264.93 32.3164 25.7027 369.449 232.613 213.679 96.6258 117.053 358.561 18.9343 14.2123 355.056 265.928 40.0001 100.997
internal_count=7813 6327 1208 5119 4419 4286 2195 1906 1664 1486 1569 690 224 1472 242 1479 168 127 2091 1311 1207 513 694 2018 104 78 2000 1482 303 947
is_linear=0
shrinkage=0.1


Tree=24
num_leaves=31
num_cat=0
split_feature=47 42 47 27 45 33 49 49 40 29 44 47 38 30 47 49 44 47 36 29 46 46 46 31 46 33 21 46 46 46
split_gain=29.9196 14.8731 13.6204 15.7722 9.34405 8.88289 8.13852 7.62117 7.00418 9.77376 9.52027 6.94236 6.31542 6.24622 6.42094 5.94506 5.77131 8.10471 5.65354 6.76492 5.80148 5.84875 9.69067 9.77727 7.29128 5.70054 5.60757 7.32228 6.47873 6.48645
threshold=-0.74560111571998977 1.0000000180025095e-35 -0.24467746925266456 1.0000000180025095e-35 -0.16648252266649324 1.0000000180025095e-35 2.9856838772260774 0.69396999256035052 1.0000000180025095e-35 1.0000000180025095e-35 1.5499760138040526 -0.89616776090091987 1.0000000180025095e-35 1.0000000180025095e-35 1.4144511401448927 3.3361270467121842 2.1397380292487926 -0.29679669258452496 1.0000000180025095e-35 1.0000000180025095e-35 1.3939544583001313 -0.97768124432420778 -1.0000000180025095e-35 1.0000000180025095e-35 0.56388196238161259 1.0000000180025095e-35 1.0000000180025095e-35 0.68246374751282957 1.3939544583001313 -0.74051767406177393
decision_type=2 2 2 2 2 2 2 2 2 2 2 2 2 2 2 2 2 2 2 2 2 2 2 2 2 2 2 2 2 2
left_child=6 2 3 4 5 7 11 8 9 12 -11 -1 26 14 15 -4 -3 -18 19 20 21 -13 -23 24 -24 -26 27 -2 29 -28
right_child=1 16 13 -5 -6 -7 -8 -9 -10 10 -12 18 -14 -15 -16 -17 17 -19 -20 -21 -22 22 23 -25 25 -27 28 -29 -30 -31
leaf_value=-0.087439653336442796 -0.05320582485888771 0.059109761874795691 0.0049771437302201897 -0.072951357429908714 0.014675922813915793 -0.073164270551517918 0.16598152372106115 -0.057062796381344427 0.085722370754637858 -0.077984007733354233 0.097879697918435704 -0.051860838506109279 0.10796191423992452 0.11451128826462341 0.03521427716447053 0.1103604281278327 -0.19419849736045275 0.051759198348492713 -0.093466889825288793 -0.097279484064401733 -0.090520083139518995 0.070978411622028503 -0.082496531945268792 0.1584131386438804 0.070588375071515844 -0.10835648180821983 -0.0088028398477472906 0.086732725903966759 -0.060760652259175513 0.064406707753068074
leaf_weight=32.850244652479887 25.807899717241529 63.350009568035603 444.02195262163877 38.794630415737629 134.45288559049368 26.785339027643204 1.8084176555275906 29.402639906853437 8.7414443492889387 25.991922430694107 3.4917213767766944 18.073259171098464 6.0132773369550696 5.913809545338153 92.228479579091072 5.4185216426849356 2.2388926073908806 3.3358820080757132 13.915337249636648 11.157978642731903 8.6832404062151891 18.688682861626141 15.941265139728804 2.7231164723634711 7.3740254044532758 2.346797838807106 20.739146009087559 4.3726660832762709 8.4542747065424901 29.061094425618652
leaf_count=527 185 645 2370 550 745 219 11 184 41 180 17 125 30 37 699 35 20 36 225 139 89 122 154 13 47 34 108 23 49 154
internal_value=-0.000320722 0.00573863 0.00234523 -0.0127019 -0.00547253 -0.0198165 -0.0447178 -0.011 -0.000791733 -0.00689394 -0.0571566 -0.0476098 0.00879641 0.0122957 0.0111797 0.00624766 0.0505258 -0.0470202 -0.0343806 -0.0247062 -0.0137383 -0.00350427 0.0150615 -0.021754 -0.0408723 0.0273876 0.0020535 -0.032931 0.0201783 0.0339188
internal_weight=1112.18 978.616 909.692 362.109 323.314 188.861 133.562 162.076 132.673 123.932 29.4836 131.754 94.4484 547.583 541.669 449.44 68.9248 5.57477 98.9037 84.9884 73.8304 65.1471 47.0739 28.3852 25.6621 9.72082 88.4351 30.1806 58.2545 49.8002
internal_count=7813 6327 5626 2485 1935 1190 1486 971 787 746 197 1475 549 3141 3104 2405 701 56 948 723 584 495 370 248 235 81 519 208 311 262
is_linear=0
shrinkage=0.1


Tree=25
num_leaves=31
num_cat=0
split_feature=47 27 47 1 47 23 21 49 28 46 39 36 34 45 49 45 44 46 49 46 46 0 13 34 44 44 47 46 45 47
split_gain=25.4918 13.2295 13.7723 10.2874 10.4059 11.2971 8.80461 10.3736 10.2152 10.6669 10.0072 7.54596 22.1806 7.0747 6.86066 6.79504 6.70352 7.16543 6.38919 6.32335 6.21025 6.52896 5.9484 5.60537 5.5827 5.24932 5.45213 5.97624 6.98076 5.81707
threshold=-0.74560111571998977 1.0000000180025095e-35 0.27651476406593978 1.0000000180025095e-35 0.88457236960431151 1.0000000180025095e-35 1.0000000180025095e-35 -0.20058230849629125 1.0000000180025095e-35 1.5125362434313483 1.0000000180025095e-35 1.0000000180025095e-35 1.0000000180025095e-35 -0.45276518243199754 3.0410170092501994 -0.49908054825572506 1.2129691478356297 -1.2148448145866417 2.9856838772260774 0.32671839211917858 0.68246374751282957 1.0000000180025095e-35 1.0000000180025095e-35 1.0000000180025095e-35 -0.97757548095911939 -1.3145823469275422 0.31126091295384672 0.68246374751282957 -0.086940916143135108 0.45024550850547457
decision_type=2 2 2 2 2 2 2 2 2 2 2 2 2 2 2 2 2 2 2 2 2 2 2 2 2 2 2 2 2 2
left_child=13 3 11 4 5 -2 10 8 9 15 14 12 -3 -1 20 -8 -6 -18 22 -19 -7 -22 -15 -4 -14 -5 27 -27 -29 -28
right_child=1 2 23 25 16 6 7 -9 -10 -11 -12 -13 24 18 -16 -17 17 19 -20 -21 21 -23 -24 -25 -26 26 29 28 -30 -31
leaf_value=-0.081423137756795577 -0.030951148912828609 0.11987149002055859 -0.015385670867545609 0.09177840966443393 0.055801791025270664 -0.02026854882905859 -0.13301241026271679 0.050234323853184937 0.063471201574609226 -0.071964329087981449 0.13793204277138937 -0.089959605700888512 0.063319030745309118 -0.0017827681890070308 0.12173795068256613 0.013375313213210088 -0.15852007867599838 0.087875001384160337 0.15922167745618254 -0.0538388360561044 0.0083026327989171086 0.12783640430583068 -0.05332408919875762 0.039208667108377969 -0.090615456865158359 -0.050161162067466819 0.12068466669395726 -0.030659433598969506 0.1283678604237509 -0.0045856118224587798
leaf_weight=33.938245818018913 61.130573932081461 8.1661112904548663 50.555299699306488 4.2737713679671279 84.175721481442451 136.26787465438247 3.2203912548720828 102.78672254085541 34.424781553447247 16.680170640349388 4.8473515808582297 33.533848632127047 2.6718313023448017 38.474936835467815 3.9981007426977149 206.3431670665741 2.8669565021991721 6.2641682475805265 1.7853331267833699 6.3307316526770592 27.985772378742695 5.4611138179898253 53.566984456032515 29.946733489632607 19.929947074502707 61.201116003096104 4.1129747480154029 7.583491787314415 4.3400624245405179 37.54347550868988
leaf_count=459 364 36 272 25 648 779 22 778 189 94 29 518 23 394 30 1140 21 47 10 47 159 33 623 163 196 379 21 50 23 241
internal_value=-0.000317528 0.00523109 -0.0226392 0.0101417 0.0147466 0.0098009 0.0143971 0.0233305 0.0127217 0.00499981 -0.00378663 -0.0571461 -0.0213827 -0.042297 -0.0077412 0.0111258 0.0446851 -0.0158355 -0.0281447 0.0166436 -0.0107914 0.0278198 -0.031779 0.00492341 -0.0724183 -0.0170413 -0.0210931 -0.0375427 0.027225 0.00778302
internal_weight=1094.41 966.642 144.804 821.838 702.784 603.146 542.015 363.455 260.669 226.244 178.56 64.3017 30.7679 127.766 173.713 209.564 99.6376 15.4619 93.8273 12.5949 169.715 33.4469 92.0419 80.502 22.6018 119.055 114.781 73.1247 11.9236 41.6565
internal_count=7813 6327 1208 5119 4380 3617 3253 2223 1445 1256 1030 773 255 1486 1001 1162 763 115 1027 94 971 192 1017 435 219 739 714 452 73 262
is_linear=0
shrinkage=0.1


Tree=26
num_leaves=31
num_cat=0
split_feature=47 39 47 27 37 38 34 44 35 23 17 48 44 44 44 31 46 49 28 47 45 49 37 44 44 46 31 46 47 44
split_gain=22.0188 13.8392 14.8886 15.3906 17.3711 13.2358 10.7476 10.5833 10.0569 9.34238 8.77897 7.5905 8.24975 7.14332 6.84309 6.4807 8.13776 6.40822 9.6829 8.17264 6.18883 5.98547 6.7202 5.80033 5.35403 5.2139 11.8191 12.3359 8.55344 6.05793
threshold=-0.84694404997638506 1.0000000180025095e-35 -0.08831979925708329 1.0000000180025095e-35 1.0000000180025095e-35 1.0000000180025095e-35 1.0000000180025095e-35 -1.3145823469275422 1.0000000180025095e-35 1.0000000180025095e-35 1.0000000180025095e-35 -0.3552461022570178 1.5499760138040526 1.5499760138040526 1.971234596264581 1.0000000180025095e-35 -0.85909945919299091 -0.20058230849629125 1.0000000180025095e-35 -0.74560111571998977 -0.14735226286973624 0.46341527579317482 1.0000000180025095e-35 -0.89332376446701367 -1.3988340634196479 -0.26619053353690614 1.0000000180025095e-35 -0.97768124432420778 0.48788716980070707 -0.97757548095911939
decision_type=2 2 2 2 2 2 2 2 2 2 2 2 2 2 2 2 2 2 2 2 2 2 2 2 2 2 2 2 2 2
left_child=-1 2 3 6 5 -5 7 -2 9 -9 11 -11 23 15 -3 17 -17 18 -12 -19 -8 -21 -23 -13 -4 26 -26 28 -28 -27
right_child=1 14 24 4 -6 -7 20 8 -10 10 13 12 -14 -15 -16 16 -18 19 -20 21 -22 22 -24 -25 25 29 27 -29 -30 -31
leaf_value=-0.063556613449570726 0.057691843132962106 0.088282071386405647 0.087785634993538697 -0.079754688811362121 0.26775343901488524 0.19006541760882911 0.012696301472241656 -0.058292170018377859 0.060616595170300394 -0.0034214251217980322 -0.040335546611233994 0.0088440249165147918 0.040572695328226466 0.09762805687768665 -0.056623690191472009 0.00077707182884407058 0.13570857937703912 -0.11112831164845083 0.053483114692870148 0.10673530472924245 0.10585353029841743 0.041517827888480463 -0.10351859249066452 -0.060241785562684648 0.034161642818434895 0.041022499140224419 -0.15249303586115101 0.098446106422058588 -0.012422553027331685 -0.0023107091487844559
leaf_weight=52.34406366199255 22.706286042928696 26.02868011593819 9.5549668297171575 51.768017470836639 1.5645636990666378 1.884209319949149 15.990746557712557 45.689739819616079 18.021497964859009 103.90573298558593 58.569109752774239 14.192275170236824 11.110777862370012 8.6645290888845903 3.7254224717617026 10.375431850552561 7.8525377437472335 3.7216893918812266 13.544984161853789 10.632383547723295 12.871914081275461 17.386976175010208 3.9138110876083365 84.566577564924955 166.36433473229408 37.236391164362431 8.72957088053227 4.8032843545079222 8.7088834792375547 241.46337250620127
leaf_count=821 137 174 70 800 8 8 102 359 125 661 389 93 69 56 27 55 44 24 66 77 86 112 25 610 1016 225 43 33 60 1438
internal_value=-0.000293086 0.00293589 0.00092788 -0.0107936 -0.0607008 -0.0702789 -0.0048509 -0.00877307 -0.0124348 -0.0157751 -0.0101999 -0.0227979 -0.0411227 0.00979949 0.0701389 0.00375972 0.058905 -0.00556752 -0.0227139 0.029112 0.0542417 0.0454564 0.0148688 -0.0503137 0.0136835 0.0121683 0.0250085 -0.0434553 -0.0825409 0.00347893
internal_weight=1077.89 1025.55 995.795 518.934 55.2168 53.6522 463.717 434.854 412.148 394.127 348.437 213.775 109.87 134.661 29.7541 125.997 18.228 107.769 72.1141 35.6549 28.8627 31.9332 21.3008 98.7589 476.861 467.306 188.606 22.2417 17.4385 278.7
internal_count=7813 6992 6791 3906 816 808 3090 2902 2765 2640 2281 1433 772 848 201 792 99 693 455 238 188 214 137 703 2885 2815 1152 136 103 1663
is_linear=0
shrinkage=0.1


Tree=27
num_leaves=31
num_cat=0
split_feature=47 48 36 35 30 14 21 42 49 47 44 15 46 37 37 25 33 34 43 31 28 44 46 28 44 46 31 38 46 39
split_gain=19.166 14.4746 9.43656 8.66243 8.23204 7.57787 8.7957 7.43079 8.11338 7.3871 9.90175 8.30929 7.37637 16.3938 13.2158 8.13615 6.41392 7.61199 5.9504 5.77047 5.73537 5.67354 5.5815 7.08705 4.99375 6.90155 12.8683 6.69268 5.35197 6.29711
threshold=-0.49369153628266443 0.35793891654791088 1.0000000180025095e-35 1.0000000180025095e-35 1.0000000180025095e-35 1.0000000180025095e-35 1.0000000180025095e-35 1.0000000180025095e-35 3.5344041031319553 0.31126091295384672 1.6342277302961583 1.0000000180025095e-35 0.089554821856744654 1.0000000180025095e-35 1.0000000180025095e-35 1.0000000180025095e-35 1.0000000180025095e-35 1.0000000180025095e-35 1.0000000180025095e-35 1.0000000180025095e-35 1.0000000180025095e-35 0.96021399835931243 1.6311180285625653 1.0000000180025095e-35 -0.97757548095911939 -1.2148448145866417 1.0000000180025095e-35 1.0000000180025095e-35 -1.3334265997178585 1.0000000180025095e-35
decision_type=2 2 2 2 2 2 2 2 2 2 2 2 2 2 2 2 2 2 2 2 2 2 2 2 2 2 2 2 2 2
left_child=1 2 12 4 7 -4 -7 8 9 10 11 22 13 15 16 -1 17 -14 -18 20 -3 -11 24 -24 25 26 -2 28 -26 -30
right_child=3 19 5 -5 -6 6 -8 -9 -10 21 -12 -13 14 -15 -16 -17 18 -19 -20 -21 -22 -23 23 -25 27 -27 -28 -29 29 -31
leaf_value=-0.055385279807187715 0.032013370600954244 -0.091561416279097044 -0.089863936374859066 0.087225062772020287 0.099107505284537864 -0.046939562821079125 0.11820809375130109 0.046009407401577176 0.11571716343335779 0.019988587900188804 0.068732954690394782 -0.056742317195404984 0.015652375565598332 0.13329969155905788 -0.097826713381132857 0.014191991830042501 0.076320126618269729 -0.097869857432617779 -0.1101434109379673 0.017590326678849622 0.043395388462228041 -0.017032819246501813 -0.032751439378712784 0.10173072902978549 0.019450944358186388 0.035558032548402806 -0.20726635150167053 0.063480175669599681 -0.02725955485071101 0.087155145402721679
leaf_weight=20.36695709079504 5.9651459492742998 42.22548384219408 25.00137821957469 13.752635367214678 9.5979765653610212 11.935544464737179 4.4189691804349414 43.341586783528328 6.3580413535237303 250.02016895264387 16.356563076376915 35.483211524784565 64.418324250727892 10.35957746952772 19.325166713446379 96.147322703152895 2.0993530452251425 6.5028353258967391 9.2617563717067224 6.7462398558855048 3.4027585163712493 49.608559481799603 6.3169430978596219 10.321424797177315 32.194274552166462 43.980453412979841 3.6063396781682968 10.425893008708952 196.51640408858657 4.9310616552829734
leaf_count=196 38 607 444 107 68 182 32 517 42 1547 118 240 442 59 201 625 11 74 136 47 21 303 42 59 171 249 16 51 1143 25
internal_value=-0.000273546 -0.0206251 -0.0112873 0.00860261 0.00711125 -0.0552428 -0.00231687 0.00587705 0.00328899 0.00221524 -0.00731453 -0.0108711 -0.00333124 0.0127483 -0.0234092 0.00202973 -0.00593117 0.0052434 -0.0756879 -0.0687337 -0.0814969 0.0138591 -0.00569172 0.0506731 -0.00884278 0.0188107 -0.0581423 -0.0149104 -0.0184084 -0.0244589
internal_weight=1060.99 322.212 269.837 738.777 725.024 41.3559 16.3545 715.426 672.084 665.726 366.098 349.741 228.481 126.874 101.607 116.514 82.2823 70.9212 11.3611 52.3745 45.6282 299.629 314.258 16.6384 297.62 53.5519 9.57149 244.068 233.642 201.447
internal_count=7813 3077 2402 4736 4629 658 214 4561 4044 4002 2152 2034 1744 880 864 821 663 516 147 675 628 1850 1794 101 1693 303 54 1390 1339 1168
is_linear=0
shrinkage=0.1


Tree=28
num_leaves=31
num_cat=0
split_feature=47 27 34 44 30 47 47 23 45 48 44 17 38 29 44 21 47 44 47 47 46 44 36 34 45 46 46 47 12 45
split_gain=17.131 11.3031 11.9487 11.3838 11.1261 10.3344 9.18663 11.9771 9.32572 8.96158 8.78589 9.2833 8.63316 8.19544 7.75056 7.23763 7.01329 6.77502 6.52831 7.29794 6.93406 6.48095 6.18029 24.3405 13.0486 6.01098 5.40362 5.36328 5.11276 5.2318
