{
  "features_info":
    {
      "float_features":
        [
          {
            "borders":
              [
                -0.41641014814376831,
                -0.4148181676864624,
                -0.41400772333145142,
                -0.4135856032371521,
                -0.41315510869026184,
                -0.41273543238639832,
                -0.41237175464630127,
                -0.41228026151657104,
                -0.41160047054290771,
                -0.4113914966583252,
                -0.41124460101127625,
                -0.41113200783729553,
                -0.4109923243522644,
                -0.4098699688911438,
                -0.40917754173278809,
                -0.40827378630638123,
                -0.40809857845306396,
                -0.4043293297290802,
                -0.40407401323318481,
                -0.40043365955352783,
                -0.40018618106842041,
                -0.39980804920196533,
                -0.39971533417701721,
                -0.3961423933506012,
                -0.39409458637237549,
                -0.39343887567520142,
                -0.39269465208053589,
                -0.39222139120101929,
                -0.3918854296207428,
                -0.39126104116439819,
                -0.39095276594161987,
                -0.3902747631072998,
                -0.39021879434585571,
                -0.3889428973197937,
                -0.38804757595062256,
                -0.38696378469467163,
                -0.38156822323799133,
                -0.37839990854263306,
                -0.37743350863456726,
                -0.37525445222854614,
                -0.3734089732170105,
                -0.35571706295013428,
                -0.34401977062225342,
                -0.34329605102539063,
                -0.27147951722145081,
                -0.24394004046916962,
                -0.23629561066627502,
                -0.22268059849739075,
                -0.22004455327987671,
                -0.19904220104217529,
                -0.11167789995670319,
                -0.094551369547843933,
                -0.072096735239028931,
                0.019389046356081963,
                0.032041866332292557,
                0.040464840829372406,
                0.060652513056993484,
                0.25116255879402161,
                0.43523839116096497,
                0.49724107980728149,
                0.52093541622161865,
                0.53540122509002686,
                0.57254385948181152,
                0.59125208854675293,
                0.61398255825042725,
                0.72534048557281494,
                0.77072179317474365,
                0.8770526647567749,
                0.91856849193572998,
                1.0129737854003906,
                1.1738286018371582,
                1.219914436340332,
                1.302379846572876,
                1.4749517440795898,
                1.5493791103363037,
                2.0388374328613281,
                2.3666403293609619,
                2.4748220443725586,
                2.5442759990692139,
                2.8156125545501709,
                3.5752272605895996,
                4.9287796020507813,
                6.7507095336914063
              ],
            "feature_id":"",
            "feature_index":0,
            "flat_feature_index":0,
            "has_nans":false,
            "nan_value_treatment":"AsIs"
          },
          {
            "borders":
              [
                -0.22828847169876099,
                0.32538455724716187,
                0.40289878845214844,
                0.44719263911247253,
                0.53578031063079834,
                0.66866183280944824,
                0.89013105630874634,
                0.97871875762939453,
                1.3773633241653442,
                2.3739748001098633,
                2.7061786651611328,
                3.0937497615814209,
                3.3152189254760742,
                3.5920553207397461
              ],
            "feature_id":"",
            "feature_index":1,
            "flat_feature_index":1,
            "has_nans":false,
            "nan_value_treatment":"AsIs"
          },
          {
            "borders":
              [
                -1.4292502403259277,
                -1.3578097820281982,
                -1.3029664754867554,
                -1.26688551902771,
                -1.2207016944885254,
                -1.1795692443847656,
                -1.1175098419189453,
                -1.1124584674835205,
                -1.0258640050888062,
                -0.84834516048431396,
                -0.75381278991699219,
                -0.7393803596496582,
                -0.69680476188659668,
                -0.59433448314666748,
                -0.45145353674888611,
                -0.40166169404983521,
                -0.19311314821243286,
                -0.12022942304611206,
                -0.062499731779098511,
                0.034197505563497543,
                0.48304587602615356,
                0.78468352556228638,
                2.2459664344787598
              ],
            "feature_id":"",
            "feature_index":2,
            "flat_feature_index":2,
            "has_nans":false,
            "nan_value_treatment":"AsIs"
          },
          {
            "borders":
              [
                1.6351339817047119
              ],
            "feature_id":"",
            "feature_index":3,
            "flat_feature_index":3,
            "has_nans":false,
            "nan_value_treatment":"AsIs"
          },
          {
            "borders":
              [
                -1.4298539161682129,
                -1.3441102504730225,
                -1.2669410705566406,
                -1.2455052137374878,
                -1.0911667346954346,
                -1.0187134742736816,
                -1.0011360645294189,
                -0.94111555814743042,
                -0.84251046180725098,
                -0.74390530586242676,
                -0.61100280284881592,
                -0.56813102960586548,
                -0.47810029983520508,
                -0.41807979345321655,
                -0.38378238677978516,
                -0.30232599377632141,
                -0.1908593624830246,
                -0.13941322267055511,
                -0.075105547904968262,
                0.036361083388328552,
                0.14354053139686584,
                0.19927385449409485,
                0.22499692440032959,
                0.23357129096984863,
                0.37504816055297852,
                0.426494300365448,
                0.60226857662200928,
                0.85521209239959717,
                0.91094541549682617,
                0.96239155530929565,
                1.0095505714416504,
                1.1038684844970703,
                1.1938991546630859,
                1.2796427011489868,
                1.3568120002746582,
                1.472565770149231
              ],
            "feature_id":"",
            "feature_index":4,
            "flat_feature_index":4,
            "has_nans":false,
            "nan_value_treatment":"AsIs"
          },
          {
            "borders":
              [
                -3.2375247478485107,
                -2.885948657989502,
                -2.1556448936462402,
                -1.9788126945495605,
                -1.8924851417541504,
                -1.8646374940872192,
                -1.7678670883178711,
                -1.6731851100921631,
                -1.5485670566558838,
                -1.4636318683624268,
                -1.2840148210525513,
                -1.2429395914077759,
                -1.1106634140014648,
                -1.0528795719146729,
                -1.0111081600189209,
                -0.98604536056518555,
                -0.96307110786437988,
                -0.82104825973510742,
                -0.71801209449768066,
                -0.66162067651748657,
                -0.65326642990112305,
                -0.65117788314819336,
                -0.60244452953338623,
                -0.56067311763763428,
                -0.55579978227615356,
                -0.50358545780181885,
                -0.43535888195037842,
                -0.3998531699180603,
                -0.38523316383361816,
                -0.37200555205345154,
                -0.33580362796783447,
                -0.31631031632423401,
                -0.30029794573783875,
                -0.28985506296157837,
                -0.28010842204093933,
                -0.26757699251174927,
                -0.25226080417633057,
                -0.24738746881484985,
                -0.22302082180976868,
                -0.2174513041973114,
                -0.21118558943271637,
                -0.078213244676589966,
                -0.04201134666800499,
                -0.014163736253976822,
                0.038050536066293716,
                0.070771478116512299,
                0.10766956210136414,
                0.12994764745235443,
                0.14596003293991089,
                0.17937716841697693,
                0.19608572125434875,
                0.24621143937110901,
                0.25735047459602356,
                0.28659045696258545,
                0.29703330993652344,
                0.30886855721473694,
                0.32557711005210876,
                0.40563899278640747,
                0.40772756934165955,
                0.42304375767707825,
                0.49405515193939209,
                0.55949705839157104,
                0.60405325889587402,
                0.62702751159667969,
                0.65626752376556396,
                0.69525414705276489,
                0.7272789478302002,
                0.75164556503295898,
                0.78297412395477295,
                0.85677027702331543,
                0.86512458324432373,
                0.87487125396728516,
                0.89923793077468872,
                0.904807448387146,
                0.92499697208404541,
                0.95354074239730835,
                0.95980644226074219,
                1.0551846027374268,
                1.1442968845367432,
                1.1916377544403076,
                1.3294835090637207,
                1.3984062671661377,
                1.4993538856506348,
                1.5153663158416748,
                1.5209357738494873,
                1.5473910570144653,
                1.6413767337799072,
                1.7256157398223877,
                1.8655500411987305,
                2.0883307456970215,
                2.2282652854919434,
                2.3097195625305176,
                2.4071860313415527,
                2.5512974262237549,
                2.6835737228393555,
                2.6968011856079102,
                3.3644475936889648
              ],
            "feature_id":"",
            "feature_index":5,
            "flat_feature_index":5,
            "has_nans":false,
            "nan_value_treatment":"AsIs"
          },
          {
            "borders":
              [
                -2.2641401290893555,
                -2.1971747875213623,
                -2.1519279479980469,
                -2.1338293552398682,
                -1.9618914127349854,
                -1.9293136596679688,
                -1.9202643632888794,
                -1.8967360258102417,
                -1.8532991409301758,
                -1.721178412437439,
                -1.7048895359039307,
                -1.6904106140136719,
                -1.6524033546447754,
                -1.5745787620544434,
                -1.2849991321563721,
                -1.2723300457000732,
                -1.1601179838180542,
                -1.1383994817733765,
                -1.0153281688690186,
                -0.99541962146759033,
                -0.89587664604187012,
                -0.86510878801345825,
                -0.84339034557342529,
                -0.62982535362243652,
                -0.5773390531539917,
                -0.52304291725158691,
                -0.46150723099708557,
                -0.38911235332489014,
                -0.38187283277511597,
                -0.37463337182998657,
                -0.33119642734527588,
                -0.29861873388290405,
                -0.22260406613349915,
                -0.023518115282058716,
                0.045257031917572021,
                0.061545886099338531,
                0.072405122220516205,
                0.090503841638565063,
                0.14841976761817932,
                0.1592789888381958,
                0.21357516944408417,
                0.28235030174255371,
                0.28958982229232788,
                0.30949839949607849,
                0.33121687173843384,
                0.35112547874450684,
                0.37103408575057983,
                0.38732290267944336,
                0.39999201893806458,
                0.40904137492179871,
                0.42533022165298462,
                0.46695730090141296,
                0.48686587810516357,
                0.50134485960006714,
                0.52125346660614014,
                0.53030288219451904,
                0.54659163951873779,
                0.5556410551071167,
                0.57373976707458496,
                0.58278918266296387,
                0.59183847904205322,
                0.59726810455322266,
                0.62984585762023926,
                0.64794456958770752,
                0.69319134950637817,
                0.71129012107849121,
                0.73481845855712891,
                0.75653684139251709,
                0.76196646690368652,
                0.77101588249206543,
                0.79997384548187256,
                0.80902314186096191,
                0.81626272201538086,
                0.84522062540054321,
                0.90313655138015747,
                0.91761553287506104,
                0.92485499382019043,
                0.93933403491973877,
                0.94295370578765869,
                0.95743274688720703,
                0.96648204326629639,
                0.97191166877746582,
                0.97915118932723999,
                0.98639070987701416,
                1.0189683437347412,
                1.0443066358566284,
                1.0551657676696777,
                1.0786941051483154,
                1.0877435207366943,
                1.0967929363250732,
                1.1167014837265015
              ],
            "feature_id":"",
            "feature_index":6,
            "flat_feature_index":6,
            "has_nans":false,
            "nan_value_treatment":"AsIs"
          },
          {
            "borders":
              [
                -1.2295058965682983,
                -1.219826340675354,
                -1.2131848335266113,
                -1.1598882675170898,
                -1.1487486362457275,
                -1.1401052474975586,
                -1.1344764232635498,
                -1.1275523900985718,
                -1.1148817539215088,
                -1.1074395179748535,
                -1.0989611148834229,
                -1.0907652378082275,
                -1.0749152898788452,
                -1.0590417385101318,
                -1.0568985939025879,
                -1.0534365177154541,
                -1.0420377254486084,
                -1.0253162384033203,
                -1.0135406255722046,
                -0.94726735353469849,
                -0.93080496788024902,
                -0.92776691913604736,
                -0.91653293371200562,
                -0.91620326042175293,
                -0.89557230472564697,
                -0.87903928756713867,
                -0.87550657987594604,
                -0.84705662727355957,
                -0.83780097961425781,
                -0.82981711626052856,
                -0.7927473783493042,
                -0.77416545152664185,
                -0.77110373973846436,
                -0.75417041778564453,
                -0.75209784507751465,
                -0.74804705381393433,
                -0.73356306552886963,
                -0.69611650705337524,
                -0.69027578830718994,
                -0.68365788459777832,
                -0.66705417633056641,
                -0.65033280849456787,
                -0.64599937200546265,
                -0.64124202728271484,
                -0.6361314058303833,
                -0.62951350212097168,
                -0.62251877784729004,
                -0.60864698886871338,
                -0.600380539894104,
                -0.58740377426147461,
                -0.50690555572509766,
                -0.46978867053985596,
                -0.46383023262023926,
                -0.45926126837730408,
                -0.45490425825119019,
                -0.42358106374740601,
                -0.35229134559631348,
                -0.26303201913833618,
                -0.23477047681808472,
                -0.23079030215740204,
                -0.22009801864624023,
                -0.18804472684860229,
                -0.16395176947116852,
                -0.045771446079015732,
                -0.032088153064250946,
                0.012894792482256889,
                0.024623328819870949,
                0.084467135369777679,
                0.11362361907958984,
                0.12292636930942535,
                0.15714637935161591,
                0.16885137557983398,
                0.22579836845397949,
                0.28017827868461609,
                0.32014477252960205,
                0.3241485059261322,
                0.50476330518722534,
                0.65869444608688354,
                0.91344869136810303,
                0.99547773599624634,
                1.0135886669158936,
                1.031346321105957,
                1.0576531887054443,
                1.0863150358200073,
                1.1177089214324951,
                1.1487730741500854,
                1.206850528717041,
                1.2826149463653564,
                1.3136320114135742,
                1.5157020092010498,
                1.8691360950469971,
                1.9099032878875732,
                1.9129650592803955
              ],
            "feature_id":"",
            "feature_index":7,
            "flat_feature_index":7,
            "has_nans":false,
            "nan_value_treatment":"AsIs"
          },
          {
            "borders":
              [
                -0.9200364351272583,
                -0.80413150787353516,
                -0.68822658061981201,
                -0.57232165336608887,
                -0.45641666650772095,
                -0.3405117392539978,
                -0.22460676729679108,
                0.76058530807495117
              ],
            "feature_id":"",
            "feature_index":8,
            "flat_feature_index":8,
            "has_nans":false,
            "nan_value_treatment":"AsIs"
          },
          {
            "borders":
              [
                -1.2721531391143799,
                -1.2029955387115479,
                -1.1308311223983765,
                -1.1097831726074219,
                -1.0737009048461914,
                -1.0225844383239746,
                -0.99552285671234131,
                -0.98950910568237305,
                -0.96846115589141846,
                -0.89028298854827881,
                -0.81511169672012329,
                -0.78504317998886108,
                -0.77602261304855347,
                -0.7279130220413208,
                -0.67679649591445923,
                -0.65574854612350464,
                -0.63169372081756592,
                -0.60763895511627197,
                -0.51141965389251709,
                -0.43624836206436157,
                -0.39715927839279175,
                -0.36408388614654541,
                -0.31296741962432861,
                -0.25884407758712769,
                -0.18066594004631042,
                -0.11752204596996307,
                -0.075426116585731506,
                -0.042350746691226959,
                -0.027316484600305557,
                -0.00025481823831796646,
                0.14407408237457275,
                0.27637556195259094,
                1.6926028728485107
              ],
            "feature_id":"",
            "feature_index":9,
            "flat_feature_index":9,
            "has_nans":false,
            "nan_value_treatment":"AsIs"
          },
          {
            "borders":
              [
                -2.208892822265625,
                -1.5211050510406494,
                -1.4323582649230957,
                -1.343611478805542,
                -1.1217446327209473,
                -1.032997727394104,
                -0.89987754821777344,
                -0.78894400596618652,
                -0.70019721984863281,
                -0.63363713026046753,
                -0.34521001577377319,
                -0.25646322965621948,
                -0.18990311026573181,
                -0.078969612717628479,
                0.031963888555765152,
                0.12071069329977036,
                0.16508409380912781,
                0.20945748686790466,
                0.25383090972900391,
                0.29820430278778076,
                0.34257769584655762,
                0.38695108890533447,
                0.497884601354599,
                0.71975159645080566,
                0.8306850790977478,
                1.0081787109375,
                1.1856722831726074,
                1.2744190692901611,
                1.4740993976593018
              ],
            "feature_id":"",
            "feature_index":10,
            "flat_feature_index":10,
            "has_nans":false,
            "nan_value_treatment":"AsIs"
          },
          {
            "borders":
              [
                -4.1088008880615234,
                -3.8929071426391602,
                -3.616818904876709,
                -3.5008652210235596,
                -3.397007942199707,
                -3.3389449119567871,
                -3.1947660446166992,
                -3.1527161598205566,
                -3.0762200355529785,
                -2.9539878368377686,
                -2.4118914604187012,
                -2.1728992462158203,
                -1.6176118850708008,
                -1.4930177927017212,
                -1.3302333354949951,
                -0.78087913990020752,
                -0.26983052492141724,
                -0.24546471238136292,
                -0.17979796230792999,
                -0.15330085158348083,
                -0.13475286960601807,
                -0.12870462238788605,
                -0.097368910908699036,
                -0.064535535871982574,
                -0.035331107676029205,
                0.077627226710319519,
                0.11587522923946381,
                0.13764894008636475,
                0.20262446999549866,
                0.2054469883441925,
                0.20705986022949219,
                0.2074054628610611,
                0.21500898897647858,
                0.21846513450145721,
                0.2260686457157135,
                0.2640286386013031,
                0.28862488269805908,
                0.29138979315757751,
                0.29185062646865845,
                0.29409709572792053,
                0.29749563336372375,
                0.30855530500411987,
                0.3143155574798584,
                0.3173108696937561,
                0.3206518292427063,
                0.32710325717926025,
                0.34922260046005249,
                0.37497088313102722,
                0.37963667511940002,
                0.38084632158279419,
                0.38119196891784668,
                0.38159516453742981,
                0.38211357593536377,
                0.38372647762298584,
                0.38631856441497803,
                0.38666418194770813,
                0.38700979948043823,
                0.38948670029640198,
                0.39115715026855469,
                0.39230918884277344,
                0.39334607124328613,
                0.40141040086746216,
                0.4035416841506958,
                0.40377211570739746,
                0.40417531132698059,
                0.40480893850326538,
                0.40544256567955017,
                0.40964752435684204,
                0.41212445497512817,
                0.41448616981506348,
                0.41494697332382202,
                0.41972798109054565,
                0.42070722579956055,
                0.4208800196647644,
                0.42577621340751648
              ],
            "feature_id":"",
            "feature_index":11,
            "flat_feature_index":11,
            "has_nans":false,
            "nan_value_treatment":"AsIs"
          },
          {
            "borders":
              [
                -1.3335206508636475,
                -1.3271846771240234,
                -1.3180328607559204,
                -1.3095849752426147,
                -1.2969130277633667,
                -1.2511534690856934,
                -1.2448176145553589,
                -1.1835702657699585,
                -1.1701943874359131,
                -1.1596345901489258,
                -1.139218807220459,
                -1.1188030242919922,
                -1.1047232151031494,
                -1.1012032032012939,
                -1.0955712795257568,
                -1.0850112438201904,
                -1.0744514465332031,
                -1.0667076110839844,
                -1.0526276826858521,
                -1.0293959379196167,
                -1.0230600833892822,
                -1.0167241096496582,
                -1.0075721740722656,
                -0.96462869644165039,
                -0.95195680856704712,
                -0.93294894695281982,
                -0.90619730949401855,
                -0.88014960289001465,
                -0.86466175317764282,
                -0.85339784622192383,
                -0.83720600605010986,
                -0.83298206329345703,
                -0.82735013961791992,
                -0.82453417778015137,
                -0.82312619686126709,
                -0.8196062445640564,
                -0.81045430898666382,
                -0.72949516773223877,
                -0.70978343486785889,
                -0.70555949211120605,
                -0.70203948020935059,
                -0.69640755653381348,
                -0.65627998113632202,
                -0.63797616958618164,
                -0.59221667051315308,
                -0.5612410306930542,
                -0.50632965564727783,
                -0.49506574869155884,
                -0.43452239036560059,
                -0.4218505322933197,
                -0.41833055019378662,
                -0.4070667028427124,
                -0.38313096761703491,
                -0.37961098551750183,
                -0.36271518468856812,
                -0.34793132543563843,
                -0.31484368443489075,
                -0.29513192176818848,
                -0.27401214838027954,
                -0.26838019490242004,
                -0.21065281331539154,
                -0.15996536612510681,
                -0.15362942218780518,
                -0.13462164998054504,
                -0.10927791148424149,
                -0.054366506636142731,
                -0.04169464111328125,
                -0.040286660194396973,
                0.013216760940849781,
                0.032928548753261566,
                0.052640333771705627,
                0.089247941970825195,
                0.12867151200771332,
                0.1300794929265976,
                0.14908728003501892,
                0.20892664790153503,
                0.23849432170391083,
                0.2546861469745636,
                0.26665401458740234,
                0.27862191200256348,
                0.28354984521865845,
                0.31734144687652588,
                0.32508540153503418,
                0.33564525842666626,
                0.36310097575187683,
                0.36662092804908752,
                0.38210874795913696,
                0.41660439968109131,
                0.45039603114128113,
                0.47573977708816528,
                0.56162679195404053,
                0.63343405723571777,
                0.65244185924530029,
                0.75170475244522095,
                0.84181582927703857,
                0.886871337890625,
                0.92629486322402954,
                0.9741663932800293,
                1.0009181499481201,
                1.0452696084976196,
                1.0670933723449707,
                1.1114449501037598,
                1.1586123704910278,
                1.2719552516937256,
                1.2768831253051758,
                1.3409464359283447,
                1.4085297584533691,
                1.5253922939300537,
                1.5803037881851196,
                1.6070555448532104,
                1.7689738273620605,
                1.995659351348877,
                2.0899944305419922,
                2.2871122360229492,
                2.35821533203125,
                2.4103107452392578,
                2.4680380821228027,
                2.6721959114074707,
                2.8981776237487793,
                3.0685439109802246
              ],
            "feature_id":"",
            "feature_index":12,
            "flat_feature_index":12,
            "has_nans":false,
            "nan_value_treatment":"AsIs"
          }
        ]
    },
  "model_info":
    {
      "catboost_version_info":"Git info:\n    Commit: 0bcf252505e3d1cf01acd925dcd7026799512fb9\n    Branch: tags/v1.2.8\n    Author: akhropov <akhropov@yandex-team.com>\n    Summary: CatBoost Release 1.2.8. commit_hash:2f3bd095bc4e3a4c5ef9b0dcaf6f7f1a9d2bc3e7\n    git-svn info:\n    Last Changed Rev: 9293085\n\nOther info:\n    Build by: runneradmin\n    Top src dir: D:/a/catboost/catboost/catboost\n",
      "model_guid":"76d96670-bb578cbd-abf3d247-8cb8c0c8",
      "output_options":"{\"name\":\"experiment\",\"verbose\":0,\"test_error_log\":\"test_error.tsv\",\"json_log\":\"catboost_training.json\",\"result_model_file\":\"model\",\"roc_file\":\"\",\"eval_file_name\":\"\",\"use_best_model\":true,\"allow_writing_files\":true,\"prediction_type\":[\"RawFormulaVal\"],\"fstr_internal_file\":\"\",\"output_columns\":[\"SampleId\",\"RawFormulaVal\",\"Label\"],\"snapshot_interval\":600,\"time_left_log\":\"time_left.tsv\",\"fstr_type\":\"FeatureImportance\",\"profile_log\":\"catboost_profile.log\",\"train_dir\":\"catboost_info\",\"learn_error_log\":\"learn_error.tsv\",\"training_options_file\":\"\",\"snapshot_file\":\"experiment.cbsnapshot\",\"save_snapshot\":false,\"model_format\":[\"CatboostBinary\"],\"final_feature_calcer_computation_mode\":\"Default\",\"metric_period\":1,\"output_borders\":\"\",\"final_ctr_computation_mode\":\"Default\",\"best_model_min_trees\":1,\"fstr_regular_file\":\"\"}",
      "params":
        {
          "boosting_options":
            {
              "approx_on_full_history":false,
              "boost_from_average":true,
              "boosting_type":"Plain",
              "fold_len_multiplier":2,
              "fold_permutation_block":0,
              "iterations":300,
              "learning_rate":0.10000000149011612,
              "model_shrink_mode":"Constant",
              "model_shrink_rate":0,
              "od_config":
                {
                  "stop_pvalue":0,
                  "type":"None",
                  "wait_iterations":20
                },
              "permutation_count":4,
              "posterior_sampling":false
            },
          "cat_feature_params":
            {
              "combinations_ctrs":
                [
                  {
                    "ctr_binarization":
                      {
                        "border_count":15,
                        "border_type":"Uniform"
                      },
                    "ctr_type":"Borders",
                    "prior_estimation":"No",
                    "priors":
                      [
                        [
                          0,
                          1
                        ],
                        [
                          0.5,
                          1
                        ],
                        [
                          1,
                          1
                        ]
                      ],
                    "target_binarization":
                      {
                        "border_count":1,
                        "border_type":"MinEntropy"
                      }
                  },
                  {
                    "ctr_binarization":
                      {
                        "border_count":15,
                        "border_type":"Uniform"
                      },
                    "ctr_type":"Counter",
                    "prior_estimation":"No",
                    "priors":
                      [
                        [
                          0,
                          1
                        ]
                      ]
                  }
                ],
              "counter_calc_method":"SkipTest",
              "ctr_leaf_count_limit":18446744073709551615,
              "max_ctr_complexity":4,
              "one_hot_max_size":2,
              "per_feature_ctrs":
                {
                },
              "simple_ctrs":
                [
                  {
                    "ctr_binarization":
                      {
                        "border_count":15,
                        "border_type":"Uniform"
                      },
                    "ctr_type":"Borders",
                    "prior_estimation":"No",
                    "priors":
                      [
                        [
                          0,
                          1
                        ],
                        [
                          0.5,
                          1
                        ],
                        [
                          1,
                          1
                        ]
                      ],
                    "target_binarization":
                      {
                        "border_count":1,
                        "border_type":"MinEntropy"
                      }
                  },
                  {
                    "ctr_binarization":
                      {
                        "border_count":15,
                        "border_type":"Uniform"
                      },
                    "ctr_type":"Counter",
                    "prior_estimation":"No",
                    "priors":
                      [
                        [
                          0,
                          1
                        ]
                      ]
                  }
                ],
              "store_all_simple_ctr":false,
              "target_binarization":
                {
                  "border_count":1,
                  "border_type":"MinEntropy"
                }
            },
          "data_processing_options":
            {
              "allow_const_label":false,
              "auto_class_weights":"None",
              "class_names":
                [
                ],
              "class_weights":
                [
                ],
              "classes_count":0,
              "dev_default_value_fraction_for_sparse":0.82999998331069946,
              "dev_group_features":false,
              "dev_leafwise_scoring":false,
              "dev_sparse_array_indexing":"Indices",
              "embedding_processing_options":
                {
                  "embedding_processing":
                    {
                      "default":
                        [
                          "LDA",
                          "KNN"
                        ]
                    }
                },
              "eval_fraction":0,
              "float_features_binarization":
                {
                  "border_count":254,
                  "border_type":"GreedyLogSum",
                  "dev_max_subset_size_for_build_borders":200000,
                  "nan_mode":"Min"
                },
              "force_unit_auto_pair_weights":false,
              "has_time":false,
              "ignored_features":
                [
                ],
              "per_float_feature_quantization":
                {
                },
              "target_border":null,
              "text_processing_options":
                {
                  "dictionaries":
                    [
                      {
                        "dictionary_id":"BiGram",
                        "end_of_sentence_token_policy":"Skip",
                        "end_of_word_token_policy":"Insert",
                        "gram_order":"2",
                        "max_dictionary_size":"50000",
                        "occurrence_lower_bound":"1",
                        "skip_step":"0",
                        "start_token_id":"0",
                        "token_level_type":"Word"
                      },
                      {
                        "dictionary_id":"Word",
                        "end_of_sentence_token_policy":"Skip",
                        "end_of_word_token_policy":"Insert",
                        "gram_order":"1",
                        "max_dictionary_size":"50000",
                        "occurrence_lower_bound":"1",
                        "skip_step":"0",
                        "start_token_id":"0",
                        "token_level_type":"Word"
                      }
                    ],
                  "feature_processing":
                    {
                      "default":
                        [
                          {
                            "dictionaries_names":
                              [
                                "BiGram",
                                "Word"
                              ],
                            "feature_calcers":
                              [
                                "BoW"
                              ],
                            "tokenizers_names":
                              [
                                "Space"
                              ]
                          }
                        ]
                    },
                  "tokenizers":
                    [
                      {
                        "delimiter":" ",
                        "languages":
                          [
                          ],
                        "lemmatizing":"0",
                        "lowercasing":"0",
                        "number_process_policy":"LeaveAsIs",
                        "number_token":"🔢",
                        "separator_type":"ByDelimiter",
                        "skip_empty":"1",
                        "split_by_set":"0",
                        "subtokens_policy":"SingleToken",
                        "token_types":
                          [
                            "Number",
                            "Unknown",
                            "Word"
                          ],
                        "tokenizer_id":"Space"
                      }
                    ]
                }
            },
          "detailed_profile":false,
          "flat_params":
            {
              "depth":6,
              "iterations":300,
              "learning_rate":0.10000000000000001,
              "loss_function":"RMSE",
              "random_seed":42,
              "use_best_model":true,
              "verbose":0
            },
          "logging_level":"Silent",
          "loss_function":
            {
              "params":
                {
                },
              "type":"RMSE"
            },
          "metadata":
            {
            },
          "metrics":
            {
              "custom_metrics":
                [
                ],
              "eval_metric":
                {
                  "params":
                    {
                    },
                  "type":"RMSE"
                },
              "objective_metric":
                {
                  "params":
                    {
                    },
                  "type":"RMSE"
                }
            },
          "pool_metainfo_options":
            {
              "tags":
                {
                }
            },
          "random_seed":42,
          "system_options":
            {
              "file_with_hosts":"hosts.txt",
              "node_port":0,
              "node_type":"SingleHost",
              "thread_count":32,
              "used_ram_limit":""
            },
          "task_type":"CPU",
          "tree_learner_options":
            {
              "bayesian_matrix_reg":0.10000000149011612,
              "bootstrap":
                {
                  "mvs_reg":null,
                  "subsample":0.80000001192092896,
                  "type":"MVS"
                },
              "depth":6,
              "dev_efb_max_buckets":1024,
              "dev_leafwise_approxes":false,
              "dev_score_calc_obj_block_size":5000000,
              "grow_policy":"SymmetricTree",
              "l2_leaf_reg":3,
              "leaf_estimation_backtracking":"AnyImprovement",
              "leaf_estimation_iterations":1,
              "leaf_estimation_method":"Newton",
              "max_leaves":64,
              "min_data_in_leaf":1,
              "model_size_reg":0.5,
              "monotone_constraints":
                {
                },
              "penalties":
                {
                  "feature_weights":
                    {
                    },
                  "first_feature_use_penalties":
                    {
                    },
                  "penalties_coefficient":1,
                  "per_object_feature_penalties":
                    {
                    }
                },
              "random_score_type":"NormalWithModelSizeDecrease",
              "random_strength":1,
              "rsm":1,
              "sampling_frequency":"PerTree",
              "score_function":"Cosine",
              "sparse_features_conflict_fraction":0
            }
        },
      "train_finish_time":"2025-11-25T09:06:09Z",
      "training":"{\"metrics\":{\"best_iteration\":264,\"learn_best_error\":{\"RMSE\":0.5834008834776547},\"test_metrics_history\":[[{\"RMSE\":7.935850723640023}],[{\"RMSE\":7.461850794189855}],[{\"RMSE\":7.128096573103385}],[{\"RMSE\":6.8044445548548}],[{\"RMSE\":6.444776652924122}],[{\"RMSE\":6.134019297487834}],[{\"RMSE\":5.878515861729995}],[{\"RMSE\":5.57158782415291}],[{\"RMSE\":5.314539521996904}],[{\"RMSE\":5.117473392779309}],[{\"RMSE\":4.866834821483625}],[{\"RMSE\":4.662110165023063}],[{\"RMSE\":4.518539683107663}],[{\"RMSE\":4.25464879993986}],[{\"RMSE\":4.087962927049947}],[{\"RMSE\":3.967444601109109}],[{\"RMSE\":3.831679736980281}],[{\"RMSE\":3.6742481018835713}],[{\"RMSE\":3.5216461232393694}],[{\"RMSE\":3.4694821421959317}],[{\"RMSE\":3.36367760108235}],[{\"RMSE\":3.285165998806235}],[{\"RMSE\":3.2110935061558856}],[{\"RMSE\":3.1193594583518203}],[{\"RMSE\":3.042421648501211}],[{\"RMSE\":2.995527196198944}],[{\"RMSE\":2.93193970667094}],[{\"RMSE\":2.885411855816328}],[{\"RMSE\":2.832638705791458}],[{\"RMSE\":2.7797268245530695}],[{\"RMSE\":2.7449025461497456}],[{\"RMSE\":2.733163909721985}],[{\"RMSE\":2.7044403449458527}],[{\"RMSE\":2.686761710815847}],[{\"RMSE\":2.6671473654250826}],[{\"RMSE\":2.6468027985181215}],[{\"RMSE\":2.630519557636232}],[{\"RMSE\":2.626486289915115}],[{\"RMSE\":2.6348702753775437}],[{\"RMSE\":2.6179871897886295}],[{\"RMSE\":2.6104458560561605}],[{\"RMSE\":2.6033444220434108}],[{\"RMSE\":2.6010525060822367}],[{\"RMSE\":2.6003932659243802}],[{\"RMSE\":2.5949672593808772}],[{\"RMSE\":2.5783911462533107}],[{\"RMSE\":2.5665378671240964}],[{\"RMSE\":2.5611690958459334}],[{\"RMSE\":2.5582140033930454}],[{\"RMSE\":2.5580623591724736}],[{\"RMSE\":2.5518892876106363}],[{\"RMSE\":2.5475517343782053}],[{\"RMSE\":2.5472469187846314}],[{\"RMSE\":2.5357216988411917}],[{\"RMSE\":2.5401924868499988}],[{\"RMSE\":2.5384882930607047}],[{\"RMSE\":2.5400038361471036}],[{\"RMSE\":2.549092431817599}],[{\"RMSE\":2.541229275922279}],[{\"RMSE\":2.5313007017066154}],[{\"RMSE\":2.528864998852594}],[{\"RMSE\":2.5217887233586422}],[{\"RMSE\":2.5182520799330694}],[{\"RMSE\":2.5178448743868946}],[{\"RMSE\":2.517008390820151}],[{\"RMSE\":2.5246436813826394}],[{\"RMSE\":2.520898718656437}],[{\"RMSE\":2.511184747104766}],[{\"RMSE\":2.5094608838396892}],[{\"RMSE\":2.499571091963657}],[{\"RMSE\":2.498524748811192}],[{\"RMSE\":2.5052340004393674}],[{\"RMSE\":2.5093957086715943}],[{\"RMSE\":2.5110155031103067}],[{\"RMSE\":2.506458099236706}],[{\"RMSE\":2.509691632459806}],[{\"RMSE\":2.5140646175610444}],[{\"RMSE\":2.50606200300007}],[{\"RMSE\":2.5050454209923654}],[{\"RMSE\":2.50460166025741}],[{\"RMSE\":2.500608059412675}],[{\"RMSE\":2.4954505431392837}],[{\"RMSE\":2.4871884392305663}],[{\"RMSE\":2.4804985387552714}],[{\"RMSE\":2.478655610600513}],[{\"RMSE\":2.4676384222519325}],[{\"RMSE\":2.4712579952536733}],[{\"RMSE\":2.473379512662462}],[{\"RMSE\":2.474522771247006}],[{\"RMSE\":2.4764591954062367}],[{\"RMSE\":2.4816171644829934}],[{\"RMSE\":2.469378674771097}],[{\"RMSE\":2.4725710426035477}],[{\"RMSE\":2.458554526248726}],[{\"RMSE\":2.4663872518193806}],[{\"RMSE\":2.4541419669232223}],[{\"RMSE\":2.4568490748140994}],[{\"RMSE\":2.4625969348908336}],[{\"RMSE\":2.4605144845374505}],[{\"RMSE\":2.4604542181188367}],[{\"RMSE\":2.456281856920186}],[{\"RMSE\":2.4500058356029224}],[{\"RMSE\":2.45559306391155}],[{\"RMSE\":2.4523733120664017}],[{\"RMSE\":2.4532011248194356}],[{\"RMSE\":2.4513932831263596}],[{\"RMSE\":2.4559142340361673}],[{\"RMSE\":2.459518670428887}],[{\"RMSE\":2.4565266922555704}],[{\"RMSE\":2.454868817056685}],[{\"RMSE\":2.455329854228436}],[{\"RMSE\":2.4460823099796225}],[{\"RMSE\":2.438930406625305}],[{\"RMSE\":2.4391785208772894}],[{\"RMSE\":2.4412310178953915}],[{\"RMSE\":2.4439486296878385}],[{\"RMSE\":2.4461475328760525}],[{\"RMSE\":2.4484371160970153}],[{\"RMSE\":2.4497497301018503}],[{\"RMSE\":2.458578616802874}],[{\"RMSE\":2.457349279606372}],[{\"RMSE\":2.4561554711601037}],[{\"RMSE\":2.4590066479257753}],[{\"RMSE\":2.462201019120618}],[{\"RMSE\":2.4688846150147215}],[{\"RMSE\":2.4693122021821416}],[{\"RMSE\":2.461008424258094}],[{\"RMSE\":2.461262149230868}],[{\"RMSE\":2.4605553643018143}],[{\"RMSE\":2.4629500407364233}],[{\"RMSE\":2.456584607558573}],[{\"RMSE\":2.452684177800868}],[{\"RMSE\":2.4474919635547976}],[{\"RMSE\":2.4459422507293347}],[{\"RMSE\":2.443015531215959}],[{\"RMSE\":2.440718802594757}],[{\"RMSE\":2.4399193561014387}],[{\"RMSE\":2.4421113598012134}],[{\"RMSE\":2.4382353821840113}],[{\"RMSE\":2.4402966099973304}],[{\"RMSE\":2.439258064276834}],[{\"RMSE\":2.4427928637164755}],[{\"RMSE\":2.44078782410757}],[{\"RMSE\":2.4389708248027695}],[{\"RMSE\":2.4390444948225873}],[{\"RMSE\":2.4394175871541353}],[{\"RMSE\":2.4335911172602835}],[{\"RMSE\":2.439684105291314}],[{\"RMSE\":2.4383040150852406}],[{\"RMSE\":2.435819688504475}],[{\"RMSE\":2.430290466798051}],[{\"RMSE\":2.4348083473621545}],[{\"RMSE\":2.4351876386404387}],[{\"RMSE\":2.436502272428624}],[{\"RMSE\":2.438099686219509}],[{\"RMSE\":2.4384738977475418}],[{\"RMSE\":2.438099216850444}],[{\"RMSE\":2.438323292059411}],[{\"RMSE\":2.4400966537146482}],[{\"RMSE\":2.443393716135917}],[{\"RMSE\":2.445129015295988}],[{\"RMSE\":2.4454750725645082}],[{\"RMSE\":2.4407635255331015}],[{\"RMSE\":2.4396910146844424}],[{\"RMSE\":2.4402194196012443}],[{\"RMSE\":2.438553249184322}],[{\"RMSE\":2.441201229140957}],[{\"RMSE\":2.438061359608553}],[{\"RMSE\":2.44383832116838}],[{\"RMSE\":2.435364157236727}],[{\"RMSE\":2.431391185098753}],[{\"RMSE\":2.4317254978237814}],[{\"RMSE\":2.430884701959668}],[{\"RMSE\":2.4317765589024702}],[{\"RMSE\":2.4325093317662696}],[{\"RMSE\":2.4301719037323246}],[{\"RMSE\":2.428925541197675}],[{\"RMSE\":2.426797564471472}],[{\"RMSE\":2.423322136537064}],[{\"RMSE\":2.419621564132658}],[{\"RMSE\":2.416223689405861}],[{\"RMSE\":2.4163733508776}],[{\"RMSE\":2.4097000209041126}],[{\"RMSE\":2.4123859774726673}],[{\"RMSE\":2.4184350696154246}],[{\"RMSE\":2.414296414878655}],[{\"RMSE\":2.4178427565982297}],[{\"RMSE\":2.4178818004010925}],[{\"RMSE\":2.418769828995069}],[{\"RMSE\":2.4202187829667645}],[{\"RMSE\":2.4204903669462445}],[{\"RMSE\":2.4206773940837394}],[{\"RMSE\":2.420298284526905}],[{\"RMSE\":2.4194051732796265}],[{\"RMSE\":2.4199627859994695}],[{\"RMSE\":2.416567833501116}],[{\"RMSE\":2.4149214985182446}],[{\"RMSE\":2.417094837547396}],[{\"RMSE\":2.413677148484443}],[{\"RMSE\":2.414589283324252}],[{\"RMSE\":2.4155034350383167}],[{\"RMSE\":2.415031728141755}],[{\"RMSE\":2.414598170626604}],[{\"RMSE\":2.4149914765019465}],[{\"RMSE\":2.4160649467652173}],[{\"RMSE\":2.416369143686007}],[{\"RMSE\":2.420645587907726}],[{\"RMSE\":2.417418004013865}],[{\"RMSE\":2.4176764266771436}],[{\"RMSE\":2.417538490263174}],[{\"RMSE\":2.4187460072141924}],[{\"RMSE\":2.418540240184295}],[{\"RMSE\":2.4196001497299267}],[{\"RMSE\":2.418687995527372}],[{\"RMSE\":2.42044096101907}],[{\"RMSE\":2.4192871399622504}],[{\"RMSE\":2.419611540158162}],[{\"RMSE\":2.418342961694759}],[{\"RMSE\":2.417946933946922}],[{\"RMSE\":2.4187140214455596}],[{\"RMSE\":2.419094298480044}],[{\"RMSE\":2.4187892736189145}],[{\"RMSE\":2.418218618898605}],[{\"RMSE\":2.4177151917093482}],[{\"RMSE\":2.4188127655343945}],[{\"RMSE\":2.422596368545184}],[{\"RMSE\":2.423418476161309}],[{\"RMSE\":2.423491442983269}],[{\"RMSE\":2.423520589043129}],[{\"RMSE\":2.4239909281485175}],[{\"RMSE\":2.4217392483655313}],[{\"RMSE\":2.420800738982635}],[{\"RMSE\":2.423086040222175}],[{\"RMSE\":2.422245376700296}],[{\"RMSE\":2.421866939996329}],[{\"RMSE\":2.421024085396435}],[{\"RMSE\":2.4196831501986256}],[{\"RMSE\":2.4188083603231214}],[{\"RMSE\":2.4174491326007}],[{\"RMSE\":2.417490194590601}],[{\"RMSE\":2.4161760939898547}],[{\"RMSE\":2.41509533999983}],[{\"RMSE\":2.41234261358493}],[{\"RMSE\":2.410859768217483}],[{\"RMSE\":2.4102586644262467}],[{\"RMSE\":2.4126023654057938}],[{\"RMSE\":2.4125959113153037}],[{\"RMSE\":2.4128961715856505}],[{\"RMSE\":2.413033820341077}],[{\"RMSE\":2.413345571090403}],[{\"RMSE\":2.4133787006420673}],[{\"RMSE\":2.4130129924560872}],[{\"RMSE\":2.4134380778715796}],[{\"RMSE\":2.413574594132136}],[{\"RMSE\":2.4120532340548677}],[{\"RMSE\":2.412188895244079}],[{\"RMSE\":2.4114124073345966}],[{\"RMSE\":2.4110480065372344}],[{\"RMSE\":2.411260935177608}],[{\"RMSE\":2.41130133054458}],[{\"RMSE\":2.4112042911912486}],[{\"RMSE\":2.4097505514107134}],[{\"RMSE\":2.410185601426589}],[{\"RMSE\":2.409800416543887}],[{\"RMSE\":2.4075269328406446}],[{\"RMSE\":2.410211949636236}],[{\"RMSE\":2.4117425529222363}],[{\"RMSE\":2.4119033599106725}],[{\"RMSE\":2.4122790688864373}],[{\"RMSE\":2.413708272192962}],[{\"RMSE\":2.414438900843639}],[{\"RMSE\":2.413194808366985}],[{\"RMSE\":2.413189179252862}],[{\"RMSE\":2.4119045714087783}],[{\"RMSE\":2.412901490769454}],[{\"RMSE\":2.41212645129581}],[{\"RMSE\":2.4105851094303015}],[{\"RMSE\":2.41158910367894}],[{\"RMSE\":2.4133890949797023}],[{\"RMSE\":2.415834546952574}],[{\"RMSE\":2.416098680355442}],[{\"RMSE\":2.415400877210758}],[{\"RMSE\":2.4142426748689005}],[{\"RMSE\":2.415761721784544}],[{\"RMSE\":2.416984134506261}],[{\"RMSE\":2.41467663194433}],[{\"RMSE\":2.4144219650497507}],[{\"RMSE\":2.415704912814096}],[{\"RMSE\":2.415385803332533}],[{\"RMSE\":2.4155743739670443}],[{\"RMSE\":2.4169437302647423}],[{\"RMSE\":2.418562228149158}],[{\"RMSE\":2.4178608526910907}],[{\"RMSE\":2.417766033478942}],[{\"RMSE\":2.417185670909995}],[{\"RMSE\":2.4169839401756246}],[{\"RMSE\":2.41717410867179}],[{\"RMSE\":2.4172437461941834}],[{\"RMSE\":2.416916220336162}],[{\"RMSE\":2.415461432951084}]],\"learn_metrics_history\":[{\"RMSE\":8.806351758421341},{\"RMSE\":8.287686466324608},{\"RMSE\":7.876071319646042},{\"RMSE\":7.474108472886394},{\"RMSE\":7.07670398985046},{\"RMSE\":6.741954675148005},{\"RMSE\":6.488806850146395},{\"RMSE\":6.214419562460693},{\"RMSE\":5.939239727600674},{\"RMSE\":5.700439053173387},{\"RMSE\":5.447373964542235},{\"RMSE\":5.230993274244881},{\"RMSE\":5.0590213254891685},{\"RMSE\":4.806261267137262},{\"RMSE\":4.632996214392333},{\"RMSE\":4.490014794708656},{\"RMSE\":4.364708687323968},{\"RMSE\":4.210487091132979},{\"RMSE\":4.049181501975642},{\"RMSE\":3.934355477787252},{\"RMSE\":3.8113027471641834},{\"RMSE\":3.707248132669977},{\"RMSE\":3.614606711824878},{\"RMSE\":3.511982762331425},{\"RMSE\":3.4210501245320923},{\"RMSE\":3.3554735783924126},{\"RMSE\":3.2684467004476856},{\"RMSE\":3.196136219356684},{\"RMSE\":3.1370982988873375},{\"RMSE\":3.0889666374441758},{\"RMSE\":3.0412823270159217},{\"RMSE\":2.9878926739550207},{\"RMSE\":2.93589134275548},{\"RMSE\":2.901776950108044},{\"RMSE\":2.869224747248034},{\"RMSE\":2.838578469854262},{\"RMSE\":2.800641359717176},{\"RMSE\":2.7679810144691284},{\"RMSE\":2.7237104058523434},{\"RMSE\":2.6968508356728864},{\"RMSE\":2.668107775881851},{\"RMSE\":2.6410468106980733},{\"RMSE\":2.623170954463236},{\"RMSE\":2.5939686611947335},{\"RMSE\":2.5643745961777573},{\"RMSE\":2.5409217739012786},{\"RMSE\":2.5166201392778436},{\"RMSE\":2.4879782213867268},{\"RMSE\":2.468600148588537},{\"RMSE\":2.4470282768807787},{\"RMSE\":2.426103039642402},{\"RMSE\":2.404685316171604},{\"RMSE\":2.3880523952049777},{\"RMSE\":2.368621836672271},{\"RMSE\":2.3543044137393467},{\"RMSE\":2.338009475813824},{\"RMSE\":2.310664053728762},{\"RMSE\":2.2986570421455346},{\"RMSE\":2.2850965988299485},{\"RMSE\":2.261920035356706},{\"RMSE\":2.254420087808329},{\"RMSE\":2.2416228133692284},{\"RMSE\":2.220822628073633},{\"RMSE\":2.205927510665569},{\"RMSE\":2.1904281217342914},{\"RMSE\":2.1770015436967287},{\"RMSE\":2.159801577514884},{\"RMSE\":2.14786481932671},{\"RMSE\":2.1392455278594262},{\"RMSE\":2.1148216805239652},{\"RMSE\":2.1108108718538974},{\"RMSE\":2.092340222609979},{\"RMSE\":2.0816168760724767},{\"RMSE\":2.0637867703731767},{\"RMSE\":2.049108660807545},{\"RMSE\":2.0323460366989528},{\"RMSE\":2.0141621815341226},{\"RMSE\":1.9954168295666104},{\"RMSE\":1.9829142508816444},{\"RMSE\":1.964990916457881},{\"RMSE\":1.946995429634739},{\"RMSE\":1.9362455173047715},{\"RMSE\":1.9274890297092866},{\"RMSE\":1.9219832247911024},{\"RMSE\":1.9022125296598091},{\"RMSE\":1.8841673182033347},{\"RMSE\":1.8718854549697077},{\"RMSE\":1.8621249055779412},{\"RMSE\":1.8450161260915219},{\"RMSE\":1.8318960568151936},{\"RMSE\":1.822092352512993},{\"RMSE\":1.807761209581961},{\"RMSE\":1.799743765493687},{\"RMSE\":1.7878454356535676},{\"RMSE\":1.7770268515400929},{\"RMSE\":1.7677592423320068},{\"RMSE\":1.7564767752535055},{\"RMSE\":1.7414947127763674},{\"RMSE\":1.736500343421127},{\"RMSE\":1.7191882799873062},{\"RMSE\":1.7091356512409916},{\"RMSE\":1.7002611309586524},{\"RMSE\":1.6845276056240694},{\"RMSE\":1.674352513059579},{\"RMSE\":1.6611124549463496},{\"RMSE\":1.6540128471426405},{\"RMSE\":1.6438483770297267},{\"RMSE\":1.632889074719065},{\"RMSE\":1.628289251008956},{\"RMSE\":1.6088531212135935},{\"RMSE\":1.6041774973059955},{\"RMSE\":1.598842554385727},{\"RMSE\":1.5946581017195296},{\"RMSE\":1.5725426228286028},{\"RMSE\":1.5556849583474401},{\"RMSE\":1.5465402167707045},{\"RMSE\":1.5331229048214012},{\"RMSE\":1.5182357609888841},{\"RMSE\":1.509236569360069},{\"RMSE\":1.49507281706804},{\"RMSE\":1.493287010880565},{\"RMSE\":1.4915971623958157},{\"RMSE\":1.4811758935689296},{\"RMSE\":1.4752058614119035},{\"RMSE\":1.4623315233096104},{\"RMSE\":1.4588760269391552},{\"RMSE\":1.454723986868646},{\"RMSE\":1.4464343014206507},{\"RMSE\":1.4371151845122545},{\"RMSE\":1.4340397778805565},{\"RMSE\":1.4307102469213668},{\"RMSE\":1.4216632269466818},{\"RMSE\":1.4098897168148177},{\"RMSE\":1.3998245138134287},{\"RMSE\":1.388588387462858},{\"RMSE\":1.379998410321196},{\"RMSE\":1.3719474715980864},{\"RMSE\":1.3692022345851298},{\"RMSE\":1.3665471361705874},{\"RMSE\":1.3640681661118776},{\"RMSE\":1.354760329531522},{\"RMSE\":1.3480129148117994},{\"RMSE\":1.3427514682396449},{\"RMSE\":1.3356420415179908},{\"RMSE\":1.329932311285874},{\"RMSE\":1.3226255429745355},{\"RMSE\":1.303795882782199},{\"RMSE\":1.2934768902542502},{\"RMSE\":1.2893147533245222},{\"RMSE\":1.2768260144937618},{\"RMSE\":1.2692869283897774},{\"RMSE\":1.2608672134584649},{\"RMSE\":1.2589753032296838},{\"RMSE\":1.2569164123686092},{\"RMSE\":1.2453762581933403},{\"RMSE\":1.2384526016417856},{\"RMSE\":1.2276979865184885},{\"RMSE\":1.212554219324636},{\"RMSE\":1.2039680176782759},{\"RMSE\":1.1944621133985764},{\"RMSE\":1.1852135848292833},{\"RMSE\":1.1752022025634565},{\"RMSE\":1.1692275414587692},{\"RMSE\":1.1625229850234},{\"RMSE\":1.1562152651633422},{\"RMSE\":1.1513487473592277},{\"RMSE\":1.145961592807315},{\"RMSE\":1.1391516045495502},{\"RMSE\":1.1295786366370602},{\"RMSE\":1.1237338456170132},{\"RMSE\":1.1147327629476733},{\"RMSE\":1.1092677128221282},{\"RMSE\":1.1011326865259883},{\"RMSE\":1.095712538859054},{\"RMSE\":1.0903862731372822},{\"RMSE\":1.0819210131107098},{\"RMSE\":1.0740808341726624},{\"RMSE\":1.0698403486715693},{\"RMSE\":1.0671100424001936},{\"RMSE\":1.059446556037676},{\"RMSE\":1.053442762789795},{\"RMSE\":1.0442774991656005},{\"RMSE\":1.0370032929985669},{\"RMSE\":1.0288726468747293},{\"RMSE\":1.022420599053527},{\"RMSE\":1.0157740702463358},{\"RMSE\":1.0105553399790397},{\"RMSE\":1.005141152241857},{\"RMSE\":1.000301616855058},{\"RMSE\":0.9952230562486944},{\"RMSE\":0.9939986593972503},{\"RMSE\":0.9857731557552664},{\"RMSE\":0.9801990352161877},{\"RMSE\":0.9757749282734403},{\"RMSE\":0.9671055584261681},{\"RMSE\":0.9618245377318114},{\"RMSE\":0.9580090811809117},{\"RMSE\":0.951834795928563},{\"RMSE\":0.9445529421014265},{\"RMSE\":0.9375134416928623},{\"RMSE\":0.9359321838875919},{\"RMSE\":0.931841275897716},{\"RMSE\":0.9296543864904002},{\"RMSE\":0.9237767442050638},{\"RMSE\":0.9165539678048775},{\"RMSE\":0.9107991070305571},{\"RMSE\":0.9031367501563758},{\"RMSE\":0.8975933901511766},{\"RMSE\":0.8966181506512697},{\"RMSE\":0.8944071106372177},{\"RMSE\":0.8879877760788757},{\"RMSE\":0.883108338595621},{\"RMSE\":0.8775681774485672},{\"RMSE\":0.8706296266547094},{\"RMSE\":0.8662438305278456},{\"RMSE\":0.864877646384261},{\"RMSE\":0.8613638346126009},{\"RMSE\":0.856163116047396},{\"RMSE\":0.8516806043528646},{\"RMSE\":0.8460312325268815},{\"RMSE\":0.8381639153668383},{\"RMSE\":0.833645529132853},{\"RMSE\":0.8289571383219098},{\"RMSE\":0.8261896452851146},{\"RMSE\":0.8205649995173447},{\"RMSE\":0.8160011959299611},{\"RMSE\":0.8121592108243635},{\"RMSE\":0.8069025516981584},{\"RMSE\":0.8013655236508509},{\"RMSE\":0.7986826589992875},{\"RMSE\":0.7925751344768823},{\"RMSE\":0.7908512682293054},{\"RMSE\":0.787931389010031},{\"RMSE\":0.7874458740362809},{\"RMSE\":0.7849496035492074},{\"RMSE\":0.7806253196003109},{\"RMSE\":0.7777343581790428},{\"RMSE\":0.7741434962597918},{\"RMSE\":0.7689264577025272},{\"RMSE\":0.7666679515874781},{\"RMSE\":0.7586432550292932},{\"RMSE\":0.7549499814554427},{\"RMSE\":0.7503356724999357},{\"RMSE\":0.7479615963910407},{\"RMSE\":0.7414774719391004},{\"RMSE\":0.7395449337803056},{\"RMSE\":0.7387832894895091},{\"RMSE\":0.7334498413157475},{\"RMSE\":0.7329072011164627},{\"RMSE\":0.7297349808724916},{\"RMSE\":0.7278231773705284},{\"RMSE\":0.7240591058948578},{\"RMSE\":0.7218867841793781},{\"RMSE\":0.7164095066228141},{\"RMSE\":0.7109812900444097},{\"RMSE\":0.7105377566258485},{\"RMSE\":0.7099905629938363},{\"RMSE\":0.707762964719676},{\"RMSE\":0.7056327984053226},{\"RMSE\":0.7016801382347319},{\"RMSE\":0.6975757670007412},{\"RMSE\":0.6931119621820483},{\"RMSE\":0.6892393955951434},{\"RMSE\":0.6864827221917503},{\"RMSE\":0.6819172371151704},{\"RMSE\":0.6799494527477318},{\"RMSE\":0.6755446124225235},{\"RMSE\":0.6751713032632436},{\"RMSE\":0.6732633873923466},{\"RMSE\":0.6701520540644166},{\"RMSE\":0.667077943511448},{\"RMSE\":0.6663054160293687},{\"RMSE\":0.6657783430825399},{\"RMSE\":0.6617654854385396},{\"RMSE\":0.6588949625375509},{\"RMSE\":0.657491745644315},{\"RMSE\":0.6532332392992972},{\"RMSE\":0.6510989932949047},{\"RMSE\":0.6485743046708006},{\"RMSE\":0.6459390731954501},{\"RMSE\":0.6434504636398974},{\"RMSE\":0.6378960342423692},{\"RMSE\":0.635436403551532},{\"RMSE\":0.632521405209303},{\"RMSE\":0.629737889675207},{\"RMSE\":0.6256796559271738},{\"RMSE\":0.6250024937355915},{\"RMSE\":0.6208751268651204},{\"RMSE\":0.6182023409173082},{\"RMSE\":0.6135929323671391},{\"RMSE\":0.6109409965110993},{\"RMSE\":0.6071545961644353},{\"RMSE\":0.6033552803155295},{\"RMSE\":0.5999791813781118},{\"RMSE\":0.5975765774012665},{\"RMSE\":0.5941046052780968},{\"RMSE\":0.5906140056359825},{\"RMSE\":0.5901443402840341},{\"RMSE\":0.5865073178236843},{\"RMSE\":0.5834008834776547}],\"test_best_error\":[{\"RMSE\":2.4075269328406446}]}}"
    },
  "oblivious_trees":
    [
      {
        "leaf_values":
          [
            0.60151127281056738,
            1.6234046977167762,
            0.41878312074700286,
            1.051839689192767,
            0,
            0,
            0,
            0,
            0.67460452131337689,
            1.4848103335790808,
            0.25210447687066306,
            0.67460452131337689,
            0,
            0,
            0,
            0,
            0,
            0,
            0,
            0,
            0,
            0,
            0,
            0,
            0,
            0,
            0,
            0,
            0,
            0,
            0,
            0,
            -0.061969357669879363,
            0.94457957609423171,
            0.019357119668260384,
            0.73089265005130521,
            0.049011278882790776,
            0,
            0,
            0,
            0.15052460486052763,
            0.31736725326429677,
            0,
            0.2546045341283758,
            0.31587570979012608,
            -0.027895498691432152,
            0,
            0,
            -0.44137996651961731,
            0.19210453319705323,
            -0.257457641623283,
            0,
            -0.97769711149943195,
            -0.35663281018484838,
            0,
            0,
            -0.056618255368998602,
            0,
            0,
            0,
            -0.31947542394128853,
            0,
            0,
            0
          ],
        "leaf_weights":
          [
            5,
            16,
            10,
            13,
            0,
            0,
            0,
            0,
            1,
            4,
            1,
            1,
            0,
            0,
            0,
            0,
            0,
            0,
            0,
            0,
            0,
            0,
            0,
            0,
            0,
            0,
            0,
            0,
            0,
            0,
            0,
            0,
            88,
            14,
            34,
            7,
            5,
            0,
            0,
            0,
            4,
            2,
            0,
            1,
            3,
            1,
            0,
            0,
            70,
            1,
            3,
            0,
            60,
            2,
            0,
            0,
            4,
            0,
            0,
            0,
            4,
            0,
            0,
            0
          ],
        "splits":
          [
            {
              "border":0.85677027702331543,
              "float_feature_index":5,
              "split_index":226,
              "split_type":"FloatFeature"
            },
            {
              "border":0.44719263911247253,
              "float_feature_index":1,
              "split_index":86,
              "split_type":"FloatFeature"
            },
            {
              "border":0.85521209239959717,
              "float_feature_index":4,
              "split_index":148,
              "split_type":"FloatFeature"
            },
            {
              "border":1.6351339817047119,
              "float_feature_index":3,
              "split_index":120,
              "split_type":"FloatFeature"
            },
            {
              "border":0.089247941970825195,
              "float_feature_index":12,
              "split_index":654,
              "split_type":"FloatFeature"
            },
            {
              "border":-1.0075721740722656,
              "float_feature_index":12,
              "split_index":605,
              "split_type":"FloatFeature"
            }
          ]
      },
      {
        "leaf_values":
          [
            0.30410176231264363,
            1.1654445529027539,
            0,
            0,
            0,
            0,
            0,
            0,
            -0.038049862146556514,
            0.68769411306720296,
            -0.0033794263178207233,
            0,
            -0.15788522882904973,
            0,
            -0.014360989790018696,
            0,
            0,
            0,
            0,
            -0.027198111213754466,
            0,
            0,
            0,
            0,
            -0.22313224512668081,
            0,
            -0.058474935922100804,
            0.025990022245912056,
            -0.158015602766748,
            0,
            -0.471216642166703,
            0,
            0.17184599488507821,
            0.78425440968208449,
            0,
            0,
            0,
            0,
            0,
            0,
            0.049604516428103776,
            0.67656520922681451,
            0,
            0,
            -0.36112562070894211,
            0.18730191979556238,
            -0.15425372000587892,
            0,
            0,
            0,
            0.82674358371235013,
            1.5986715443310586,
            0,
            0,
            0,
            0,
            -0.11134625645645514,
            0,
            0.16670467359181423,
            0,
            -0.16097761623796875,
            0,
            -0.76295073895626686,
            -0.34236749756488472
          ],
        "leaf_weights":
          [
            28,
            39,
            0,
            0,
            0,
            0,
            0,
            0,
            63,
            9,
            1,
            0,
            27,
            0,
            1,
            0,
            0,
            0,
            0,
            1,
            0,
            0,
            0,
            0,
            5,
            0,
            4,
            1,
            4,
            0,
            18,
            0,
            2,
            5,
            0,
            0,
            0,
            0,
            0,
            0,
            6,
            5,
            0,
            0,
            21,
            1,
            4,
            0,
            0,
            0,
            4,
            6,
            0,
            0,
            0,
            0,
            1,
            0,
            9,
            0,
            2,
            0,
            85,
            2
          ],
        "splits":
          [
            {
              "border":0.7272789478302002,
              "float_feature_index":5,
              "split_index":223,
              "split_type":"FloatFeature"
            },
            {
              "border":0.48304587602615356,
              "float_feature_index":2,
              "split_index":117,
              "split_type":"FloatFeature"
            },
            {
              "border":-0.10927791148424149,
              "float_feature_index":12,
              "split_index":647,
              "split_type":"FloatFeature"
            },
            {
              "border":-0.81045430898666382,
              "float_feature_index":12,
              "split_index":619,
              "split_type":"FloatFeature"
            },
            {
              "border":-0.027316484600305557,
              "float_feature_index":9,
              "split_index":474,
              "split_type":"FloatFeature"
            },
            {
              "border":0.53030288219451904,
              "float_feature_index":6,
              "split_index":309,
              "split_type":"FloatFeature"
            }
          ]
      },
      {
        "leaf_values":
          [
            1.3798463831524885,
            0,
            0,
            0,
            0.070526355517406672,
            -0.18708145043934013,
            0,
            -0.35438734822431661,
            1.3972324863660486,
            0,
            0,
            0,
            0.19971499024897241,
            -0.2142109785234923,
            -0.026518158423278551,
            -0.6298876596556312,
            0.92134934362019594,
            0,
            0,
            0,
            0.49309448168073355,
            0.71816180120997963,
            0,
            0,
            0.39465911783739771,
            0,
            0,
            0,
            0.21692793445451361,
            -0.011991612852750458,
            0,
            0,
            0,
            0,
            0,
            0,
            0,
            0.076169450669402727,
            0,
            -0.39472894911755008,
            0.38615384871906627,
            0,
            0,
            0,
            0.27212047577254356,
            -0.20426164206773109,
            0,
            -0.7933751544405746,
            0.87794984388918063,
            0,
            0,
            0,
            0.35551378097335096,
            0,
            0,
            0,
            0.60290130787727148,
            0,
            0,
            0,
            0.20644765414214342,
            -0.077254141832400383,
            0,
            0
          ],
        "leaf_weights":
          [
            5,
            0,
            0,
            0,
            2,
            10,
            0,
            9,
            13,
            0,
            0,
            0,
            6,
            88,
            1,
            39,
            9,
            0,
            0,
            0,
            2,
            15,
            0,
            0,
            8,
            0,
            0,
            0,
            4,
            23,
            0,
            0,
            0,
            0,
            0,
            0,
            0,
            3,
            0,
            3,
            3,
            0,
            0,
            0,
            10,
            50,
            0,
            21,
            4,
            0,
            0,
            0,
            2,
            0,
            0,
            0,
            7,
            0,
            0,
            0,
            4,
            13,
            0,
            0
          ],
        "splits":
          [
            {
              "border":-0.82453417778015137,
              "float_feature_index":12,
              "split_index":616,
              "split_type":"FloatFeature"
            },
            {
              "border":0.91094541549682617,
              "float_feature_index":4,
              "split_index":149,
              "split_type":"FloatFeature"
            },
            {
              "border":-1.0167241096496582,
              "float_feature_index":12,
              "split_index":604,
              "split_type":"FloatFeature"
            },
            {
              "border":-1.032997727394104,
              "float_feature_index":10,
              "split_index":484,
              "split_type":"FloatFeature"
            },
            {
              "border":0.32538455724716187,
              "float_feature_index":1,
              "split_index":84,
              "split_type":"FloatFeature"
            },
            {
              "border":0.4035416841506958,
              "float_feature_index":11,
              "split_index":570,
              "split_type":"FloatFeature"
            }
          ]
      },
      {
        "leaf_values":
          [
            0.14916592299804882,
            0.012627044510784963,
            0,
            0,
            0,
            -0.0061619387950919051,
            0,
            0,
            1.1149009825780456,
            0.62509294954132388,
            0,
            0,
            0,
            -0.027919360230509165,
            0,
            0,
            0.071649900252347271,
            -0.040710777761976,
            0,
            -0.2138257991793418,
            0,
            -0.29938204344654529,
            0,
            -0.085230028461893495,
            1.003580532781831,
            0.40424495506624486,
            0,
            0.030446812807868848,
            0,
            0,
            0,
            0,
            0,
            -0.055596878286361749,
            0,
            0,
            0,
            -0.13223901260976623,
            0,
            0,
            0,
            1.013176845770297,
            0,
            0,
            0,
            0.71719071923333944,
            0,
            0,
            0,
            -0.041694728857891279,
            0,
            -0.31622638247989709,
            0,
            0,
            0.96488587370988299,
            -0.59913939684773054,
            0,
            0,
            0,
            -0.025855204452817786,
            0,
            0,
            1.3999105006124566,
            -0.37512757722360379
          ],
        "leaf_weights":
          [
            1,
            55,
            0,
            0,
            0,
            5,
            0,
            0,
            11,
            12,
            0,
            0,
            0,
            1,
            0,
            0,
            3,
            65,
            0,
            13,
            0,
            12,
            0,
            1,
            13,
            14,
            0,
            1,
            0,
            0,
            0,
            0,
            0,
            4,
            0,
            0,
            0,
            2,
            0,
            0,
            0,
            5,
            0,
            0,
            0,
            5,
            0,
            0,
            0,
            4,
            0,
            35,
            0,
            0,
            2,
            80,
            0,
            0,
            0,
            1,
            0,
            0,
            6,
            3
          ],
        "splits":
          [
            {
              "border":-1.0955712795257568,
              "float_feature_index":12,
              "split_index":597,
              "split_type":"FloatFeature"
            },
            {
              "border":-0.027316484600305557,
              "float_feature_index":9,
              "split_index":474,
              "split_type":"FloatFeature"
            },
            {
              "border":0.75653684139251709,
              "float_feature_index":6,
              "split_index":321,
              "split_type":"FloatFeature"
            },
            {
              "border":0.69525414705276489,
              "float_feature_index":5,
              "split_index":222,
              "split_type":"FloatFeature"
            },
            {
              "border":-0.7279130220413208,
              "float_feature_index":9,
              "split_index":459,
              "split_type":"FloatFeature"
            },
            {
              "border":0.14354053139686584,
              "float_feature_index":4,
              "split_index":141,
              "split_type":"FloatFeature"
            }
          ]
      },
      {
        "leaf_values":
          [
            0.088388133897008267,
            -0.074355446737416842,
            0.31055362888287208,
            0.038731880502338778,
            0,
            -0.42074518657631993,
            0,
            -0.11406336711596533,
            0,
            0,
            0,
            0,
            0,
            0,
            0,
            0,
            1.3236769057478717,
            0.61120832456381124,
            0.98415520074418672,
            0.61930756561757849,
            0,
            0,
            0,
            0,
            0,
            0,
            0,
            0,
            0,
            0,
            0,
            0,
            0.92629043818637091,
            0.017920244209274371,
            0.22449764294164268,
            -0.098881893245853753,
            0,
            -0.59698990135044017,
            0,
            -0.39122949181502414,
            0,
            -0.25648630305161069,
            0,
            -0.037068363923783508,
            0,
            -0.88695104475814124,
            0,
            -0.061819630881212083,
            0.3167724646361641,
            0,
            0.8812860527793428,
            0.36913924093111278,
            0,
            0,
            0,
            0,
            0,
            0,
            0,
            0,
            0,
            -0.26870792629446905,
            0,
            0
          ],
        "leaf_weights":
          [
            1,
            10,
            9,
            32,
            0,
            6,
            0,
            3,
            0,
            0,
            0,
            0,
            0,
            0,
            0,
            0,
            6,
            6,
            12,
            4,
            0,
            0,
            0,
            0,
            0,
            0,
            0,
            0,
            0,
            0,
            0,
            0,
            2,
            12,
            18,
            116,
            0,
            27,
            0,
            18,
            0,
            9,
            0,
            1,
            0,
            27,
            0,
            1,
            3,
            0,
            23,
            7,
            0,
            0,
            0,
            0,
            0,
            0,
            0,
            0,
            0,
            1,
            0,
            0
          ],
        "splits":
          [
            {
              "border":-0.86466175317764282,
              "float_feature_index":12,
              "split_index":611,
              "split_type":"FloatFeature"
            },
            {
              "border":-0.73356306552886963,
              "float_feature_index":7,
              "split_index":381,
              "split_type":"FloatFeature"
            },
            {
              "border":0.63343405723571777,
              "float_feature_index":12,
              "split_index":674,
              "split_type":"FloatFeature"
            },
            {
              "border":0.77072179317474365,
              "float_feature_index":0,
              "split_index":66,
              "split_type":"FloatFeature"
            },
            {
              "border":0.85677027702331543,
              "float_feature_index":5,
              "split_index":226,
              "split_type":"FloatFeature"
            },
            {
              "border":-0.70019721984863281,
              "float_feature_index":10,
              "split_index":487,
              "split_type":"FloatFeature"
            }
          ]
      },
      {
        "leaf_values":
          [
            0.77029860333055655,
            0,
            0.86708297964167114,
            0,
            0.21919891967897739,
            0,
            0.49833872325416617,
            0,
            0,
            0,
            0,
            0,
            0,
            0,
            0,
            0,
            0,
            0,
            0,
            0,
            0.22699189194272898,
            0.096097346575445775,
            0.11783281956910764,
            -0.16490899043418702,
            0,
            0,
            0,
            0,
            0.2220961941421202,
            0.11264851334766171,
            0.51918229758254397,
            -0.28789121782901733,
            0,
            0,
            0,
            0,
            0,
            0,
            0,
            0,
            0,
            0,
            1.4416059601567115,
            0,
            0,
            0,
            0.27396674548090633,
            0,
            0,
            0,
            0,
            0,
            0,
            0,
            0.024830916126149492,
            -0.30516399030203728,
            0,
            0,
            0,
            0,
            0,
            0,
            0.26968241437398011,
            -0.53900018999902133
          ],
        "leaf_weights":
          [
            8,
            0,
            19,
            0,
            2,
            0,
            11,
            0,
            0,
            0,
            0,
            0,
            0,
            0,
            0,
            0,
            0,
            0,
            0,
            0,
            18,
            2,
            84,
            46,
            0,
            0,
            0,
            0,
            1,
            1,
            9,
            18,
            0,
            0,
            0,
            0,
            0,
            0,
            0,
            0,
            0,
            0,
            7,
            0,
            0,
            0,
            1,
            0,
            0,
            0,
            0,
            0,
            0,
            0,
            4,
            35,
            0,
            0,
            0,
            0,
            0,
            0,
            7,
            81
          ],
        "splits":
          [
            {
              "border":-0.26838019490242004,
              "float_feature_index":12,
              "split_index":642,
              "split_type":"FloatFeature"
            },
            {
              "border":-1.2207016944885254,
              "float_feature_index":2,
              "split_index":101,
              "split_type":"FloatFeature"
            },
            {
              "border":-1.1047232151031494,
              "float_feature_index":12,
              "split_index":595,
              "split_type":"FloatFeature"
            },
            {
              "border":0.71129012107849121,
              "float_feature_index":6,
              "split_index":319,
              "split_type":"FloatFeature"
            },
            {
              "border":-1.0230600833892822,
              "float_feature_index":12,
              "split_index":603,
              "split_type":"FloatFeature"
            },
            {
              "border":0.78468352556228638,
              "float_feature_index":2,
              "split_index":118,
              "split_type":"FloatFeature"
            }
          ]
      },
      {
        "leaf_values":
          [
            0.067992431089575395,
            0.74530110304865271,
            -0.027241468199489683,
            0.78690670275108898,
            -0.059225667118416987,
            0.19854882010783156,
            -0.31467388174854405,
            -0.048120245581230708,
            -0.0012524215284387252,
            -0.049723676105381857,
            -0.064960289927570164,
            0,
            0,
            0,
            0,
            0,
            0,
            0,
            0,
            0,
            0,
            0,
            0,
            0,
            0.12562352346402123,
            0.54646677962020851,
            0.16910309218471364,
            0.59901092290212787,
            0.021933820115854145,
            0.30864665418114889,
            -0.18255989951475349,
            0,
            0.088839004024937177,
            0.44376926092584018,
            -0.18374600294311008,
            1.0478768840348596,
            -0.074454549551561403,
            0,
            -0.26502189538056825,
            0,
            0,
            0,
            -0.14477033458049693,
            0,
            0.081773663564166973,
            0,
            -0.10986048253950313,
            0,
            0,
            0,
            0,
            0,
            0,
            0,
            0,
            0,
            0,
            0,
            0,
            0,
            -0.061652019260061523,
            0,
            -0.38986454641371832,
            -0.0021119435891162335
          ],
        "leaf_weights":
          [
            39,
            21,
            31,
            17,
            16,
            2,
            23,
            1,
            6,
            1,
            1,
            0,
            0,
            0,
            0,
            0,
            0,
            0,
            0,
            0,
            0,
            0,
            0,
            0,
            3,
            3,
            5,
            9,
            6,
            2,
            4,
            0,
            7,
            5,
            22,
            5,
            2,
            0,
            22,
            0,
            0,
            0,
            7,
            0,
            2,
            0,
            2,
            0,
            0,
            0,
            0,
            0,
            0,
            0,
            0,
            0,
            0,
            0,
            0,
            0,
            5,
            0,
            79,
            6
          ],
        "splits":
          [
            {
              "border":0.69525414705276489,
              "float_feature_index":5,
              "split_index":222,
              "split_type":"FloatFeature"
            },
            {
              "border":-0.38187283277511597,
              "float_feature_index":6,
              "split_index":282,
              "split_type":"FloatFeature"
            },
            {
              "border":0.20945748686790466,
              "float_feature_index":10,
              "split_index":496,
              "split_type":"FloatFeature"
            },
            {
              "border":-0.45641666650772095,
              "float_feature_index":8,
              "split_index":442,
              "split_type":"FloatFeature"
            },
            {
              "border":-0.3405117392539978,
              "float_feature_index":8,
              "split_index":443,
              "split_type":"FloatFeature"
            },
            {
              "border":-0.18066594004631042,
              "float_feature_index":9,
              "split_index":470,
              "split_type":"FloatFeature"
            }
          ]
      },
      {
        "leaf_values":
          [
            0.0026177671923659006,
            0.047096227128051324,
            0.12126972891142485,
            0,
            0,
            0,
            0,
            0,
            0.20276732588338581,
            0.078789641361464838,
            0.521849511258898,
            0,
            0,
            0,
            0,
            0,
            0.25111698189903192,
            -0.099123002278489802,
            1.1105155431386653,
            0.30387441551876698,
            0.14826532793485087,
            -0.18239658888555005,
            0.8036046483815289,
            0,
            0.17008106296367503,
            -0.082679507821119311,
            0.53639434319932333,
            0,
            0,
            0,
            0,
            0,
            0,
            0,
            0,
            0,
            0,
            0,
            0,
            0,
            0,
            0,
            0,
            0,
            0,
            0,
            0,
            0,
            0.26236905403908251,
            0,
            0,
            0.20025964847854233,
            0.81543800881306971,
            -0.45283748707122107,
            0.68953940054518092,
            -0.083495798124534393,
            0,
            0,
            0,
            0,
            0,
            0,
            0,
            0
          ],
        "leaf_weights":
          [
            2,
            2,
            1,
            0,
            0,
            0,
            0,
            0,
            2,
            1,
            3,
            0,
            0,
            0,
            0,
            0,
            36,
            34,
            13,
            3,
            19,
            136,
            12,
            0,
            8,
            4,
            2,
            0,
            0,
            0,
            0,
            0,
            0,
            0,
            0,
            0,
            0,
            0,
            0,
            0,
            0,
            0,
            0,
            0,
            0,
            0,
            0,
            0,
            2,
            0,
            0,
            1,
            6,
            64,
            2,
            1,
            0,
            0,
            0,
            0,
            0,
            0,
            0,
            0
          ],
        "splits":
          [
            {
              "border":-0.65627998113632202,
              "float_feature_index":12,
              "split_index":625,
              "split_type":"FloatFeature"
            },
            {
              "border":1.1916377544403076,
              "float_feature_index":5,
              "split_index":236,
              "split_type":"FloatFeature"
            },
            {
              "border":-0.7393803596496582,
              "float_feature_index":2,
              "split_index":108,
              "split_type":"FloatFeature"
            },
            {
              "border":2.7061786651611328,
              "float_feature_index":1,
              "split_index":93,
              "split_type":"FloatFeature"
            },
            {
              "border":-1.3578097820281982,
              "float_feature_index":2,
              "split_index":98,
              "split_type":"FloatFeature"
            },
            {
              "border":0.93933403491973877,
              "float_feature_index":6,
              "split_index":331,
              "split_type":"FloatFeature"
            }
          ]
      },
      {
        "leaf_values":
          [
            1.0440077815700879,
            0,
            0.52188978070673941,
            0,
            0,
            0,
            0,
            0,
            0.45132873991429762,
            0.057047416255611549,
            0.23871720913508329,
            -0.096178562702069606,
            0,
            -0.52796040037822356,
            0,
            -0.28195652644213592,
            1.0283073731637236,
            0,
            0.67922604468717274,
            0,
            0,
            0,
            0,
            0,
            0.021229728038956609,
            0.22764224949545453,
            0.26852954154472553,
            0.011848972627408517,
            0,
            -0.091320372987493154,
            0,
            0
          ],
        "leaf_weights":
          [
            9,
            0,
            12,
            0,
            0,
            0,
            0,
            0,
            23,
            82,
            44,
            64,
            0,
            80,
            0,
            14,
            4,
            0,
            3,
            0,
            0,
            0,
            0,
            0,
            2,
            9,
            2,
            2,
            0,
            4,
            0,
            0
          ],
        "splits":
          [
            {
              "border":-0.70978343486785889,
              "float_feature_index":12,
              "split_index":621,
              "split_type":"FloatFeature"
            },
            {
              "border":-0.032088153064250946,
              "float_feature_index":7,
              "split_index":409,
              "split_type":"FloatFeature"
            },
            {
              "border":0.45039603114128113,
              "float_feature_index":12,
              "split_index":671,
              "split_type":"FloatFeature"
            },
            {
              "border":-1.139218807220459,
              "float_feature_index":12,
              "split_index":593,
              "split_type":"FloatFeature"
            },
            {
              "border":1.6351339817047119,
              "float_feature_index":3,
              "split_index":120,
              "split_type":"FloatFeature"
            }
          ]
      },
      {
        "leaf_values":
          [
            0.13841662766079574,
            -0.10576112647755566,
            0,
            -0.03918162118948007,
            0.39187182526540359,
            -0.15875518383105405,
            0,
            -0.54249348870636527,
            0,
            0.046635508254970426,
            0,
            0,
            0.44981285576927066,
            -0.14987982886381762,
            0,
            0.53340752277111947,
            0.14665861758757021,
            -0.095415566225206097,
            0,
            0,
            0,
            0,
            0,
            0,
            0.13385098916223018,
            0,
            0,
            0,
            0,
            0,
            0,
            0,
            0.53820106940898571,
            0.55072055534987507,
            0,
            0,
            1.0184246398899501,
            0.36606355022614268,
            0,
            -0.23913031394694376,
            0.43390510813663336,
            0,
            0,
            0,
            0.6628095817755365,
            0,
            0,
            0,
            0.5022224114927103,
            0.16575461868261332,
            0,
            0,
            0,
            0,
            0,
            0,
            0.49112015059256448,
            0,
            0,
            0,
            0,
            0,
            0,
            0
          ],
        "leaf_weights":
          [
            26,
            104,
            0,
            2,
            5,
            55,
            0,
            50,
            0,
            8,
            0,
            0,
            2,
            5,
            0,
            2,
            20,
            15,
            0,
            0,
            0,
            0,
            0,
            0,
            1,
            0,
            0,
            0,
            0,
            0,
            0,
            0,
            20,
            2,
            0,
            0,
            5,
            5,
            0,
            2,
            2,
            0,
            0,
            0,
            4,
            0,
            0,
            0,
            15,
            2,
            0,
            0,
            0,
            0,
            0,
            0,
            2,
            0,
            0,
            0,
            0,
            0,
            0,
            0
          ],
        "splits":
          [
            {
              "border":-0.70203948020935059,
              "float_feature_index":12,
              "split_index":623,
              "split_type":"FloatFeature"
            },
            {
              "border":0.49724107980728149,
              "float_feature_index":0,
              "split_index":59,
              "split_type":"FloatFeature"
            },
            {
              "border":0.22499692440032959,
              "float_feature_index":4,
              "split_index":143,
              "split_type":"FloatFeature"
            },
            {
              "border":1.6351339817047119,
              "float_feature_index":3,
              "split_index":120,
              "split_type":"FloatFeature"
            },
            {
              "border":0.66866183280944824,
              "float_feature_index":1,
              "split_index":88,
              "split_type":"FloatFeature"
            },
            {
              "border":0.87487125396728516,
              "float_feature_index":5,
              "split_index":228,
              "split_type":"FloatFeature"
            }
          ]
      },
      {
        "leaf_values":
          [
            0,
            0,
            0,
            0,
            0.11829861706513464,
            0.90372344573227559,
            -0.061176330113530832,
            0,
            0.27793719492295077,
            0.43632010397552778,
            -0.25307650979140084,
            0,
            0.11005985676347206,
            0.9371174353732391,
            -0.03393285222881303,
            0,
            0,
            0,
            -0.47219308573559893,
            0,
            -0.11870581534156736,
            0,
            -0.12418838513942293,
            0,
            0.94541734059611993,
            -0.070887209896756981,
            -0.44922309375880309,
            0,
            -0.11892353640315755,
            0,
            -0.21336996175443798,
            0,
            0,
            0,
            0,
            0,
            0.21896505153057311,
            0.71096723768786663,
            -0.06422151941344624,
            0,
            0,
            0,
            0,
            0,
            0,
            0,
            0,
            0,
            0,
            0,
            0,
            0,
            -0.11347586039987546,
            0,
            -0.069918692933082213,
            0,
            0,
            0,
            0,
            0,
            0,
            0,
            0,
            0
          ],
        "leaf_weights":
          [
            0,
            0,
            0,
            0,
            73,
            13,
            37,
            0,
            6,
            1,
            12,
            0,
            15,
            7,
            22,
            0,
            0,
            0,
            3,
            0,
            8,
            0,
            12,
            0,
            5,
            1,
            47,
            0,
            7,
            0,
            49,
            0,
            0,
            0,
            0,
            0,
            30,
            3,
            1,
            0,
            0,
            0,
            0,
            0,
            0,
            0,
            0,
            0,
            0,
            0,
            0,
            0,
            1,
            0,
            1,
            0,
            0,
            0,
            0,
            0,
            0,
            0,
            0,
            0
          ],
        "splits":
          [
            {
              "border":1.5153663158416748,
              "float_feature_index":5,
              "split_index":240,
              "split_type":"FloatFeature"
            },
            {
              "border":-0.27401214838027954,
              "float_feature_index":12,
              "split_index":641,
              "split_type":"FloatFeature"
            },
            {
              "border":-0.84705662727355957,
              "float_feature_index":7,
              "split_index":372,
              "split_type":"FloatFeature"
            },
            {
              "border":0.35112547874450684,
              "float_feature_index":6,
              "split_index":299,
              "split_type":"FloatFeature"
            },
            {
              "border":0.71975159645080566,
              "float_feature_index":10,
              "split_index":502,
              "split_type":"FloatFeature"
            },
            {
              "border":1.3773633241653442,
              "float_feature_index":1,
              "split_index":91,
              "split_type":"FloatFeature"
            }
          ]
      },
      {
        "leaf_values":
          [
            0,
            0,
            0,
            0,
            0,
            0,
            0,
            0,
            0,
            -0.017801744451531317,
            -0.12596258735015406,
