tree
version=v4
num_class=1
num_tree_per_iteration=1
label_index=0
max_feature_idx=12
objective=regression
feature_names=Column_0 Column_1 Column_2 Column_3 Column_4 Column_5 Column_6 Column_7 Column_8 Column_9 Column_10 Column_11 Column_12
feature_infos=[-0.41676237485683154:10.296907509052771] [-0.50512498575073406:3.7027901172458439] [-1.4321366800151936:2.3967851611479642] [-0.28154625318573645:3.5518142709585212] [-1.4770128038214425:2.6901243599714224] [-3.4289770623990612:3.4173581579404808] [-2.3854015812802198:1.1293705949838997] [-1.2417525561874585:3.9380688988694916] [-0.97798894809322878:1.6878249171143602] [-1.3232696794657191:1.827911172478218] [-2.5195066487745588:1.6515930151369946] [-4.1402519469438941:0.42854113323340726] [-1.5052948021856987:3.5972419660968527]
tree_sizes=1241 1293 1208 1304 1216 1221 1386 1213 1309 1313 1388 1309 1228 1222 1234 1390 1395 1316 1321 1314 1394 1409 1313 1320 1401 1244 1323 1243 1320 1324 1413 1319 1241 1322 1330 1319

Tree=0
num_leaves=14
num_cat=0
split_feature=5 12 5 12 7 5 0 0 12 0 0 7 7
split_gain=14331.7 5196.69 2208.31 1218.65 864.225 394.262 262.55 166.662 99.5657 154.069 30.976 30.618 24.4823
threshold=0.85677030554991418 0.28354983470806 1.5473910639978323 -0.91182922607336547 -0.79274740000407606 0.30886855464415713 0.43523839219324051 -0.33744591409348607 -0.40706668980700395 -0.40792695585401256 1.1738286024178426 0.29762976868085639 -0.41587981494000659
decision_type=2 2 2 2 2 2 2 2 2 2 2 2 2
left_child=1 3 -2 -1 6 8 -3 -6 9 -5 -8 12 -10
right_child=2 4 -4 5 7 -7 10 -9 11 -11 -12 -13 -14
leaf_value=23.720903959411515 23.938339873211945 22.218328200341126 25.173802471403931 22.830487313438837 22.673852684396255 23.31039114905823 21.876237291185195 22.312237307755286 22.803468075508931 23.201380158785827 21.700237270681196 22.71123733629846 22.930237305877739
leaf_weight=24 39 22 23 24 26 26 20 25 39 21 20 20 25
leaf_count=24 39 22 23 24 26 26 20 25 39 21 20 20 25
internal_value=23.0158 22.7226 24.3967 23.0578 22.1917 22.9551 21.9409 22.4966 22.8835 23.0036 21.7882 22.8192 22.853
internal_weight=354 292 62 179 113 155 62 51 129 45 40 84 64
internal_count=354 292 62 179 113 155 62 51 129 45 40 84 64
is_linear=0
shrinkage=1


Tree=1
num_leaves=14
num_cat=0
split_feature=5 12 5 12 7 5 0 11 12 0 0 7 6
split_gain=11608.7 4209.32 1788.73 987.99 700.022 330.959 212.665 139.414 80.6482 124.796 25.0906 24.8006 21.7279
threshold=0.85677030554991418 0.28354983470806 1.5473910639978323 -0.94773283743959202 -0.79274740000407606 0.30886855464415713 0.43523839219324051 0.20740546533789275 -0.40706668980700395 -0.40792695585401256 1.1738286024178426 0.29762976868085639 0.28235031769676883
decision_type=2 2 2 2 2 2 2 2 2 2 2 2 2
left_child=1 3 -2 -1 6 8 -3 -6 9 -5 -8 12 -10
right_child=2 4 -4 5 7 -7 10 -9 11 -11 -12 -13 -14
leaf_value=0.6496487280758827 0.83026858793619351 -0.71774191287430855 1.9421848794688348 -0.16679872398575146 -0.67314797878265387 0.26595898472393553 -1.0256236910820007 -0.33450487371413939 -0.08253778351856203 0.16700483901160104 -1.184023733139038 -0.27412371233105665 -0.19958637105567115
leaf_weight=23 39 22 23 24 20 27 20 31 29 21 20 20 35
leaf_count=23 39 22 23 24 20 27 20 31 29 21 20 20 35
internal_value=-4.09571e-09 -0.263872 1.24275 0.0377941 -0.741733 -0.0524152 -0.967472 -0.467306 -0.119052 -0.0110237 -1.10482 -0.176924 -0.146549
internal_weight=354 292 62 179 113 156 62 51 129 45 40 84 64
internal_count=354 292 62 179 113 156 62 51 129 45 40 84 64
is_linear=0
shrinkage=0.1


Tree=2
num_leaves=13
num_cat=0
split_feature=12 5 12 5 0 12 5 7 12 12 7 5
split_gain=9403.57 3207.8 1925.75 1120.86 419.414 222.74 187.176 150.389 104.604 70.8751 23.575 13.104
threshold=-0.49506573727324538 1.5473910639978323 0.5447310075878653 0.48778945678237767 0.27772720881581031 -1.0167240906531252 -0.010682784194144061 1.0863150385612188 0.26665401759454166 1.2620992425326667 0.3241485101370582 -0.61288737699399209
decision_type=2 2 2 2 2 2 2 2 2 2 2 2
left_child=1 3 6 7 -4 -5 8 -1 10 -6 11 -2
right_child=2 -3 4 5 9 -7 -8 -9 -10 -11 -12 -13
leaf_value=0.25653407912169185 -0.1914845353790692 1.7479664201321812 -0.51243701859926571 1.0026496142148973 -0.81867478869178079 0.58748870986912938 0.046415229755289417 -0.087214039973914637 -0.39765241713478017 -1.0604722870720757 -0.25253983255137097 -0.090435663776500433
leaf_weight=35 21 23 39 24 22 28 34 20 26 27 22 33
leaf_count=35 21 23 39 24 22 28 34 20 26 27 22 33
internal_value=-2.11192e-10 0.676545 -0.392638 0.44624 -0.757144 0.779101 -0.156781 0.131535 -0.224514 -0.95191 -0.165282 -0.129732
internal_weight=354 130 224 107 88 52 136 55 102 49 76 54
internal_count=354 130 224 107 88 52 136 55 102 49 76 54
is_linear=0
shrinkage=0.1


Tree=3
num_leaves=14
num_cat=0
split_feature=5 12 5 12 12 5 4 0 0 10 5 6 10
split_gain=7738.47 2750.52 1140.55 679.602 514.085 221.045 167.173 147.219 58.5578 92.176 70.4246 25.1819 9.38469
threshold=0.85677030554991418 0.28354983470806 1.5473910639978323 -0.94773283743959202 1.0009180696528619 0.30886855464415713 1.0095505243677161 -0.33744591409348607 -0.07209673780438515 0.7197516008588819 -0.61288737699399209 -0.83796069008257723 -0.14552971239936643
decision_type=2 2 2 2 2 2 2 2 2 2 2 2 2
left_child=1 3 -2 -1 7 8 -6 -3 9 10 -5 -12 -13
right_child=2 4 -4 5 6 -7 -8 -9 -10 -11 11 12 -14
leaf_value=0.53586847730304887 0.68528570593931737 -0.22808361693664836 1.5731697870337447 -0.24136781553653153 -0.61784464473074141 0.21378452957228378 -0.9782809195979949 -0.54294466719482892 0.056423921547830103 -0.32371277213096622 0.044303902383893728 -0.035187448348317829 -0.12972737130309855
leaf_weight=23 39 27 23 22 22 27 31 33 20 20 25 21 21
leaf_count=23 39 27 23 22 22 27 31 33 20 20 25 21 21
internal_value=-1.78109e-10 -0.215442 1.01466 0.0284116 -0.601723 -0.0464058 -0.828666 -0.401257 -0.100864 -0.129724 -0.0861315 -0.0351584 -0.0824574
internal_weight=354 292 62 179 113 156 53 60 129 109 89 67 42
internal_count=354 292 62 179 113 156 53 60 129 109 89 67 42
is_linear=0
shrinkage=0.1


Tree=4
num_leaves=13
num_cat=0
split_feature=12 12 12 5 0 9 12 5 7 0 5 6
split_gain=6294.27 2323.44 1268.03 846.558 307.196 148.443 104.293 91.5753 49.9878 45.9925 34.7179 30.0265
threshold=-0.49506573727324538 -1.1188029857139654 0.5447310075878653 0.66879892976267874 0.27772720881581031 -0.77602262311667636 0.28354983470806 0.30886855464415713 -0.91248210831964471 -0.40836348841344045 -0.52168645022314786 0.45790793927123807
decision_type=2 2 2 2 2 2 2 2 2 2 2 2
left_child=1 -1 5 7 -4 -2 10 9 -6 -3 -7 -12
right_child=2 3 4 -5 8 6 -8 -9 -10 -11 11 -13
leaf_value=1.3253572362909716 0.05849934951402247 -0.086051400886340584 -0.40758477648099262 0.7016146278059161 -0.86757662296295168 -0.22788613369831673 -0.37062778595136481 0.2694794440553302 -0.66207457780838019 0.1234765875991434 -0.020540610340734324 -0.17060674584160251
leaf_weight=30 32 22 39 37 29 26 24 21 20 20 30 24
leaf_count=30 32 22 39 37 29 26 24 21 20 20 30 24
internal_value=8.62657e-10 0.553507 -0.321232 0.321952 -0.617012 -0.129845 -0.187797 0.0989757 -0.783698 0.0137238 -0.132948 -0.0872367
internal_weight=354 130 224 100 88 136 104 63 49 42 80 54
internal_count=354 130 224 100 88 136 104 63 49 42 80 54
is_linear=0
shrinkage=0.1


Tree=5
num_leaves=13
num_cat=0
split_feature=5 12 12 5 7 5 0 0 12 0 10 11
split_gain=5156.01 2034.32 849.837 547.565 405.382 182.629 108.09 87.3468 69.3878 67.3791 32.1741 18.1697
threshold=0.95980646709254747 0.34831713364321398 -1.0167240906531252 1.5473910639978323 -0.79274740000407606 0.30886855464415713 -0.35254632796643787 0.92296387750749365 -0.40706668980700395 -0.40682267900712904 -0.1899031130792764 0.33073223401835561
decision_type=2 2 2 2 2 2 2 2 2 2 2 2
left_child=1 2 -1 -2 7 8 -6 -3 9 -4 -10 -12
right_child=3 4 5 -5 6 -7 -8 -9 10 -11 11 -13
leaf_value=0.60478491225968245 0.63560578514028476 -0.58926194090592243 -0.094292476901720323 1.299588628437208 -0.13244023336016614 0.17047626114252845 -0.44248426773331384 -0.83963979482650763 -0.05196873449853489 0.14090845230079832 -0.24494301883073955 -0.13702071438042016
leaf_weight=23 27 38 29 23 23 33 22 22 28 21 26 39
leaf_count=23 27 38 29 23 23 33 22 22 28 21 26 39
internal_value=1.43013e-09 -0.154776 0.0331302 0.941038 -0.510903 -0.0415747 -0.284017 -0.681067 -0.0905095 0.00449191 -0.141585 -0.18019
internal_weight=354 304 199 50 105 176 45 60 143 50 93 65
internal_count=354 304 199 50 105 176 45 60 143 50 93 65
is_linear=0
shrinkage=0.1


Tree=6
num_leaves=15
num_cat=0
split_feature=5 12 12 5 7 5 6 0 0 10 5 12 7 4
split_gain=4176.37 1647.93 667.905 443.527 368.585 117.48 101.781 89.7886 56.7906 70.5225 48.512 30.3496 20.8634 9.82369
threshold=0.95980646709254747 0.28354983470806 -0.99419633450176759 1.5473910639978323 -0.79274740000407606 0.30886855464415713 0.59183849593629734 0.92296387750749365 -0.07209673780438515 0.7197516008588819 -0.61288737699399209 1.1987399283569726 0.92350503883943946 -0.56813103558678468
decision_type=2 2 2 2 2 2 2 2 2 2 2 2 2 2
left_child=1 2 -1 -2 7 8 -6 11 9 10 -4 -3 13 -12
right_child=3 4 5 -5 6 -7 -8 -9 -10 -11 12 -13 -14 -15
leaf_value=0.50278713013286946 0.57204519907633467 -0.42279527246952053 -0.19437636424448679 1.1696298060209855 -0.070740599043312521 0.14062773795618164 -0.35587170066372042 -0.75786403832228288 0.079258857108652603 -0.26881419406050727 0.066604913435876364 -0.59700677275657654 -0.10640640280076437 -0.025862657803076283
leaf_weight=27 27 20 22 23 21 31 31 23 20 21 20 20 21 27
leaf_count=27 27 20 22 23 21 31 31 23 20 21 20 20 21 27
internal_value=9.04225e-10 -0.139298 0.0423163 0.846934 -0.437778 -0.0344288 -0.240723 -0.600427 -0.0758544 -0.103803 -0.0653001 -0.509901 -0.0235401 0.0134852
internal_weight=354 304 189 50 115 162 52 63 131 111 90 40 68 47
internal_count=354 304 189 50 115 162 52 63 131 111 90 40 68 47
is_linear=0
shrinkage=0.1


Tree=7
num_leaves=13
num_cat=0
split_feature=12 12 12 10 10 5 2 4 11 12 0 5
split_gain=3423.94 1379.14 714.929 473.895 214.427 115.961 112.915 101.327 99.7508 85.2192 43.4313 16.2827
threshold=-0.49506573727324538 -1.1188029857139654 1.0009180696528619 -1.3436115307569398 0.60881809915910656 -0.25226081159477692 -1.1232828262613617 1.0095505243677161 0.3878162264342076 0.28354983470806 0.27772720881581031 -0.65326641327421286
decision_type=2 2 2 2 2 2 2 2 2 2 2 2
left_child=1 -1 4 -3 5 11 -5 -4 -8 -6 -11 -2
right_child=2 3 7 6 9 -7 8 -9 -10 10 -12 -13
leaf_value=1.0029027887185415 -0.18203982483773007 0.63973801312121481 -0.39368975758552555 0.31245062890506925 -0.14170005089930587 0.1300978856533766 0.20805279849605129 -0.67430364931783371 -0.063685160726308823 -0.25466886336604755 -0.4515900950623854 -0.072319188243464422
leaf_weight=30 21 22 22 21 37 30 22 31 35 24 21 38
leaf_count=30 21 22 22 21 37 30 22 31 35 24 21 38
internal_value=2.25247e-09 0.408238 -0.236924 0.229839 -0.137464 -0.0299779 0.114226 -0.557822 0.0411962 -0.254126 -0.346565 -0.111372
internal_weight=354 130 224 100 171 89 78 53 57 82 45 59
internal_count=354 130 224 100 171 89 78 53 57 82 45 59
is_linear=0
shrinkage=0.1


Tree=8
num_leaves=14
num_cat=0
split_feature=5 12 12 12 0 5 7 5 0 12 10 11 6
split_gain=2832.58 1072.08 467.914 319.504 241.98 106.516 50.7477 42.3155 29.8462 61.9011 22.391 15.3943 11.5252
threshold=0.95980646709254747 0.3722528745540315 -0.99419633450176759 -1.1596345437383018 -0.31686084493249572 0.30886855464415713 -0.81966651322293815 -0.89554063095553893 -0.41135238168930194 -0.40706668980700395 -0.1899031130792764 0.26633273500632487 0.28235031769676883
decision_type=2 2 2 2 2 2 2 2 2 2 2 2 2
left_child=1 2 -1 -2 -3 8 7 -6 -4 -10 -11 -12 -13
right_child=3 4 5 -5 6 -7 -8 -9 9 10 11 12 -14
leaf_value=0.40620063151474356 1.0070934689044952 -0.14589436342639309 -0.18231545596424004 0.49109619835236429 -0.43721804073588411 0.12386616261210293 -0.35863340535889504 -0.62565766802200917 0.066437630131840716 -0.021172327605577617 -0.20396487444639205 -0.051433971663936977 -0.15421900774817915
leaf_weight=27 20 31 23 30 22 32 23 26 30 26 20 24 20
leaf_count=27 20 31 23 30 22 32 23 26 30 26 20 24 20
internal_value=-9.48818e-10 -0.11472 0.0187249 0.697495 -0.378992 -0.041057 -0.480767 -0.53929 -0.0779629 -0.057962 -0.0994286 -0.13122 -0.0981544
internal_weight=354 304 202 50 102 175 71 48 143 120 90 64 44
internal_count=354 304 202 50 102 175 71 48 143 120 90 64 44
is_linear=0
shrinkage=0.1


Tree=9
num_leaves=14
num_cat=0
split_feature=5 12 12 5 0 10 12 7 7 5 7 9 5
split_gain=2294.39 868.383 382.534 277.169 196.004 87.5909 90.6725 109.833 41.1056 34.2755 31.5215 61.0854 12.8977
threshold=0.95980646709254747 0.3722528745540315 -1.0167240906531252 1.5473910639978323 -0.31686084493249572 1.0081787052782973 -0.46549805732458821 0.036257661504188167 -0.81966651322293815 -0.89554063095553893 0.48695850985883743 -0.63169372913451127 -0.56972357959099695
decision_type=2 2 2 2 2 2 2 2 2 2 2 2 2
left_child=1 2 -1 -2 -3 6 7 -4 9 -6 11 -8 -13
right_child=3 4 5 -5 8 -7 10 -9 -10 -11 -12 12 -14
leaf_value=0.40075560289880507 0.41044076824629755 -0.13130492464068436 0.28315765641629698 0.88284258039101315 -0.39349624243649572 -0.22435242493326465 0.11496909590704102 -0.0091192787513136864 -0.32277006126292379 -0.56309189017002403 -0.15575578774291057 -0.14975069127976895 -0.048546380023745929
leaf_weight=23 27 31 20 23 22 21 21 36 23 26 27 20 34
leaf_count=23 27 31 20 23 22 21 21 36 23 26 27 20 34
internal_value=1.62613e-09 -0.103248 0.0168524 0.627746 -0.341093 -0.0324759 -0.00697333 0.0952653 -0.43269 -0.485361 -0.0631044 -0.0297499 -0.0860295
internal_weight=354 304 202 50 102 179 158 56 71 48 102 75 54
internal_count=354 304 202 50 102 179 158 56 71 48 102 75 54
is_linear=0
shrinkage=0.1


Tree=10
num_leaves=15
num_cat=0
split_feature=12 4 7 5 10 0 12 7 10 7 12 0 2 7
split_gain=1882.65 752.595 568.603 564.688 174.21 109.542 107.409 111.976 40.7259 33.3943 28.1455 26.5073 23.0367 22.6707
threshold=-1.0167240906531252 0.96239156469516296 0.2014227892416158 1.009932167302477 1.1856723079979381 0.43523839219324051 -0.36271516988401792 0.35497713586189666 0.60881809915910656 0.075352786563952889 0.28354983470806 0.92296387750749365 -0.84834516672816085 -0.56983453332294765
decision_type=2 2 2 2 2 2 2 2 2 2 2 2 2 2
left_child=2 3 -1 4 6 -3 7 -2 9 13 -10 -7 -9 -8
right_child=1 5 -4 -5 -6 11 8 12 10 -11 -12 -13 -14 -15
leaf_value=0.96870056277229688 0.21291262875311079 -0.23580230986078582 0.28034316450357438 0.47563371450047609 -0.2889830277434417 -0.40718088597059254 -0.051672419213822908 -0.10600234588438816 -0.077796857953071605 -0.11931923392774731 -0.24355396245207106 -0.56999154359102255 0.042286556717008351 0.097092294525355116
leaf_weight=21 32 30 28 22 28 20 21 22 20 29 21 20 20 20
leaf_count=21 32 30 28 22 28 20 21 22 20 29 21 20 20 20
internal_value=1.61008e-10 -0.0924338 0.575353 -0.00670129 -0.0565199 -0.38025 -0.0213363 0.0719849 -0.0835505 -0.0371933 -0.162697 -0.488586 -0.0353886 0.0208957
internal_weight=354 305 49 235 213 70 185 74 111 70 41 40 42 41
internal_count=354 305 49 235 213 70 185 74 111 70 41 40 42 41
is_linear=0
shrinkage=0.1


Tree=11
num_leaves=14
num_cat=0
split_feature=12 2 4 9 10 0 6 4 7 6 0 7 2
split_gain=1565.28 772.409 394.136 338.183 121.454 88.7293 73.6845 66.306 42.846 33.4336 21.4709 12.3102 7.64833
threshold=-1.1188029857139654 -0.99772074552966372 0.96239156469516296 -0.85720762598164424 -0.25646321409914097 0.43523839219324051 -0.38187284846642994 0.46507889905733085 0.81549886804180016 0.42533023629865618 0.92296387750749365 -0.60038054368590832 -0.45145353223141438
decision_type=2 2 2 2 2 2 2 2 2 2 2 2 2
left_child=-1 3 4 -2 8 -4 12 9 -3 -8 -7 -11 -6
right_child=1 2 5 -5 6 10 7 -9 -10 11 -12 -13 -14
leaf_value=0.69104424109061569 0.54729139481981592 0.15524128805156109 -0.21222207759817444 0.067806928859729526 -0.042536766524426645 -0.36646279275417326 -0.13246919161281981 -0.011701345314150272 -0.032759632508863101 -0.21311381516002476 -0.51299238905310629 -0.32273649871349336 0.040430091703310612
leaf_weight=30 24 27 30 38 25 20 34 23 22 21 20 20 20
leaf_count=30 24 27 30 38 25 20 34 23 22 21 20 20 20
internal_value=6.90224e-11 -0.0639856 -0.139095 0.253414 -0.0650376 -0.342225 -0.111595 -0.160237 0.0708327 -0.205788 -0.439728 -0.266588 -0.00566261
internal_weight=354 324 262 62 192 70 143 98 49 75 40 41 45
internal_count=354 324 262 62 192 70 143 98 49 75 40 41 45
is_linear=0
shrinkage=0.1


Tree=12
num_leaves=13
num_cat=0
split_feature=12 2 12 9 4 10 10 10 12 4 4 10
split_gain=1267.87 625.652 328.422 273.929 105.536 85.8609 43.1499 45.86 46.0034 40.0765 38.2952 11.8976
threshold=-1.1188029857139654 -0.99772074552966372 1.0009180696528619 -0.85720762598164424 0.96239156469516296 -0.25646321409914097 1.1856723079979381 0.076337291000184271 -0.39509881935159491 1.0095505243677161 -0.9539770692713091 0.60881809915910656
decision_type=2 2 2 2 2 2 2 2 2 2 2 2
left_child=-1 3 4 -2 5 10 7 -7 -9 -4 -3 -10
right_child=1 2 9 -5 -6 6 -8 8 11 -11 -12 -13
leaf_value=0.6219398265083631 0.49256225302815437 -0.019308823418049587 -0.24429403258995577 0.061026232846473398 -0.227246370316217 -0.17189066579937937 -0.21010508372149031 0.092748937942087661 -0.0087062883944738472 -0.42077200451204855 0.16386838096380235 -0.1039157989195415
leaf_weight=30 24 21 22 38 35 25 21 26 21 31 25 35
leaf_count=30 24 21 22 38 35 25 21 26 21 31 25 35
internal_value=2.69432e-10 -0.057587 -0.125186 0.228072 -0.0688052 -0.0369348 -0.079046 -0.0533241 -0.0171758 -0.347517 0.080244 -0.0682122
internal_weight=354 324 262 62 209 174 128 107 82 53 46 56
internal_count=354 324 262 62 209 174 128 107 82 53 46 56
is_linear=0
shrinkage=0.1


Tree=13
num_leaves=13
num_cat=0
split_feature=5 12 10 7 5 7 2 0 7 4 9 0
split_gain=1040.89 381.33 182.402 180.714 119.18 106.832 46.538 40.5456 28.0257 30.2923 28.5728 22.2116
threshold=0.95980646709254747 0.3722528745540315 -1.3436115307569398 -0.79274740000407606 0.30886855464415713 -0.79274740000407606 -0.93205322054929285 -0.35254632796643787 1.1487730335362163 -0.38378237504862289 -0.58959780172304654 0.87705269453318946
decision_type=2 2 2 2 2 2 2 2 2 2 2 2
left_child=1 3 -2 -1 8 11 -6 -7 9 -5 -11 -3
right_child=2 5 -4 4 6 7 -8 -9 -10 10 -12 -13
leaf_value=0.28059292090210047 0.64726623885688328 -0.26371487038476127 0.26028338624485609 0.02359259789319415 0.2179869139736349 -0.012403999946334145 0.022053502003351849 -0.20666486422220864 -0.15414367135381327 -0.18127490092407575 -0.038747674303177077 -0.38861888498067859
leaf_weight=22 21 35 29 38 22 22 27 21 32 22 39 24
leaf_count=22 21 35 29 38 22 22 27 21 32 22 39 24
internal_value=1.14811e-09 -0.0695421 0.422816 0.0100441 -0.0230229 -0.227154 0.110024 -0.107276 -0.0727884 -0.0464918 -0.0901509 -0.314523
internal_weight=354 304 50 202 180 102 49 43 131 99 61 59
internal_count=354 304 50 202 180 102 49 43 131 99 61 59
is_linear=0
shrinkage=0.1


Tree=14
num_leaves=13
num_cat=0
split_feature=12 12 10 12 11 2 11 12 4 10 6 2
split_gain=906.459 414.626 228.167 151.368 55.9063 43.9612 74.8865 44.8503 29.084 21.1823 35.5156 24.882
threshold=-1.1188029857139654 -0.33525946707455073 -1.3436115307569398 1.0009180696528619 0.077627226273397895 -1.1586422627892536 0.40780426414187704 -0.60418455613138489 1.0095505243677161 -0.1899031130792764 0.82893177868119927 -0.12022942271503877
decision_type=2 2 2 2 2 2 2 2 2 2 2 2
left_child=-1 2 -2 4 -3 -4 7 -7 -5 -6 11 -11
right_child=1 3 5 8 9 6 -8 -9 -10 10 -12 -13
leaf_value=0.52587732901175821 0.36921987701207404 -0.19244114289412628 0.15267467478459532 -0.19652712528847838 0.028745077034601798 -0.0085835828230931208 -0.1145462416785045 0.19060301002115013 -0.34686652234485077 -0.093588842749595655 -0.1769309358050426 0.040067509332528485
leaf_weight=30 24 37 22 22 26 26 36 20 31 30 24 26
leaf_count=30 24 37 22 22 26 26 36 20 31 30 24 26
internal_value=1.06813e-09 -0.0486923 0.0912917 -0.140111 -0.0866098 0.0271545 -0.00652168 0.0780193 -0.284461 -0.0496687 -0.0751532 -0.0315341
internal_weight=354 324 128 196 143 104 82 46 53 106 80 56
internal_count=354 324 128 196 143 104 82 46 53 106 80 56
is_linear=0
shrinkage=0.1


Tree=15
num_leaves=15
num_cat=0
split_feature=12 4 4 5 10 4 12 7 4 7 2 9 0 12
split_gain=740.118 391.271 289.751 235.122 81.43 69.0157 48.1164 72.0676 31.5447 47.4435 28.7698 28.6247 17.5348 13.6972
threshold=-1.0167240906531252 -0.87252068438235397 0.96239156469516296 1.009932167302477 1.1856723079979381 1.472565764789145 -0.41340262122457316 0.036257661504188167 -0.67959766754009199 -0.46507843918690334 -0.84834516672816085 0.1440740760196258 0.75140357108298905 0.047712387498532592
decision_type=2 2 2 2 2 2 2 2 2 2 2 2 2 2
left_child=1 -1 3 4 6 12 7 -2 -8 11 -9 -10 -4 -11
right_child=2 -3 5 -5 -6 -7 8 10 9 13 -12 -13 -14 -15
leaf_value=0.12607584792783419 0.21494357084855437 0.70101635977625854 -0.2525489794171375 0.30647671331058851 -0.19583772837317415 -0.10737109455065086 -0.14966123043745758 -0.094740932883525447 -0.015290681783247878 -0.0027233674952929672 0.068896057563168675 -0.16229822658575499 -0.37893620466902145 0.10886528779837219
leaf_weight=29 20 20 23 22 28 26 25 22 27 22 21 26 21 22
leaf_count=29 20 20 23 22 28 26 25 22 27 22 21 26 21 22
internal_value=2.53022e-10 0.360745 -0.0579558 -0.00475996 -0.0369065 -0.236542 -0.012852 0.0581173 -0.0495001 -0.0236854 -0.0148252 -0.0874076 -0.31287 0.053071
internal_weight=354 49 305 235 213 70 185 63 122 97 43 53 44 44
internal_count=354 49 305 235 213 70 185 63 122 97 43 53 44 44
is_linear=0
shrinkage=0.1


Tree=16
num_leaves=15
num_cat=0
split_feature=12 2 9 4 10 4 4 6 5 5 6 5 0 0
split_gain=628.176 296.573 226.662 159.906 62.5041 55.9027 45.2703 63.1327 39.7315 39.6208 18.852 19.0049 18.2077 14.2032
threshold=-1.1835702846491192 -0.99772074552966372 -0.85720762598164424 0.96239156469516296 -0.25646321409914097 1.472565764789145 0.52938657133808509 0.29501942440832857 0.55949705569380448 0.23228762376787568 -0.89587660647827849 -0.43048552345230373 -0.39343889179200986 0.75140357108298905
decision_type=2 2 2 2 2 2 2 2 2 2 2 2 2 2
left_child=-1 2 -2 4 9 13 7 10 -4 -3 -6 -12 -9 -5
right_child=1 3 8 5 6 -7 -8 12 -10 -11 11 -13 -14 -15
leaf_value=0.49395828296740851 0.39099879464507103 -0.012324364508892741 -0.091905130892992015 -0.22729407678479735 0.031280778694365706 -0.096633985294745525 0.069060507528483875 -0.10686960039394243 0.10503517786661785 0.16820627394132318 -0.13367823772132398 -0.0016889131069183349 -0.22827623814344405 -0.3410425821940104
leaf_weight=24 25 31 20 23 28 26 20 21 21 20 24 20 30 21
leaf_count=24 25 31 20 23 28 26 20 21 21 20 24 20 30 21
internal_value=1.63258e-09 -0.0359242 0.153676 -0.0833243 -0.0365745 -0.212888 -0.0704723 -0.0931605 0.00896673 0.058472 -0.0328638 -0.0736831 -0.178285 -0.281583
internal_weight=354 330 66 264 194 70 143 123 41 51 72 44 51 44
internal_count=354 330 66 264 194 70 143 123 41 51 72 44 51 44
is_linear=0
shrinkage=0.1


Tree=17
num_leaves=14
num_cat=0
split_feature=12 2 9 12 4 10 4 5 6 5 4 12 7
split_gain=508.822 240.224 183.597 131.595 51.806 45.4871 35.3358 32.1825 30.0403 25.2859 17.2428 14.2167 4.05621
threshold=-1.1835702846491192 -0.99772074552966372 -0.85720762598164424 1.0009180696528619 0.96239156469516296 -0.25646321409914097 0.42649429568887837 0.55949705569380448 -0.38187284846642994 0.23228762376787568 1.0095505243677161 -0.054366507562307716 0.35497713586189666
decision_type=2 2 2 2 2 2 2 2 2 2 2 2 2
left_child=-1 2 -2 4 5 9 8 -4 12 -3 -5 -10 -7
right_child=1 3 7 10 -6 6 -8 -9 11 -11 -12 -13 -14
leaf_value=0.44456244918207333 0.35189891648292543 0.0041659509546921724 -0.08271461576223374 -0.14815554036335513 -0.15072178364864419 0.02136347928772802 0.069957806382860463 0.094531661005956794 -0.16712833520281933 0.15138564851135017 -0.26391315445784602 -0.072448639601602083 -0.040213065035641198
leaf_weight=24 25 28 20 22 35 23 21 21 29 20 31 35 20
leaf_count=24 25 28 20 22 35 23 21 21 29 20 31 35 20
internal_value=8.5141e-10 -0.0323318 0.138308 -0.0749918 -0.0396072 -0.0175105 -0.0486423 0.00807006 -0.0719189 0.0655075 -0.215863 -0.11535 -0.00727677
internal_weight=354 330 66 264 211 176 128 41 107 48 53 64 43
internal_count=354 330 66 264 211 176 128 41 107 48 53 64 43
is_linear=0
shrinkage=0.1


Tree=18
num_leaves=14
num_cat=0
split_feature=12 12 6 10 5 12 11 9 4 5 8 5 8
split_gain=412.146 203.392 137.396 107.627 89.8554 73.0282 38.5593 30.4552 13.9667 11.4246 19.282 21.0069 5.66818
threshold=-1.1835702846491192 -0.33525946707455073 0.57012002728790934 0.38695109575955577 0.60405323365818575 1.0009180696528619 -0.62679269628306267 -0.65574854479820555 1.0095505243677161 -0.13390846387688721 1.0000000180025095e-35 -0.70408830376483622 -0.57232162077903037
decision_type=2 2 2 2 2 2 2 2 2 2 2 2 2
left_child=-1 2 3 4 7 6 -3 -2 -7 10 11 -8 -13
right_child=1 5 -4 -5 -6 8 9 -9 -10 -11 -12 12 -14
leaf_value=0.40010619647800927 0.060366120288769413 -0.18562677294015884 0.30760286793112757 -0.17526078210635621 0.19421060813797847 -0.13333998829634353 -0.12620215508199872 -0.087502975661594137 -0.23752183957446005 -0.087306111585348845 0.06889086630195379 -0.0450031633273201 0.022826011246070269
leaf_weight=24 30 20 20 22 36 22 21 26 31 32 20 22 28
leaf_count=24 30 20 20 22 36 22 21 26 31 32 20 22 28
internal_value=-1.60235e-11 -0.0290986 0.0658493 0.0234364 0.070951 -0.094012 -0.0568511 -0.00828739 -0.194277 -0.0359119 -0.0178392 -0.0422702 -0.00701883
internal_weight=354 330 134 114 92 196 143 56 53 123 91 71 50
internal_count=354 330 134 114 92 196 143 56 53 123 91 71 50
is_linear=0
shrinkage=0.1


Tree=19
num_leaves=14
num_cat=0
split_feature=5 3 12 5 10 10 0 2 12 7 4 7 0
split_gain=347.528 184.483 120.964 55.7462 45.0407 40.2856 32.8259 28.6398 21.8459 20.105 20.8108 10.0052 9.30592
threshold=1.5473910639978323 1.0000000180025095e-35 0.3722528745540315 0.30886855464415713 0.7197516008588819 -0.78894402225806315 0.027112361163616819 -0.90030188978955317 1.5803037981705963 1.1487730335362163 -0.38378237504862289 -0.61608924755028371 0.27772720881581031
decision_type=2 2 2 2 2 2 2 2 2 2 2 2 2
left_child=1 2 3 6 -4 -5 9 -7 12 10 -1 -12 -6
right_child=-2 -3 4 5 8 7 -8 -9 -10 -11 11 -13 -14
leaf_value=0.023331631478425621 0.37587505345759187 0.26827601872384549 -0.020267975196242335 0.16599090489800331 -0.088326338268816473 0.084474324931701039 0.079859710629098121 -0.077553859949111945 -0.26479831721633673 -0.1264160496648401 -0.0255291679793078 -0.11384783310751463 -0.17429141352288702
leaf_weight=37 23 20 25 27 20 24 20 20 20 32 23 29 34
leaf_count=37 23 20 25 27 20 24 20 20 20 32 23 29 34
internal_value=1.42954e-10 -0.0261182 -0.0450503 -0.00243182 -0.136314 0.0698318 -0.0388199 0.0108251 -0.175519 -0.0584364 -0.0339942 -0.0747838 -0.142452
internal_weight=354 331 311 212 99 71 141 44 74 121 89 52 54
internal_count=354 331 311 212 99 71 141 44 74 121 89 52 54
is_linear=0
shrinkage=0.1


Tree=20
num_leaves=15
num_cat=0
split_feature=12 2 7 4 10 4 12 11 5 5 11 9 2 0
split_gain=290.14 140.19 143.253 80.7186 42.8359 34.5099 32.7459 41.6748 29.5348 16.6024 12.1073 9.40957 16.3338 3.33327
threshold=-1.1835702846491192 -0.99772074552966372 -0.20111569119302197 0.96239156469516296 1.1856723079979381 1.472565764789145 -0.41340262122457316 0.3878162264342076 0.60405323365818575 -0.79041589857082573 0.21276248985320451 0.1440740760196258 -0.59433452065024317 -0.39239301999100834
decision_type=2 2 2 2 2 2 2 2 2 2 2 2 2 2
left_child=-1 2 -2 4 6 10 7 -3 -4 -8 -5 12 -11 -14
right_child=1 3 8 5 -6 -7 9 -9 -10 11 -12 -13 13 -15
leaf_value=0.33570173320670926 0.31429163745858452 0.16896970868110658 -0.083976142658364214 -0.25792750957466309 -0.14323461795082459 -0.0577160467608617 -0.10958937450001638 -0.011235415709741188 0.080052497594252883 -0.060191435962915422 -0.15290660255629085 -0.069602279023577782 0.071579896006733187 0.014536837541631291
leaf_weight=24 22 21 21 21 26 26 24 33 23 25 23 24 20 21
leaf_count=24 22 21 21 21 26 26 24 33 23 25 23 24 20 21
internal_value=8.93438e-10 -0.0244147 0.105941 -0.0570037 -0.0237888 -0.149056 -0.00530309 0.0588444 0.0017661 -0.0356887 -0.20303 -0.0159819 0.00351645 0.0423627
internal_weight=354 330 66 264 194 70 168 54 44 114 44 90 66 41
internal_count=354 330 66 264 194 70 168 54 44 114 44 90 66 41
is_linear=0
shrinkage=0.1


Tree=21
num_leaves=15
num_cat=0
split_feature=5 3 12 10 9 5 12 0 4 4 10 5 5 5
split_gain=236.885 143.479 80.0762 38.3282 26.5729 17.0509 15.8657 29.4983 16.8179 16.6209 14.8563 12.1623 18.2232 10.3076
threshold=1.5473910639978323 1.0000000180025095e-35 1.0009180696528619 -1.2104913287172094 -1.0737009669548916 0.55949705569380448 -0.65627999223139988 -0.40809855830840835 -0.19085935820636049 -0.58956692634703611 -0.34521001545896174 -0.21118558503386237 -0.63586165625687607 -0.96933680070904626
decision_type=2 2 2 2 2 2 2 2 2 2 2 2 2 2
left_child=1 2 3 5 -5 -1 10 -8 9 -9 -6 12 -10 -4
right_child=-2 -3 13 4 6 -7 7 8 11 -11 -12 -13 -14 -15
leaf_value=0.0089682694710791124 0.31032516373240432 0.23806081815622748 -0.10121438870714471 0.072105169330130933 0.071086708903312687 0.1395473918924108 -0.16473594670710356 -0.056008325449656698 -0.10181819541113718 0.069949513168434022 -0.038138041340491993 -0.11238595513360841 0.025738583091879264 -0.19198674954763006
leaf_weight=20 23 20 22 22 20 20 23 20 21 22 33 35 24 29
leaf_count=20 23 20 22 22 20 20 23 20 21 22 33 35 24 29
internal_value=2.09712e-10 -0.0215634 -0.0382595 -0.015786 -0.0321576 0.0742578 -0.0437424 -0.0608563 -0.0412725 0.00996959 0.00307885 -0.0681746 -0.0337879 -0.15283
internal_weight=354 331 311 260 220 40 198 145 122 42 53 80 45 51
internal_count=354 331 311 260 220 40 198 145 122 42 53 80 45 51
is_linear=0
shrinkage=0.1


Tree=22
num_leaves=14
num_cat=0
split_feature=12 4 5 7 10 4 9 5 0 10 2 5 8
split_gain=204.908 99.3086 143.542 37.31 35.6003 31.1137 50.2331 25.6372 27.5567 19.8335 15.2491 10.2133 7.94926
threshold=-1.1835702846491192 1.0095505243677161 1.1352464178273007 -0.8695245733142164 1.1856723079979381 0.46507889905733085 1.0000000180025095e-35 -0.25226081159477692 -0.41088754977774578 -0.1899031130792764 -0.12022942271503877 -0.82104827092133859 -0.57232162077903037
decision_type=2 2 2 2 2 2 2 2 2 2 2 2 2
left_child=-1 2 4 11 5 6 7 10 -9 -10 12 -3 -2
right_child=1 3 -4 -5 -6 -7 -8 8 9 -11 -12 -13 -14
leaf_value=0.2821169803850353 -0.11379941875453702 -0.13810519103892147 0.24538327921991765 -0.032258283657332264 -0.12207275897796666 0.11343011260032654 -0.1336607471977671 -0.024605183656278409 0.14112697908033928 0.021797992303394353 0.034438782990910112 -0.23795567658685504 -0.032821200299076737
leaf_weight=24 22 20 23 24 28 21 30 38 30 26 20 21 27
leaf_count=24 22 20 23 24 28 21 30 38 30 26 20 21 27
internal_value=1.249e-10 -0.0205176 0.00665119 -0.131283 -0.0160382 -0.00216455 -0.0147422 0.00714464 0.041123 0.0857242 -0.0391447 -0.189248 -0.0691788
internal_weight=354 330 265 65 242 214 193 163 94 56 69 41 49
internal_count=354 330 265 65 242 214 193 163 94 56 69 41 49
is_linear=0
shrinkage=0.1


Tree=23
num_leaves=14
num_cat=0
split_feature=12 2 9 4 4 10 7 2 9 11 6 0 5
split_gain=165.976 83.5534 100.651 48.2938 28.2363 33.2967 26.8829 25.2511 26.0797 14.8127 14.2638 9.34394 7.59484
threshold=-1.1835702846491192 -0.99772074552966372 -0.85720762598164424 0.96239156469516296 0.52938657133808509 0.60881809915910656 -0.8695245733142164 -0.12022942271503877 -0.61665946934470239 0.23528503378317245 0.97191169728308691 -0.40516024259805289 0.55949705569380448
decision_type=2 2 2 2 2 2 2 2 2 2 2 2 2
left_child=-1 2 -2 4 5 7 10 8 11 -7 -5 -3 -4
right_child=1 3 12 6 -6 9 -8 -9 -10 -11 -12 -13 -14
leaf_value=0.25390528614322344 0.24031704747676852 -0.02906133798153504 -0.058362625669687987 -0.22308087483048442 0.094595329407602555 -0.16336913364939393 -0.02903245606770118 0.073510239899835808 0.036649702233927592 -0.056033190101799038 -0.11075109703323016 -0.11579829130183768 0.027742031234360878
leaf_weight=24 25 23 20 20 20 20 24 33 35 36 26 27 21
leaf_count=24 25 23 20 20 20 20 24 33 35 36 26 27 21
internal_value=4.50402e-10 -0.0184658 0.0821706 -0.0436249 -0.0179333 -0.0308676 -0.114827 -0.000732094 -0.0295556 -0.0943675 -0.15959 -0.0758993 -0.0142602
internal_weight=354 330 66 264 194 174 70 118 85 56 46 50 41
internal_count=354 330 66 264 194 174 70 118 85 56 46 50 41
is_linear=0
shrinkage=0.1


Tree=24
num_leaves=15
num_cat=0
split_feature=12 4 5 12 11 10 2 10 4 6 5 12 0 6
split_gain=140.643 471.8 39.1615 34.08 33.0668 27.1366 17.7761 21.7298 12.7321 18.3914 12.0171 7.28258 11.7055 5.49129
threshold=-0.41340262122457316 0.14354053765356012 1.1352464178273007 1.9956593022112565 -2.4118915105789744 0.34257769507964581 -1.1124585089569048 -0.34521001545896174 -0.67959766754009199 0.64794453994463319 -0.56972357959099695 0.60175439034598954 -0.23964696582090475 1.0551658271019078
decision_type=2 2 2 2 2 2 2 2 2 2 2 2 2 2
left_child=1 2 5 4 -2 6 -1 -8 -6 10 -10 12 -11 -13
right_child=3 -3 -4 -5 8 -7 7 -9 9 11 -12 13 -14 -15
leaf_value=-0.061544572534384556 -0.16034686505794526 0.51455599963665011 0.1072290105400262 -0.17581349309533834 -0.090468736886978152 -0.1211714945267886 0.11474228134112699 -0.027471257610754536 -0.028326851251008717 -0.065953707844018938 0.063254885610781228 -0.039896828509294074 0.042238331893458964 -0.10959388345479966
leaf_weight=27 20 21 27 20 25 24 21 22 23 20 38 26 20 20
leaf_count=27 20 21 27 20 25 24 21 22 23 20 38 26 20 20
internal_value=-1.39961e-10 0.0770159 0.00107921 -0.0515861 -0.0386458 -0.0294106 0.00205024 0.0419819 -0.0244945 -0.0132744 0.0287241 -0.043064 -0.0118577 -0.0701999
internal_weight=354 142 121 212 192 94 70 43 172 147 61 86 40 46
internal_count=354 142 121 212 192 94 70 43 172 147 61 86 40 46
is_linear=0
shrinkage=0.1


Tree=25
num_leaves=13
num_cat=0
split_feature=7 5 11 10 9 12 5 6 0 9 0 0
split_gain=116.602 122.736 44.8639 25.0287 23.8544 19.7895 27.0549 20.9346 27.8477 13.7113 6.0856 4.75313
threshold=-1.0958052730577224 1.5473910639978323 -0.055088735912396741 -1.2104913287172094 -1.1037694865345093 -0.91182922607336547 -0.39985315110179148 0.16832835729273202 -0.40090088904578763 1.0000000180025095e-35 -0.094551370547476629 -0.40365134522712032
decision_type=2 2 2 2 2 2 2 2 2 2 2 2
left_child=-1 2 10 -4 -5 -6 7 8 -7 11 -2 -8
right_child=1 -3 3 4 5 6 9 -9 -10 -11 -12 -13
leaf_value=0.22854043898128329 -0.15082400065401327 0.20847208292587946 0.069764941773610187 0.07929227232409175 -0.11662906199120558 -0.10771978760603816 0.0094874698775155204 -0.13216972760555726 0.057157903661330549 -0.042231900836615002 -0.084222260331187182 0.061985247034360383
leaf_weight=21 23 23 32 20 26 20 35 31 21 34 34 34
leaf_count=21 23 23 32 20 26 20 35 31 21 34 34 34
internal_value=3.29087e-10 -0.0144125 -0.0309491 -0.0128921 -0.0248605 -0.035224 -0.0231295 -0.0701575 -0.0232702 0.00974442 -0.111097 0.0353559
internal_weight=354 333 310 253 221 201 175 72 41 103 57 69
internal_count=354 333 310 253 221 201 175 72 41 103 57 69
is_linear=0
shrinkage=0.1


Tree=26
num_leaves=14
num_cat=0
split_feature=12 4 12 10 6 7 11 2 4 6 5 5 4
split_gain=103.24 363.029 29.7875 28.1529 27.2245 28.7442 24.4679 20.4892 10.53 13.7443 9.42895 8.15161 8.68037
threshold=-0.41340262122457316 0.14354053765356012 1.9956593022112565 0.34257769507964581 -0.33119642162019125 1.2826149586655193 -2.4118915105789744 -1.0958612224234046 -0.67959766754009199 0.64794453994463319 -0.39985315110179148 0.022734349279142332 0.42649429568887837
decision_type=2 2 2 2 2 2 2 2 2 2 2 2 2
left_child=1 3 6 4 5 7 -2 -1 -8 10 -10 12 -11
right_child=2 -3 -4 -5 -6 -7 8 -9 9 11 -12 -13 -14
leaf_value=0.16613495814735477 -0.13678774969652294 0.44978918858936856 -0.16033850773703306 -0.092828201832106494 -0.070106320439473443 -0.040388552438129083 -0.079924954483285557 0.037694454165520495 -0.0084516831618898069 0.031375765490035221 0.070702768586300035 -0.082244586142209863 -0.046264670002791622
leaf_weight=23 20 21 20 26 23 22 25 27 34 24 27 26 36
leaf_count=23 20 21 20 26 23 22 25 27 34 24 27 26 36
internal_value=4.06467e-11 0.0659852 -0.0441976 -0.000625392 0.0246091 0.0548654 -0.0320996 0.0967771 -0.0199266 -0.0097228 0.0265839 -0.0354752 -0.0152085
internal_weight=354 142 212 121 95 72 192 50 172 147 61 86 60
internal_count=354 142 212 121 95 72 192 50 172 147 61 86 60
is_linear=0
shrinkage=0.1


Tree=27
num_leaves=13
num_cat=0
split_feature=7 5 11 12 5 6 0 5 6 2 0 5
split_gain=94.5361 81.6853 31.1875 20.0698 27.7737 23.9058 18.7857 21.7798 9.76944 20.6095 6.56226 6.16449
threshold=-1.0958052730577224 1.4993539346299831 -0.055088735912396741 -1.0652995648544905 -0.39985315110179148 0.59183849593629734 -0.41135238168930194 0.13899812615495102 0.16832835729273202 -0.50629673990732849 -0.094551370547476629 0.18285811383863979
decision_type=2 2 2 2 2 2 2 2 2 2 2 2
left_child=-1 2 10 -4 8 6 -6 -8 9 -5 -2 -7
right_child=1 -3 3 4 5 11 7 -9 -10 -11 -12 -13
leaf_value=0.20578307147536959 -0.13539494888290116 0.15721207819162653 -0.10118417409451114 -0.079358144611120229 -0.014132969586118574 -0.0023000005100454603 0.027333063068422109 0.13999461643397809 -0.084941102201357865 0.053351136127656157 -0.066234021348988301 -0.079873970299959185
leaf_weight=21 23 26 23 25 31 21 37 32 39 22 34 20
leaf_count=21 23 26 23 25 31 21 37 32 39 22 34 20
internal_value=-1.16284e-10 -0.0129773 -0.0273907 -0.0121717 -0.00315278 0.0241649 0.0505303 0.0795819 -0.0479411 -0.0172389 -0.0941411 -0.040141
internal_weight=354 333 307 250 227 141 100 69 86 47 57 41
internal_count=354 333 307 250 227 141 100 69 86 47 57 41
is_linear=0
shrinkage=0.1


Tree=28
num_leaves=14
num_cat=0
split_feature=12 4 4 6 4 7 4 7 12 12 5 8 6
split_gain=79.6133 168.98 43.9046 26.1021 44.2181 22.283 20.7953 12.1477 13.0612 11.1406 10.1609 9.15436 5.93325
threshold=-1.0167240906531252 -0.87252068438235397 0.96239156469516296 0.84522063016749061 0.14354053765356012 -0.8695245733142164 -0.38378237504862289 0.54124421061953498 -0.55068113527190998 1.1987399283569726 -0.31631031741857557 -0.57232162077903037 -0.38187284846642994
decision_type=2 2 2 2 2 2 2 2 2 2 2 2 2
left_child=1 -1 3 4 6 9 7 12 -9 -4 -5 -8 -2
right_child=2 -3 5 10 -6 -7 11 8 -10 -11 -12 -13 -14
leaf_value=-0.035902348828726803 0.097008569741790951 0.3419322744011879 -0.18538930388167502 -0.10267007659588541 0.12576669575646521 -0.010414053996404013 -0.10632102299820295 0.036113992723403501 -0.055730137384186189 -0.086116252495692325 -0.010651299765422232 -0.017015966773033141 0.025111965090036395
leaf_weight=29 22 20 20 28 32 24 22 32 30 26 21 24 24
leaf_count=29 22 20 20 28 32 24 22 32 30 26 21 24 24
internal_value=-3.06231e-10 0.118316 -0.0190081 0.00169901 0.0188049 -0.0885249 -0.00342095 0.0205613 -0.00832672 -0.129278 -0.0632335 -0.0597271 0.0594973
internal_weight=354 49 305 235 186 70 154 108 62 46 49 46 46
internal_count=354 49 305 235 186 70 154 108 62 46 49 46 46
is_linear=0
shrinkage=0.1


Tree=29
num_leaves=14
num_cat=0
split_feature=7 10 5 11 9 12 8 6 2 6 6 11 2
split_gain=78.5996 70.5465 84.1034 28.594 19.1355 16.4945 15.3617 13.774 15.9136 15.8024 10.3085 9.95155 3.13315
threshold=-1.0958052730577224 -1.2104913287172094 0.85677030554991418 -0.055088735912396741 -1.1037694865345093 -1.0652995648544905 -0.68822657144022992 0.86331935404114701 -0.84834516672816085 -1.0298071631433376 0.69862096679087171 0.40964754139445753 -0.12022942271503877
decision_type=2 2 2 2 2 2 2 2 2 2 2 2 2
left_child=-1 2 -2 10 -5 -6 -7 8 -8 -10 -3 12 -11
right_child=1 3 -4 4 5 6 7 -9 9 11 -12 -13 -14
leaf_value=0.18763812560410728 -0.021794506883428946 -0.15731489621102812 0.22208570654575643 0.069998158311302017 -0.10794125395300597 -0.087970822235500373 -0.060880717445308201 -0.062908322188784102 0.10644160524010658 0.012356955615373758 -0.060409109553565155 -0.036135329015087335 0.063632883588698771
leaf_weight=21 31 21 26 22 23 27 26 34 20 26 23 32 22
leaf_count=21 31 21 26 22 23 27 26 34 20 26 23 32 22
internal_value=-9.91043e-10 -0.011833 0.0894491 -0.03275 -0.0187327 -0.0280283 -0.0181994 -0.00642547 0.00881593 0.0269371 -0.10666 0.00706092 0.0358584
internal_weight=354 333 57 276 232 210 187 160 126 100 44 80 48
internal_count=354 333 57 276 232 210 187 160 126 100 44 80 48
is_linear=0
shrinkage=0.1


Tree=30
num_leaves=15
num_cat=0
split_feature=7 10 5 11 9 12 8 6 2 6 7 0 4 12
split_gain=63.6657 57.1427 68.1237 23.1612 15.4998 13.3877 14.0386 11.3826 12.009 13.9682 8.73857 5.62074 7.53424 5.98744
threshold=-1.0958052730577224 -1.2104913287172094 0.85677030554991418 -0.055088735912396741 -1.1037694865345093 -1.0899392981450382 -0.68822657144022992 0.97191169728308691 -0.84834516672816085 -1.0298071631433376 -0.81966651322293815 -0.40043364867873105 -0.25087985233506432 0.15894318349586198
decision_type=2 2 2 2 2 2 2 2 2 2 2 2 2 2
left_child=-1 2 -2 10 -5 -6 -7 8 -8 -10 -3 -11 -13 -14
right_child=1 3 -4 4 5 6 7 -9 9 11 -12 12 13 -15
leaf_value=0.16887432677405223 -0.019615053325410813 -0.14481214798055589 0.19987714072832696 0.062998343225229875 -0.10304793933406474 -0.082416515384933775 -0.053148276678153451 -0.069294693134725097 0.0957974448800087 -0.040529637478969316 -0.05531154678513607 0.067417835799001513 -0.041088858623381547 0.030311449741323788
leaf_weight=21 31 20 26 22 20 28 28 24 20 22 24 21 23 24
leaf_count=21 31 20 26 22 20 28 28 24 20 22 24 21 23 24
internal_value=5.85365e-10 -0.0106497 0.0805042 -0.029475 -0.0168594 -0.0252254 -0.0170336 -0.00573285 0.00532138 0.0202046 -0.0959936 0.00340615 0.0176207 -0.00462913
internal_weight=354 333 57 276 232 210 190 162 138 110 44 90 68 47
internal_count=354 333 57 276 232 210 190 162 138 110 44 90 68 47
is_linear=0
shrinkage=0.1


Tree=31
num_leaves=14
num_cat=0
split_feature=12 7 0 0 7 12 10 0 6 2 5 9 6
split_gain=59.0004 128.392 34.9371 26.1401 46.2316 23.2938 20.4666 19.9497 15.4962 10.1978 7.86338 6.47961 3.29037
threshold=-1.0167240906531252 0.2014227892416158 1.2629053290961187 0.57655813135608691 -0.8695245733142164 -0.65627999223139988 -0.34521001545896174 -0.41195268922274958 0.91037603611265439 -0.12022942271503877 -0.50637026404789143 0.16512203972535819 0.10860256850966517
decision_type=2 2 2 2 2 2 2 2 2 2 2 2 2
left_child=1 -1 3 4 -2 6 -6 -7 9 10 -9 -11 -12
right_child=2 -3 -4 -5 5 7 -8 8 -10 11 12 -13 -14
leaf_value=0.28876702679055083 -0.13569197497683869 -0.03833092201301562 -0.13775135118683632 0.08665640138055164 0.12699446678161622 -0.11361024253070356 0.0033242856152355671 -0.054338316769609533 -0.079333715483546258 0.086908973604440692 0.036462748795747756 0.01181127682880119 -0.015374878033995629
leaf_weight=21 29 28 22 27 23 20 32 31 25 20 24 27 25
leaf_count=21 29 28 22 27 23 20 32 31 25 20 24 27 25
internal_value=-3.73187e-10 0.101854 -0.0163634 -0.0069269 -0.016797 -0.00160779 0.0550409 -0.0197222 -0.0073685 0.00679788 -0.0149219 0.0437677 0.010015
internal_weight=354 49 305 283 256 227 55 172 152 127 80 47 49
internal_count=354 49 305 283 256 227 55 172 152 127 80 47 49
is_linear=0
shrinkage=0.1


Tree=32
num_leaves=13
num_cat=0
split_feature=7 10 5 11 2 12 9 6 6 12 5 6
split_gain=53.8735 45.3013 49.5822 17.9034 13.2309 24.4475 13.0438 9.69464 9.4689 6.91877 11.5563 5.04809
threshold=-1.0958052730577224 -1.2104913287172094 0.85677030554991418 -0.055088735912396741 -1.220701682001472 -1.0652995648544905 -0.79707058682240872 0.84522063016749061 0.69862096679087171 0.22159850529182604 1.0000000180025095e-35 -0.79090400801106997
decision_type=2 2 2 2 2 2 2 2 2 2 2 2
left_child=-1 2 -2 8 -5 -6 -7 9 -3 10 11 -8
right_child=1 3 -4 4 5 6 7 -9 -10 -11 -12 -13
leaf_value=0.155345439662536 -0.014049454114489979 -0.1335899827380975 0.17320526333955619 0.060230933910324462 -0.1253870601277976 -0.06587601149868634 0.011674738279543817 -0.043632479736933842 -0.040714204161549396 0.068647853843867776 0.047060659047412245 -0.047870877385139468
leaf_weight=21 31 21 26 21 21 36 24 37 23 20 38 35
leaf_count=21 31 21 26 21 21 36 24 37 23 20 38 35
internal_value=-4.20937e-11 -0.00979656 0.071365 -0.0265582 -0.0154666 -0.0230004 -0.011684 0.000984243 -0.0850413 0.0150938 0.00405173 -0.0236489
internal_weight=354 333 57 276 232 211 190 154 44 117 97 59
internal_count=354 333 57 276 232 211 190 154 44 117 97 59
is_linear=0
shrinkage=0.1


Tree=33
num_leaves=14
num_cat=0
split_feature=12 4 0 0 7 12 0 10 6 2 5 9 6
split_gain=46.8754 104.105 30.7129 22.5837 37.9819 16.7036 16.6413 15.1189 12.0317 8.61035 5.91002 4.85738 3.02217
threshold=-1.0167240906531252 -0.87252068438235397 1.2629053290961187 0.57655813135608691 -0.8695245733142164 -0.65627999223139988 -0.41195268922274958 -0.34521001545896174 0.91037603611265439 -0.12022942271503877 -0.50637026404789143 0.16512203972535819 0.10860256850966517
decision_type=2 2 2 2 2 2 2 2 2 2 2 2 2
left_child=1 -1 3 4 -2 7 -7 -6 9 10 -8 -11 -12
right_child=2 -3 -4 -5 5 6 8 -9 -10 11 12 -13 -14
leaf_value=-0.030260096535343551 -0.1226779924898312 0.26630472242832187 -0.12839860155839811 0.08124690452521599 0.10866907856872549 -0.10223438747227193 -0.046847671943326154 0.0023765271180309355 -0.068613188728690142 0.078604954457841825 0.034289858094416557 0.013584070928670741 -0.01539020643197
leaf_weight=29 29 20 22 27 23 20 31 32 25 20 24 27 25
leaf_count=29 29 20 22 27 23 20 31 32 25 20 24 27 25
internal_value=-3.68977e-10 0.0907868 -0.0145854 -0.00573775 -0.0149119 -0.00114444 -0.0164839 0.0468261 -0.0052009 0.00728183 -0.012676 0.0412525 0.00894289
internal_weight=354 49 305 283 256 227 172 55 152 127 80 47 49
internal_count=354 49 305 283 256 227 172 55 152 127 80 47 49
is_linear=0
shrinkage=0.1


Tree=34
num_leaves=14
num_cat=0
split_feature=7 10 5 9 12 11 4 12 0 6 2 6 5
split_gain=46.2981 35.646 36.5658 16.033 33.2621 14.6421 20.6389 14.4622 13.4077 10.1345 7.37057 8.78886 16.8261
threshold=-1.0749152875589201 -1.2104913287172094 0.85677030554991418 -0.65574854479820555 -0.83298207954361292 0.38902587713121345 -0.67959766754009199 1.1987399283569726 -0.40304260809942172 -0.36377412459277331 -0.19311315923171402 0.42533023629865618 -0.21118558503386237
decision_type=2 2 2 2 2 2 2 2 2 2 2 2 2
left_child=-1 2 -2 5 -5 6 -3 8 -6 -7 -10 -12 -13
right_child=1 3 -4 4 7 9 -8 -9 10 -11 11 12 -14
leaf_value=0.13410073934743802 -0.012279818604389828 -0.014976719167569411 0.14974592339534026 -0.16096398922659103 -0.087371604570320671 0.0063311675723109933 0.12214186271829974 -0.10177431504496121 0.041149058406271283 -0.081540883634062047 -0.065409351170063024 0.071111593314487007 -0.041775329002449596
leaf_weight=24 30 23 26 21 21 35 21 22 31 21 25 23 31
leaf_count=24 30 23 26 21 21 35 21 22 31 21 25 23 31
internal_value=4.44088e-10 -0.00975278 0.0629464 -0.024611 -0.0429492 0.00729747 0.0504662 -0.0267511 -0.0141518 -0.0266209 -0.000173468 -0.0163886 0.00630614
internal_weight=354 330 56 274 174 100 44 153 131 56 110 79 54
internal_count=354 330 56 274 174 100 44 153 131 56 110 79 54
is_linear=0
shrinkage=0.1


Tree=35
num_leaves=14
num_cat=0
split_feature=3 5 0 7 11 4 8 5 0 0 10 6 7
split_gain=40.8209 36.0766 24.4618 17.2362 28.0116 19.9726 16.741 22.4312 12.1914 10.6133 12.1459 4.74088 1.85727
threshold=1.0000000180025095e-35 1.4993539346299831 1.2629053290961187 1.0576531306107768 0.38159516570674856 -0.25087985233506432 -0.57232162077903037 -0.86351587804363927 0.25116254676147159 -0.40986997732887265 -0.1899031130792764 0.69862096679087171 -0.60038054368590832
decision_type=2 2 2 2 2 2 2 2 2 2 2 2 2
left_child=1 2 3 5 -5 9 12 -8 11 -1 -11 -9 -7
right_child=-2 -3 -4 4 -6 6 7 8 -10 10 -12 -13 -14
leaf_value=-0.012309151276946068 0.12061181854313384 0.12058698490262032 -0.11962278730616989 -0.12193964396137745 0.012562540713697674 -0.050668904806529594 0.094646976604348135 0.047972011424246286 -0.06553768240979739 0.12406403446062045 0.029242455240871226 -0.019222658624251685 -0.091759419949217283
leaf_weight=25 26 20 22 32 30 22 21 21 35 22 35 21 22
leaf_count=25 26 20 22 32 30 22 21 21 35 22 35 21 22
internal_value=2.04089e-10 -0.00956069 -0.0180118 -0.0101956 -0.0568579 0.00271985 -0.0199713 0.00303576 -0.0219491 0.0420142 0.0658403 0.0143747 -0.0712142
internal_weight=354 328 308 286 62 224 142 98 77 82 57 42 44
internal_count=354 328 308 286 62 224 142 98 77 82 57 42 44
is_linear=0
shrinkage=0.1


end of trees

feature_importances:
Column_12=86
Column_5=79
Column_0=53
Column_7=47
Column_4=44
Column_10=41
Column_6=37
Column_2=27
Column_9=22
Column_11=20
Column_8=7
Column_3=3

parameters:
[boosting: gbdt]
[objective: regression]
[metric: rmse,l2]
[tree_learner: serial]
[device_type: cpu]
[data_sample_strategy: bagging]
[data: ]
[valid: ]
[num_iterations: 300]
[learning_rate: 0.1]
[num_leaves: 31]
[num_threads: 16]
[seed: 42]
[deterministic: 0]
[force_col_wise: 0]
[force_row_wise: 0]
[histogram_pool_size: -1]
[max_depth: -1]
[min_data_in_leaf: 20]
[min_sum_hessian_in_leaf: 0.001]
[bagging_fraction: 1]
[pos_bagging_fraction: 1]
[neg_bagging_fraction: 1]
[bagging_freq: 0]
[bagging_seed: 400]
[bagging_by_query: 0]
[feature_fraction: 1]
[feature_fraction_bynode: 1]
[feature_fraction_seed: 30056]
[extra_trees: 0]
[extra_seed: 12879]
[early_stopping_round: 0]
[early_stopping_min_delta: 0]
[first_metric_only: 0]
[max_delta_step: 0]
[lambda_l1: 0]
[lambda_l2: 0]
[linear_lambda: 0]
[min_gain_to_split: 0]
[drop_rate: 0.1]
[max_drop: 50]
[skip_drop: 0.5]
[xgboost_dart_mode: 0]
[uniform_drop: 0]
[drop_seed: 17869]
[top_rate: 0.2]
[other_rate: 0.1]
[min_data_per_group: 100]
[max_cat_threshold: 32]
[cat_l2: 10]
[cat_smooth: 10]
[max_cat_to_onehot: 4]
[top_k: 20]
[monotone_constraints: ]
[monotone_constraints_method: basic]
[monotone_penalty: 0]
[feature_contri: ]
[forcedsplits_filename: ]
[refit_decay_rate: 0.9]
[cegb_tradeoff: 1]
[cegb_penalty_split: 0]
[cegb_penalty_feature_lazy: ]
[cegb_penalty_feature_coupled: ]
[path_smooth: 0]
[interaction_constraints: ]
[verbosity: 1]
[saved_feature_importance_type: 0]
[use_quantized_grad: 0]
[num_grad_quant_bins: 4]
[quant_train_renew_leaf: 0]
[stochastic_rounding: 1]
[linear_tree: 0]
[max_bin: 255]
[max_bin_by_feature: ]
[min_data_in_bin: 3]
[bin_construct_sample_cnt: 200000]
[data_random_seed: 175]
[is_enable_sparse: 1]
[enable_bundle: 1]
[use_missing: 1]
[zero_as_missing: 0]
[feature_pre_filter: 1]
[pre_partition: 0]
[two_round: 0]
[header: 0]
[label_column: ]
[weight_column: ]
[group_column: ]
[ignore_column: ]
[categorical_feature: ]
[forcedbins_filename: ]
[precise_float_parser: 0]
[parser_config_file: ]
[objective_seed: 16083]
[num_class: 1]
[is_unbalance: 0]
[scale_pos_weight: 1]
[sigmoid: 1]
[boost_from_average: 1]
[reg_sqrt: 0]
[alpha: 0.9]
[fair_c: 1]
[poisson_max_delta_step: 0.7]
[tweedie_variance_power: 1.5]
[lambdarank_truncation_level: 30]
[lambdarank_norm: 1]
[label_gain: ]
[lambdarank_position_bias_regularization: 0]
[eval_at: ]
[multi_error_top_k: 1]
[auc_mu_weights: ]
[num_machines: 1]
[local_listen_port: 12400]
[time_out: 120]
[machine_list_filename: ]
[machines: ]
[gpu_platform_id: -1]
[gpu_device_id: -1]
[gpu_use_dp: 0]
[num_gpu: 1]

end of parameters

pandas_categorical:null
